8.582707317003827,5.6113214930007,-1.7185953373468248,1.5111804821282853,2.332119525487844,9.764841598717947,-2.092061482943672,5.030796982107539,7.974861100778927,-2.186885773517333,-3.151804854545624,6.133817245766583,-0.4252891128792271,3.2205684899498355,-9.765714289130011,8.559189565152849,9.360064309557309,-1.7589522299452796,6.457507185461072,-2.5127169970150725,9.625073040606072,7.672765388053797,6.7930715211331645,-9.47490058761042,-8.435306270550347,-8.777997353228228,-6.136774160055401,-3.545723356848553,-8.62612757999929,-9.715292685999783,0.7839565249164497,-5.239819633761689
5.346368617829659,2.051243096504521,0.6671385251358153,-7.4948721475332425,9.28567816156858,0.9908560723553954,-7.702373874624575,0.9298928123804622,-7.349272318495663,8.775282650109894,6.345131123939666,3.211238939338674,-6.06028647346551,-3.8166636184215585,-4.278413046515732,0.5327439307336324,-4.033365645559588,5.478180911723445,-4.864152383848195,-5.393983356898298,-9.411305904840326,5.8349092600123384,8.579915802235856,-4.31348993293777,-4.8735507066434565,3.2925577638387455,-4.7333751776411965,-0.5751527152257161,6.143749521038501,1.2035179474535198,-4.481949545702566,-3.0060150669882857
-6.520556225477289,-3.4705846800610507,-3.4988772594375366,6.531750267248519,-1.8127430629868329,-7.49446552880026,3.8614983849964624,-2.4848792019987354,-1.6721864336046117,6.483407117864743,4.763312663335313,5.284383749533987,4.7240925809519005,9.782648395960369,3.623406662672341,1.6661447720346256,8.1815657967941,-7.393231038500208,6.040546615684448,-0.7215948401473415,1.6697837968113944,-8.212816862525877,-7.048267200838922,-8.425846591635073,-4.690705658538185,-3.2086071165707652,-6.377512302685879,-9.515315012149191,1.1571976460682976,1.7858442903527632,7.949585041680624,-0.2515925218397719
-2.13691475425626,-2.7869684981543124,0.8212413064680053,6.189575064719584,-2.2435476734949233,4.156344685253526,9.458446123067493,-8.066546599617476,-0.7926995666425825,9.748473360157643,-9.19070375491389,-0.8657075875772016,6.400252243297139,9.346043885084534,-2.1727506432362915,9.542452048029872,3.5062997399178464,-4.413087182158146,4.48579029579281,4.051171051343815,0.5306097951953639,-3.1541059639274183,2.0454191206048336,0.5652577629768771,-8.03985590394541,8.800225198145007,0.918403839665956,-8.150552351861604,-4.782816070931135,8.986125517086684,5.280624589731232,1.362889773294631
5.785293207021535,-4.510442690886056,-3.7648382451561186,-7.0118088146031665,0.9982700106184534,-6.44089790056255,-4.416441984920898,7.1361613471528145,-8.72721407454973,0.029564593958049556,1.7312711717331624,-3.4080850449603144,-4.186527651381551,-4.385013596918636,2.751436463080081,-0.6956922559165015,-1.6044013584083636,4.403578418479356,3.5039177153476473,6.411341450099982,1.586451500614869,-0.6363838874623937,-3.791469364866593,6.731438741226235,-1.8161730487095102,-3.3461457487975714,-5.451297243426508,-2.493513539213861,2.8112145535521194,-4.601371549938205,-9.637215688576832,4.361926192001189
7.551865969566652,-6.580494338995111,-9.506112894198143,7.675959957886217,2.0213912017228743,-2.928027723835114,-6.362410768517299,7.761148358136737,-1.8606882345882791,1.6017654009113969,8.520442710838683,-8.009001633245163,-5.950281494908449,2.1179152511511603,2.88029594015695,-9.115047799491682,-1.0183963784868943,-5.166937289426574,-7.856641054710874,4.000221278314825,0.679610304011808,2.550802209454975,9.023946596685054,-4.919324264525482,7.813023801181206,7.563792084366877,-6.8502410495486155,-9.125851183097547,-5.543217156450808,-8.978533414760028,3.143944712032704,-5.1156025553172
5.769844125983232,3.485822599689259,-8.610824815026394,2.4366146008227787,-9.860423624406089,5.455107708091806,9.601380760087523,-8.019158025532324,-6.860691852763359,4.953891665185292,1.7954794627111799,-5.065457102708044,-8.030110924006719,5.6961236533683195,4.818382463656015,0.6073624561222033,9.992984559225587,-6.696288659012439,-6.874565332773748,6.243438754102485,7.686709168806772,-8.370514063851655,8.28115924750956,7.7196279525936475,1.3670491845561692,-5.933687730792958,0.6957298587906315,3.201860459522445,-7.856973910482569,-4.564700994772661,-1.9225538262729014,3.9292394406839755
3.3366272885274597,6.185701293737232,8.261675444623926,0.8300084676585673,9.432562141223055,-1.2578363952749054,-4.842489771773623,8.910133938585687,5.977602580576081,3.0970343088490857,3.3686484500665355,6.830667376745009,-1.888908342479123,7.182895913221948,4.823207876674189,5.0376575547294316,4.844894567961779,3.804115976472284,-2.9052238479055204,7.997142739432043,-2.638495438512596,7.163994796793702,3.3843516084646765,5.576626495133638,4.586056880015999,-4.62612321057104,-2.5052871741991467,-4.117169175867996,-5.821843469216916,-7.118880044207918,-8.268787993908148,5.851247283329549
-3.6944085429249096,-3.004341908273549,-1.0682144894618677,-4.11854299906083,6.7848437978784055,1.4575011388529866,3.4822674814095844,3.1684100320826314,3.3464364914735008,1.7800488178591642,5.298280032273627,-6.233899954708145,-0.524841103715513,9.231310557035833,-2.4360158040218893,7.9102107651970535,-7.327679553203645,9.588944858413711,3.7888253325713013,-1.4780473640554703,-9.474335500676574,-7.670383928819453,2.7189322970454004,-4.361527318637601,-4.846095775238581,-4.321346143990961,9.84970235305132,-3.523597781741456,-2.3612154024891163,-4.944313748937881,-9.108040189971067,0.7821333557581926
-4.2546708392173604,2.277620497728165,9.670175276373488,9.607514882499771,6.666751458210392,-2.5899991508667464,-2.7041491842349945,0.40699363992777116,-9.292479716573304,4.575078302968535,-7.533336744160279,7.290240768984457,-9.944995524316024,9.847913027117144,-3.2749086696324152,-1.1221565853931903,-5.129185396509051,-0.7139642219998326,-9.350394281193168,4.498428945169103,-3.4794302231950525,-1.9804085620065575,8.942032111161609,-8.381885137440223,-0.8719645961596019,0.10542378272299402,-8.4035906374556,-3.166556616134672,-7.263101675074603,-9.090648848704744,-2.70022244852626,2.2561179448204456
-4.696957688650016,-1.652195128112222,-6.251428501831735,1.3162500516609743,-2.6135737841245525,-4.728126717355701,5.389042944224215,2.3417701062222136,9.857547597375763,4.786153962987052,-8.161618695135475,-5.532575951605063,-6.931193585755646,-3.496590883388979,-0.49370298873742513,5.435933839410241,-3.604413884952913,-0.6393163614095769,-0.22335978843205595,5.831387411832761,4.943042962625547,1.928734410576494,-8.839885986869438,-7.9133212424889,-5.0690596709506135,-2.156946516187035,4.211501044320213,-2.7336335961713987,-9.879042747896404,0.2105095657166256,-1.0228163061634739,-2.7233701034286035
-5.677277615703242,-6.145428844430918,-6.408712649974689,-1.2689072377348722,-5.428820462258601,-3.1933266720953313,-4.650133552390814,7.393437187182336,-3.9926162563053165,5.6097179288433665,-9.549679106807254,-7.127994214609863,7.767676195003183,-5.679017662524468,-1.9225020190626694,5.2879791714843165,-2.7963805488401423,-3.2061073793611827,-4.732573729717799,-6.04697981284721,9.326826910192263,0.25410759923480697,-5.296606523785474,-1.0702615747875743,-0.10980866227342467,9.555229970768238,-2.475768372974507,-4.678366448142084,4.739347961179172,9.523974929977218,2.0421614913195825,-2.4424606103187907
9.926303150258434,-5.680548746733736,-5.673636542985047,1.5317967092649027,4.157295104376072,8.810316666828996,-8.213846656004517,-7.884864035199546,4.5917708197610345,2.799574598067201,5.776421386783239,8.206080872394267,-2.1145614912557775,0.9278662683655661,1.4635628952653406,-0.4390703733914876,9.335895825254756,5.000205550571039,7.774244178648036,-6.478757593697477,-5.2626795050181485,9.044119897285267,8.370587275252351,-0.5609143685709324,8.536484536449468,6.317367708232698,0.286609538289893,2.2726846936838427,8.03207996363707,1.5262758109154522,-8.181943748540165,2.0364238171554803
8.629028297976358,0.08754763671366206,-6.100492879575389,-6.377740420661382,8.42328988670916,7.956192905714847,-1.563643241664094,-3.99612830131451,-7.756774794036465,-6.767488912972617,-2.7898184329370395,-8.293056828993725,7.079053065481325,7.122646372506118,4.5525071607872825,4.008086080094646,9.925001328461384,-2.2614790118686194,-8.25293881036215,-0.2200542979128457,5.661584358940427,-8.722784659353728,-5.162763387725661,-9.336902237322995,1.7322809081680148,-0.7832184874702275,-6.381736081796571,2.96146423795717,-5.133299118242329,9.890612530241288,3.9147758368124403,8.734896694744283
-1.0722717023511148,3.4736591083113417,7.1285987174699486,0.2968167355130227,1.5674452405184418,0.013408529078995812,2.416840169905246,-8.057576370759268,-5.9352580432030555,5.751336401661895,8.918401750119887,-4.997383374436335,-9.18838067544938,-7.168104920445071,7.66550394366169,5.8093235341145615,9.51731443848412,1.0099346202009372,-8.949801059867157,3.841179325641871,4.089838876216451,9.229913022160073,6.641663613882237,-1.518973867640609,-8.8310876625628,6.630543050183739,-8.56974541875655,-4.108679156213382,-0.3008872339169333,-4.260528320599464,5.935483698245953,9.404806346409863
1.0136047869273064,-3.902147941830247,-0.07860234993573201,-1.8698816129821427,4.260016984236209,-8.343623280513924,2.720690471519667,-0.7256841634604037,9.233742888852397,-2.9889723542218016,2.0143566715286383,4.906721227091017,2.3255866058194705,-9.722120795086973,-8.249178114027629,-4.305579050660679,-1.6537607639411824,8.241609282510225,1.0935903822054112,0.37143430807253175,-4.036153893933401,6.1650718994887335,4.598566795090846,-8.57358095656166,-8.779286861279012,-7.106340376914035,-4.665095545415041,6.607092340288798,6.05689824962958,-8.779177513082734,5.696988871356757,8.724180789241132
-3.2131258274720054,7.221034824017959,7.147324911277305,1.777800794725085,2.1215964564472394,8.557797387516889,2.256423823690195,-2.205725003880157,-4.0857282918171745,-5.362832166167555,5.37057465553114,-9.18874546166406,-6.092206354364098,0.16818265546840117,-4.359353304043603,-3.1106323680543735,-1.5024670170195638,-6.121154497207792,3.335481731070102,8.752324809523039,-2.3329794684550587,-1.2682331513627823,6.552204976257261,-4.255599115327362,-2.7091207770461185,1.632709735406742,-0.6852916489245846,-4.941009540436914,-6.939596855161003,0.14984518201583086,3.8454179556970285,1.019532550440875
3.4610740967285807,5.446365922931236,-5.75571696844738,-5.971986758239593,-1.7217329079673185,-4.536277691034247,-8.429738002952918,9.239680030814828,0.6993300914582861,2.497241757530409,3.908069041373821,3.081292095197597,-8.277511588095685,-4.347376453171368,5.062103164423256,8.93810918124803,7.760920759191446,5.188967755155716,-9.332689146678518,-1.9847851489370818,-6.569532098970656,-5.305559748834144,0.4423750930024877,-7.136431570604287,1.4055777696784801,2.9291404663522727,-9.070865851316691,-5.044910475514193,-4.532856887875707,-6.159146471495185,7.563779080429821,6.498466277502594
-1.0211476841357499,5.829265836983735,-8.286527870680613,8.915715135710677,-3.054407846943599,0.6223400087831941,1.8557453843514988,-8.930607776886054,0.09805276107796956,-1.4369901064116242,-5.492649487294264,4.54739318328544,8.195384401637213,-5.75480286636509,-6.396111649209386,7.581734195140331,-3.4289155223710406,-9.094065302848682,-1.314213022817409,4.658341203641568,-0.9718287069478109,8.694227700903749,8.491147614771052,-5.610618858008207,6.612449787678209,-5.754871347007207,-0.17768156235216104,1.7119675556027065,-4.659597862876524,-5.196021369645079,8.316223988055512,-0.8697106111792365
-6.428856970576633,8.5120253009048,-0.09668053741794758,-1.172868996101906,-0.8072630254338424,-5.706010487176751,5.748120361918627,-3.2191049888703205,5.9187127654397305,-7.573297091400293,4.217870100202694,7.374801497634856,0.37738456721842084,-1.6701930501979074,1.2634769005753466,-1.415748459281616,4.953445029053325,5.741012424044442,6.743473924139025,8.213345955138397,-9.417155275148607,-2.110991208667075,-5.0336274016349165,-0.403178853633694,1.636456678396513,-3.1484611969394276,5.877700376159945,-1.819714174262785,-9.11202338178888,-1.6633032108166912,7.878064941403242,3.885289347718544
7.072090136339671,-6.466289030551604,1.3005563752896183,-4.610999761147754,-3.9845023382138685,5.197578239501468,-7.392501452563187,9.901426297703985,-1.6090555418201031,-0.14197222333522674,7.399458780039005,0.20847227094799337,-7.770949558355604,-2.307058812788412,-4.684668290159671,4.231518961333165,0.260714558762011,9.345388051679002,-6.1735142231478175,1.3394587327632763,-6.594488877383875,-3.0940598474247194,7.187662003597449,-1.6949770802157822,7.087705892600326,-4.512454604157579,6.266955760618092,2.4339259448127155,9.691548625048533,-8.803449682630491,-9.094861542710724,6.242390667977421
-3.8897405734478667,-2.574817581336082,-5.924187952540381,-7.607608042436338,5.041298100019116,0.8237640290382569,-7.728240088018465,-0.23062446698570227,-5.077034025764382,8.865626569162785,-0.3961987124348134,1.5378666994791246,-5.828191164383448,-4.576464288729392,6.358983088540533,9.309367593446439,3.491167106508735,-0.6041505310197515,-3.728253891548534,1.5014018280554957,1.1010078778611625,8.842897784888653,7.605175453284769,-5.043635709166137,0.33460800933954005,-8.633540283273424,-3.7147366017330707,1.570534106537682,1.0401488050257885,-3.321616784890608,3.103777330034621,-2.0080203588779426
5.416369000819053,4.114017822365511,2.5105264802301264,5.206101539418146,-1.727177210827131,-3.952184546508515,2.3917076904245747,-9.517436730754644,-1.2120496376490397,3.9186558226858565,7.7882880225773405,-2.6933634873895134,-3.1102580514688594,0.6102652704763063,3.8208714227162055,-1.0324443913922927,1.1691298983866165,-2.29421969404473,-6.733454534705787,6.1277175310010605,4.079496878516126,1.8741566026852237,-9.567913075340904,-9.127086645709532,4.219895262190299,-4.774909823958766,-2.5173022188358445,-5.863473167806279,0.7068844886901005,-9.807001508748591,9.539937719405561,-0.14739286654138795
-8.52869660916038,8.946526144086981,3.917940500938382,-2.633276087659448,4.126376759359378,5.972623027767854,7.588317246183063,9.9635573606594,-6.8187884870699245,7.753552302801619,-5.002284307057541,-9.0824071244183,-2.8416700303364433,-8.138716536855913,-8.015750352761104,9.105677876981723,-2.6964791318072745,6.448666041508506,-2.470662228861542,-9.973683872066182,-1.6472967194916937,-3.8110908229779312,8.3576785951627,-7.388181698204079,-7.602854556572229,6.510639893071797,-9.149398358758845,-7.943140379809382,2.51297572101625,-5.3150164272453075,6.772577872424719,-9.522804322196986
4.6531330633451375,6.191103015835221,-0.9487754920758533,8.245535527644229,-8.090383879764687,7.070476518606469,-6.702640564920099,-6.96494156496219,0.2679186448407904,8.659691457555926,-5.301389310373121,-7.868864461149167,9.898509998824018,-7.881251055163783,-4.6750184683287355,1.2127950925477826,9.721294539058814,-4.931145404120101,-7.773015686558107,-8.535567967943445,1.5235803443886393,6.161343256380523,-2.735453686609932,-0.29685287493402335,9.016609615352607,-6.107763246274502,-0.631844008180515,-5.927602832941936,2.335152960236959,5.500233500860141,-6.550838284865086,6.159355599468249
3.9405781666658974,0.04857042881597273,5.756382813571877,-0.6909078191017919,-6.393393794112161,3.3322716713622906,-7.596679992441732,1.2084318968277525,3.929604885463453,-5.591955567284154,3.3079653442697605,4.581372663947041,-7.3437378119335195,6.831234612319427,2.4025498354699053,-1.2058639265279503,-7.806793046302268,-2.957536621888133,0.1986265801668985,4.444671050790639,8.349375182735766,1.0507328215238942,-1.1856893405997013,7.139471105297076,-2.6962362107758864,-2.403507441137423,-3.5308100450605373,-6.545360235122073,-6.659262908678773,-8.032617058667332,-5.1855613756989305,-8.841875046189267
-0.3605352235796939,-4.282778765315143,-5.763465987643038,-1.5720906834424202,-7.532406141896459,-0.6896766003177124,5.600271290983514,-5.992469727183199,-8.94705202638492,5.932789046589724,0.5061844414961474,-0.10596833263383587,2.198235634578241,3.6187770639164807,-9.930386778853979,-6.001985947086053,-4.656653916628645,-3.392675701698389,7.190999620689404,3.7497022672709335,6.499464004101302,-9.952860352989493,8.966776137239048,-9.138605320003567,5.975114503888923,-8.361739301521018,9.929466201078284,-0.21945470990410776,7.092610726213838,-1.0758902431375024,7.777487550461849,4.009774229364444
-6.512175198451208,7.219180951868356,-9.696757074487843,-1.3749940397414644,-4.170457047147091,5.879001608839074,8.857139865263814,2.800092433517227,-0.718734631642878,-3.719053832089023,6.929098842856906,-8.886867995603371,-5.158166523862566,-1.1306468232289042,3.100131964416203,-4.1656062915005325,8.824640260651545,5.5548302507303475,4.428824616402698,-9.195699261906306,6.451655571960785,1.5729399877121502,-9.424891550005224,-9.814899539138748,-0.22161723681112022,6.590915384028769,-6.555369986306452,-2.7626637283655775,6.3803509584401965,4.880182361554478,-5.205117184903787,8.002303219378462
-4.263282778539663,4.8086140408080436,-8.978387213823096,-6.3593187659145585,-7.564936012327054,3.8642766197713048,-8.365196529157084,-5.788068251742007,-0.5546252473288753,-5.311234629826043,-8.826931768672894,-2.243143464108009,3.0616538918379668,6.047709836210533,2.744742019462997,-2.0002194890354508,4.589523138892401,4.245490462866158,-0.7039994896000721,-3.4406868038977834,-9.700666286423267,6.312609073369579,0.03744927491010941,7.303018382231372,-3.416067846982493,-3.486422831330298,-8.919327238907611,-7.245381811934375,-9.754490768089665,-4.543321842960914,7.814611412789642,8.311731084864757
0.14903423459511167,-8.951069720588393,-4.50477479899855,-3.035331163391084,4.399157717053196,-5.096808675960709,6.210436020773642,4.9894685586004535,-9.875202054965353,-6.750026211217439,1.7977951022406629,-2.302321062595391,8.132096581061479,6.737546814160641,-3.3136637009519054,1.9616321785061466,-3.775930896098436,-0.14479618066014766,2.551959963580204,-6.272568542505299,9.413148911356728,-5.859639268811742,-9.378408995216281,1.8177419868850624,-9.271894407438001,-5.732158050259537,-8.038419940758562,-3.817430929809116,1.32932518153269,1.7484956170909776,4.961511422079155,-2.0132551435978385
3.8484261615028377,-3.7958346430961605,8.4062780915677,9.897923191612406,-7.892660452855336,3.4569106118076576,2.2696118980833706,6.883383322752103,-6.51926337339038,-1.2983545037789703,-0.338776592588383,5.492412932988307,9.34361054127453,9.513972012656446,-5.90643348328888,8.318067025225094,-4.239450886885361,1.5569023793128594,-2.034672407248175,-6.195881254442859,3.771191196774854,5.412252718243849,9.750646641426354,1.8046330244077176,0.8876276643588472,-2.5036964802342148,-5.338341102642994,-6.555252531149279,-1.817676113360605,-7.290343097022259,-2.233567356541977,6.456373506210454
-4.025927606968995,-0.635568989488128,1.0022791557606752,-4.743622757536818,-5.650370651578087,8.618836568960457,9.723593152758934,-6.097582308577099,3.533016665317243,-6.766708665859937,3.5256521002464414,-1.7242795510540443,-9.80495228844,-9.05218985830524,0.29536448114597746,4.5616172132278905,-3.244703949197505,-7.354788207599721,8.652888852880409,1.5953400259192296,-0.38913664049484,0.7816132555765787,-0.17180147484650732,-7.405923731019389,3.663963468787907,4.999731139056603,4.118661803716716,4.372773678505526,0.9125235750320968,2.8634723098156716,-9.993600766596202,-8.978235719511293
-9.693223205816162,6.691880360758567,1.8434700053377533,3.1076040875159077,-5.138508721473296,-3.26740494452112,1.3865999639386786,-3.2187061693161407,9.158096417859369,-5.437324358660969,9.643579045290828,-8.363630368554254,1.786341308613082,7.469420753845874,4.435126120982407,-7.731969508962429,7.12941216655835,-4.803475266315182,8.689283820699494,-4.262713917613108,-0.23909075038296024,-6.934697661898584,-6.745021299813212,1.8995833966461557,-7.270218954194386,5.75342278669288,4.000626461201529,-2.8170567656100136,4.273018041652964,1.275156922873439,6.166605155919818,-5.068924609539874
7.4891366389334415,-8.871356509341036,-0.4164508902977726,-5.241037045297503,4.962806553301986,-9.657476869347914,-4.846962427177319,0.8561603042815502,-7.662595157438938,7.266053160376956,-1.5120015475931918,-9.99258308873108,-2.3949133111927168,3.493061224678639,1.2998456919351327,0.8457602509919866,7.436460909553098,5.748597892139022,5.846779532270791,3.9552887270680177,-5.24076288211319,-3.6851656923797282,3.9064429304922488,2.669821505127185,6.888937090574849,1.3331231780836443,-4.809428278988255,5.158989991188134,-1.9510695313816875,7.63507262845274,7.651196594781524,-7.440118692727527
-1.10439959674353,-6.458754747753681,6.940018420691008,-6.55506264767137,9.24938380831533,9.326279072214298,-7.590991031087409,-4.497998147039761,-1.7939500965894624,4.286422542444967,2.5258566584958295,6.433147563195327,3.8622654845238884,1.6315493433235329,8.0224713782663,4.999196695034399,-6.122503980488771,4.7407022886191434,-0.13042451998426507,7.503373799586349,-2.7696117099020707,-6.373678612411851,-8.105978442146425,-4.521134849048001,-0.07128432868869083,2.63604626579135,-3.2482720550740147,-8.084460709979728,7.869618075368134,7.095694023319357,7.632044110538512,7.574709991688607
9.435258794067146,-3.2891651209385797,8.929714758734427,-1.8127301465557366,8.37179422765876,6.376885315849346,-5.013329236131588,-4.197410801322383,7.83260026493738,1.9819759800981487,-3.3097305003140454,2.8089033365786147,-4.286139631944,4.73043764453422,7.927634754345036,5.1617177700024435,-8.071538885047486,5.088785453873344,-1.4304560537197393,9.202557383954407,-9.687285516041085,-0.5033779412219026,7.7348859435911805,-1.0492038343486687,-2.7705900879212253,4.981001612179362,7.708748635630677,7.190095017065552,-4.3793081123589435,6.718848324836596,0.8005257948474558,6.66645112639732
-3.455677922828613,-5.746854996126078,3.000720992328274,5.581839428233462,5.120782883970417,5.515490312470883,5.698075401868554,-5.648522743907963,9.0495978142416,3.7976097363694876,-0.07023379122113305,-6.189055500882878,-7.961872772133187,-1.7435393395536831,-9.706584543878215,-3.8834494987786172,6.927931904827862,-0.7702807319947418,-2.2891373527538654,-1.034436262287958,8.576388829562966,2.2925611357937985,-7.188751451919639,1.9920246142646505,2.5166142669801808,-1.5963339877016498,1.450746992108387,-1.1482063215979554,-5.112110182576181,0.7204476889416771,-8.090429542187092,-4.981111040749282
7.39195222021802,8.304008316847547,5.9468943054556185,-6.36234295650368,9.911374088122024,-3.8699579220688936,7.02630280294051,-4.189922631659928,-9.16741432241102,4.982419305828788,-9.048332665137126,-5.602697547101025,-9.725455251325668,4.191865206152606,-0.9741583590279639,-9.57666074747648,4.816802725285573,5.423083647475087,4.994555225208995,-3.8908463256408288,5.491851612591965,-1.3074595692673618,-9.65962995235267,-8.770194316463582,-3.440892446966939,-9.355545841485855,-2.399778309400604,-9.068289536792491,2.9072460124529584,-7.137955534847444,2.985432602372722,2.6486180508059327
-2.0480400887401036,1.0958472175131302,-0.5057980215104703,4.1972505171559185,6.682192062892295,1.3140682924438156,9.16540268533954,7.892484679570437,8.846947810082135,8.576334919950188,-8.924707423336296,-7.706983736943389,3.0803274482209257,9.59500444739368,-5.539954788715383,2.797824533161224,1.979741512418446,-9.436371876227634,0.6630660629583183,-5.9438531915980475,8.34827404113609,-7.207659176865686,7.478016784706895,4.710573236556346,-0.19443380797209286,6.91013769401178,-8.634218590396221,-9.886685086985032,-5.675616128924328,-9.531646920566061,8.678076280586968,-9.843043095022157
2.73782358577726,2.493918257932231,1.194514345803233,-4.692966318997658,5.999398956594657,6.497903277423436,-3.7021193873406233,-0.08812698748172743,2.304438915026905,-1.802083672311884,3.656495226875368,3.216821371586745,-0.9259536062298146,7.965529680823696,-5.268069529554602,7.723259270086206,5.055787417870514,2.5560380058764505,-5.202464341590316,-8.045979639778125,-3.1166873815626523,6.333727296912048,1.7623070298774088,9.74903520604946,-2.4311762958856864,5.2635691342604325,-6.3811100553906535,-1.1567801522789765,2.552286842904355,0.2408923967290022,1.7089223312600517,-4.541941576292938
8.698075526130069,7.84317274597883,8.670132981603807,-3.913537084497274,3.62966347660387,-8.713176156099076,3.4849228115804145,-8.875804374362932,5.662427794907895,2.3646485211069557,-9.901195748804454,0.7608329850393414,-6.735098309031004,8.814510028235038,0.12372112788743195,-2.18968799366386,9.280230958393268,3.7231193356308303,-5.324908144369651,-5.880995733448236,2.736922979253011,-2.5327279746132447,5.555627175317818,-8.375497909009848,2.450777896787562,8.981271789912842,5.3441421748272795,0.4540131520542783,6.345447850504744,-0.2794948909097954,6.599433389801721,-0.675179849395974
8.782808860389473,9.870582752367259,3.7908014097320866,2.7241528488252484,5.654773729406845,1.9367100832955693,6.501530928871386,-5.693199634759738,-1.8904602359401945,4.890381275247879,-5.439919605626134,8.741222255569252,-0.8733373456003015,6.516171493871305,-7.629991181687754,-0.5293634450198574,-0.9782205655031095,9.151552867660769,9.576891666797625,7.13100773423416,-5.6015096013294885,-1.576659573823882,-5.982285478356739,-0.34498852776279243,-3.5052439998783207,-3.538014193735579,-5.267949055188494,-4.210983309933316,6.529536668779684,-4.312208720365822,3.131061440991127,1.3643644684914946
5.891458305337032,-6.129567947758037,9.707136904040244,4.004517458094899,2.815778544558171,-3.364894095316952,9.087657236452532,4.812950299422436,-1.7049797301691338,-9.131813839420222,7.264924278076986,-5.098964926750293,6.034711569453506,7.259223751016108,-2.1838118003849942,-1.5410217894855176,3.589284022625172,-1.4590021839373897,-9.76066320593008,9.527925056086275,2.70918367902895,6.822008135462529,-1.0947652520885747,5.154522337007098,4.1832775734072705,8.007068433917567,5.772457137793765,-5.938316026707731,-2.9361628203376196,0.9756892101932024,4.673011176128959,-2.829837363105807
2.4292579793974394,-7.5774839986197495,6.9751367431713405,4.225786013298517,0.40600339158054766,-2.977483569736325,2.185981781119038,6.633191170374843,-5.516961185343716,-9.573438691699721,6.266296863746238,4.412631517848702,-5.639689607811071,2.5699237594804494,8.16105034557583,9.630571816509772,2.760445296382766,2.025324507279917,-4.531238717087844,-9.107262026810615,-3.600972125207238,1.644114300398078,-5.349026453317003,1.9251069034594774,-9.434060491724063,9.726506297662162,9.545945319523469,8.329436781162023,8.021752687961488,0.5654042147982352,-5.414876025145139,5.03738336864185
-0.39167055748492174,4.81086213743945,9.708852704046492,9.93872355570161,9.120722667366273,0.1308474224430043,5.322690784976407,-3.4607404747456467,-3.3308615309375416,9.441875779018996,8.526634568676624,-5.851586476740483,2.635931871367056,-7.912754560821263,2.3559867998792647,0.025432219721503557,7.511974952394894,-5.215139946040502,-9.295587610360034,5.17834653661958,-3.2067155114931367,-6.115841061714735,-0.9335281650028477,-0.794836582980194,-1.575879369747323,-1.9596197493377367,-2.93622477852868,1.4948494635400564,-9.308774652091882,-7.466251808568163,3.395858858709884,-3.692274342272035
1.6911432744258335,-9.100346400540982,-6.766953758587892,3.313330031595248,-2.0809226060709403,1.5158299859669189,4.2937912935835865,-4.420808177569011,-3.996954944877505,-6.521130568821314,9.659378108925655,-8.868893841971541,7.9364285609509295,1.0717012463850732,3.305774335367106,-4.775520354492007,2.407814075511613,3.8564531896746335,5.9215138598128885,-5.468761524121453,4.347544426974556,-7.077288588892692,-1.3551806758365075,-0.461441404463212,3.964280467505233,-5.245003535081776,-1.7027728662964865,-6.8139703443359885,7.071684675428408,1.6502695635787994,-2.4667708828579116,8.100838095042725
0.7467594745664847,0.8591630982465439,-3.3523524792812065,-2.4668982955253327,-8.862795411225793,6.770926289047701,6.892191605540027,4.091125486943259,5.894266871795574,-2.7577914279648326,1.8864938327695988,-3.8889973626121304,-1.0890788109382665,4.986070973400176,9.820247127963604,9.00378102480828,-4.838671162510801,0.8154634355473593,1.9905190408210203,7.015717090001846,5.804030886197037,-2.3793781125997544,-7.4975775910982145,-5.9961658029021825,4.068408205652245,9.7942958825317,-4.4152447134202415,1.1756215058849602,-5.209804680731514,-8.884324413737446,2.4842838038625423,7.101431170036449
-4.514027850484701,-7.707838315230182,-3.9159362369309196,8.040525359196685,-6.527416442939645,6.279878241795323,0.6041993646164947,1.4993573821401167,6.424582909563419,-4.619577545909683,-2.888548600514957,-9.367512482978775,-5.323989665937492,-8.683648614951817,-1.1765033265072251,-5.6205313995932045,8.462323934857523,9.331622725623046,0.3461648669871469,-3.3972029373453116,9.24145307282214,6.2500794433664595,-2.815599346313782,-4.453708643022669,6.146281522377446,7.867210043254374,1.1179883241159558,2.3067165963666554,1.13739035098728,3.654124248769353,9.750222446445513,-2.1857409763048263
-6.216173696381664,-8.651449386606203,6.414883851678081,-2.290095832698227,-5.630260377275422,-0.5499546329540941,5.566306737089013,4.003840224377559,-8.138840142062016,-2.5557338088393555,1.5992605034462848,9.123072233744026,-8.820278769128642,-8.98030559354063,-8.69104453945634,-5.408555267290716,1.7429023790325342,6.943145964517086,-2.262401793742008,-7.280860457002789,4.398769702460342,6.303273579527215,3.3772858171003755,-4.864792714994648,9.867944437095144,-0.7799066512306378,-5.102941343844423,5.447895698170981,-8.721512878340484,6.62335335604477,-9.648325990531951,-8.765839219626647
-7.173862109816083,9.652411894372396,1.2486838652076848,5.471713726798132,-0.9520326463235822,-4.111069652724975,2.1956141204363284,1.8271769715482495,-8.76888545973827,1.8256624416972471,4.956758430027939,6.075920288652664,7.884519679286186,-7.944891514565189,2.2107684548708466,2.065271094512193,-7.965008573822829,5.046243519005365,1.2161667782538785,1.312289862982725,-5.675419825834648,-9.147718600469755,6.088902616691772,7.412208472939923,7.795481865780392,2.352804345450469,-1.5405037440260454,-8.30147425133686,-7.815340779263824,3.228457615501185,4.96995828583443,-8.497753495545409
-9.368217389976953,-8.500885119963087,4.646475713439848,-0.3671949805894563,-3.623810667292105,8.287888736163403,1.6490334792187937,6.2649150701971905,8.586028678156222,2.4245046236492023,-2.34710979009437,5.681392962729888,-8.070975759072068,-8.759810529065295,-3.0482711457320892,-0.14122105635582294,-7.436208747015192,-5.947080292015676,7.661574393214256,-3.7082192822555697,-8.77971141863626,-8.953160461540756,3.4645538428011022,-9.010554047315082,0.6640840654664544,2.843947805765957,-2.8941640619078424,8.101077585038674,9.35782444715548,4.527137780482882,-1.7468358997078823,5.373939628117107
0.010761831135265965,5.424894835294403,-0.6572910774500524,-1.294252355757365,2.0687733339945797,6.132350084527616,1.9840231138765496,1.1110732281238747,-1.7460841049853784,1.0364246798476255,-9.231659887330393,9.109434518052971,-2.7929360971337243,2.8194243138094084,-5.338565168551634,-4.55359707604261,-2.477562655555179,3.477150697359532,-3.570831136328554,-8.776626249563515,9.115342028341068,8.872435939988673,-5.052421977284265,-4.52005374711397,4.326812237057231,0.9884437312459031,9.64325082862721,-6.682545078732249,6.142234996232492,-5.236855039419124,-5.6535950443749865,4.1900233024923175
0.8675485274855266,1.7366306565432623,4.602122602120675,-3.635216872322764,-7.0855907406644665,1.9516860971320078,-3.9130091397246236,6.564073365842084,4.307535060257084,-2.657434865576425,-7.8643194949476865,6.676430095368918,-1.8409424245069417,-3.9160001974301366,2.809001559139009,7.60294927533408,-9.150808092947644,-9.098459276404062,6.178805801323225,4.601972840823397,-9.45399017558442,-1.3539974894485773,-9.480015684677321,-3.2704435639822353,-1.7320389051939742,7.125769538884136,-9.634400377282208,-8.859238245515495,6.294512544624624,6.929901823546757,3.9450381699237838,4.4655142110982755
-7.0552115841709035,-6.158735679821614,3.8204001779506704,4.938025099366168,-3.9872743711964898,7.293581100463022,1.4646283625645484,5.522685895682022,3.0395912275237063,-7.460662410043795,7.31758100673289,9.680685846600191,-1.0668191292116163,4.07453616952168,-2.3766040751619695,1.221082424406445,-2.3190941140225663,9.891400406321896,4.411579316496585,-1.5468710663624812,-5.056246657440086,1.890941900158241,3.6842168659229095,-2.7864413013963674,3.075742634310071,-4.302441991843948,-6.277755769960994,-1.3914920709883134,-0.23725066246993975,-7.000769318333237,-0.21722616858173183,-5.467148245294315
6.100379975587334,-7.0960219429434375,-7.675843364508086,8.693913543366566,2.642278984106836,-5.961497072507536,-7.419022059441702,1.8551731799704623,-2.2005646987177174,5.445659673083565,-0.5345732960254921,4.016117880746879,-0.22419659266587644,-8.210014725950586,-3.8476113890997095,-8.410258596070385,3.4864403524855483,0.06336181339567659,9.489706997261575,3.84641198444365,9.156180705450645,-4.631818208736558,-0.04985208430839094,-3.9805617635030988,0.906125337346209,-8.200684100922448,5.93299411361067,8.983066226942768,1.5441577940182878,4.036236642370575,2.831812703305623,7.336279176331956
0.22962677225206285,1.6057422132392247,6.06903370404418,-0.6525425386267987,5.712952356135494,-0.11150670482484415,-8.392052433255872,-1.0931876864590944,-1.2232678808558894,3.2024941838710745,-6.782884467163615,4.176159314082886,1.5101422048163542,7.616930403728222,9.711936068399055,7.097125474397263,9.08478884903571,-8.536038409606695,-1.8352202124058525,-2.3105638402658997,-5.795977869992148,-6.800434174127399,6.734239426166148,-1.2361946367269034,-6.765838555555463,9.408371435886789,-4.391033563905838,0.6250634783041136,-2.9969021741779356,6.9630772553136495,0.9901017519917499,5.331555787502008
-6.975870675236178,-8.166541710165955,-2.5438630501479924,-0.7447160437635958,-2.425623420755773,7.565714634456377,-2.9441769626193377,4.320539095436569,-8.511122215016568,-2.8357624994219544,-4.564344378538648,1.2504160229536954,-3.982286456180786,6.197009072629914,-4.897126558609055,7.480408414218722,2.963688679935599,-4.6217572957134685,3.3565014693555604,-9.762211075774765,6.609773540195629,6.797494652128762,-2.6393943056077696,-9.699672463803157,7.408952896702292,0.050764788294248575,-1.6523206563071646,-7.708664219892894,8.207951053843555,-8.63275346325106,-9.638848553717885,-9.276332637380891
-9.555833420321378,5.251730043812483,0.5151101358949006,-1.8106520923348164,4.471692950397124,-3.3277431636801253,9.905800730420037,-0.5136530786697762,8.899125942727771,7.912461454039054,-9.29481525869545,-2.1870968801692836,-2.4507203649830984,4.804503800452391,-1.2776146700174724,6.804305095967532,-6.575780888335889,2.032820446990165,-4.0292355834253435,4.485694304087545,0.20716223361421804,3.64179237751177,5.493177584981499,7.993217899878392,7.117626796201559,2.601482038780569,6.637090518126293,-7.696730685827157,-1.0076868670394106,5.998380376729749,5.050634462562467,8.041424733646942
-8.770501673559144,1.1848409690716508,-9.091598158260188,-2.4047752528845656,-3.5122473514286217,-9.205466553906147,6.9193263796647955,5.356712174845049,1.671974575640128,-6.83445425516807,-6.299066735119617,6.464858017817775,-2.7307901090391145,-4.282309780436238,-3.7780000821551347,-8.85047609233003,-9.376892122570442,-9.731123923244105,-6.736185163792843,9.71231153960041,3.7031483756783103,-8.377927161047529,-3.7609825375794674,9.449307715226322,-6.33945034666554,-8.97076280714719,-6.777082528308829,8.99191861825187,8.936682949402517,1.274006308582381,9.669544806360065,2.186514832715414
-0.6544629548677783,0.22028257261227857,4.036937291912663,1.595395610418075,5.263461601021273,-5.2909207962267075,4.780680376638509,8.979924055100089,7.31290983206836,7.7262587127399875,-5.853792730965126,7.604352235517474,4.410457381864282,-1.9800247578062589,-6.095774817384663,-8.070984064282676,-7.998441295095038,-8.514896875132138,-9.146841829529835,-9.396863920287753,6.133317522019613,-8.9909049970781,7.839235139107888,0.20499152853322933,1.3173906280200853,-6.121967884692303,-6.263385962292234,-7.9265090189672645,1.3756243077878612,-7.118700434602614,-3.091074233655638,3.62136868012435
0.28106855170683787,7.582640811933132,-9.80258427239196,-0.7879124942681095,-0.31283531832820444,1.820708488709709,2.3231503667071802,9.212250990944455,-3.735184034615429,-0.1525629518485001,2.268300027971865,5.796446228099143,3.731177464839476,-9.206201027959231,0.3448772170396275,-6.526008702283635,-4.896352525309602,-0.39483190909800214,-3.8208272227339606,6.088803535633986,5.3810676073784585,-3.1713137571038974,5.802520878667455,3.5248764848286243,9.51373801270827,-3.7358043649169037,8.827246563281662,-6.740875388013821,4.16546770257578,0.8609738095114281,5.899342994303016,-6.898578479341461
-6.734367956678202,-5.624294944861122,-6.669918122311214,-1.5124727379476859,0.5424116409005038,0.4546281844082074,5.748767470981349,-6.985003032040487,7.4361502240230735,5.486918052309095,-9.955145006657117,7.1986277146476,5.815119444018443,6.837096344251876,6.253738131535179,-0.45757720675983826,5.202154815483739,-7.3503404373331405,3.42596177590622,-7.560468232562316,-8.571154763166922,5.833137489254375,8.540859025384002,6.762670824738375,8.205770569067369,-6.042986480969641,-7.778160647606889,-9.330689747298432,5.718315197457892,-9.99076670762362,-2.8733543335484457,0.9189567660384412
3.166794947902403,-6.162581538919786,-8.792746274236215,6.2473100752242665,-2.1961060521130804,-4.98862785330269,5.856636557101375,1.8569389739716886,-0.611053189923469,4.992939836794513,7.260107810539658,8.457447629246108,-2.1546089183204415,-9.785089841818731,-9.34509047077644,2.822249048758911,-7.221597995191833,-8.396081055303847,8.490910376676077,-2.3108673877720642,0.3311103493051242,5.476816284330273,0.9267063052238989,1.2582689246462575,-5.4201878019810685,4.228241007510929,1.8028484801488354,-7.531731874122132,6.428714903645286,4.523195126826261,-7.705128320635772,7.685772963024288
-9.787591069922891,8.883139996734176,8.872449638911085,-8.187054980238006,1.5294084700924504,7.328772787794872,-0.9812954871347461,-9.864963046956882,2.9922203410450408,7.548179754608103,-9.83762311244465,-8.614755748509346,-0.403090371808279,-6.429151379899267,-9.54799075778004,-9.401185376389932,-2.888450355966679,6.594728797065635,-0.4850947798359435,4.828680161557129,3.4869937619150626,-7.7653087723636975,-0.2586068771557848,6.7958479404101055,-1.8863815496470249,4.620090332281761,2.2452843864741485,-0.6033210651436054,6.990607209297316,-9.433453192396886,-5.946225121731789,7.540836727593106
1.7175492184327634,-0.12467249596778274,-2.887461461617651,1.8076671270450344,-7.5980063461456915,8.27938269959845,9.029231192054297,-6.9564208532102345,4.650460328669318,5.554022173362066,7.704592260862519,-9.202318835253802,-3.320350704913211,9.773087119819898,0.4600355818738837,8.191347340111978,3.464756723298528,-6.281806160212387,3.687094081525764,8.664959175080927,-0.1357923929299183,6.991732346271704,5.4973777414617775,2.4597917141649717,-4.5709420074334055,-1.0696184144916643,-497.4537923547732,-5.7643232003384615,-1.674099042784821,-0.9231966006160199,2.8337903464158565,-9.169561442410753
8.437435841986499,9.086410894218922,-7.257244229099504,0.49435024732354016,5.4205169568664235,2.2226838542984417,3.1621120938966207,9.06806152905817,0.799243194789538,9.983274005346296,-1.0043938643414556,-8.357001491571294,-1.3038216397671363,-0.5052831969821199,-8.215924786695293,-3.8831143742213587,-0.5531509224281184,-4.5508640973733305,-9.7565923514248,5.756575579211615,-3.0636912516125907,-0.7442400705830323,-9.277081407843362,-5.79152938027539,-8.239385427597252,2.128097406938391,-6.787434513265607,-7.387272454592521,3.6295745553668812,-0.4503027932695147,4.725268430264897,9.753358824952521
-0.8870619527461603,-7.30478627890742,-1.2712385660056214,1.744736029471074,-2.322619638974932,-1.1530323250516972,7.867261489178784,-7.263339159877102,-7.410096860960753,-2.5429589538380792,-7.491372025104212,1.8243689397420049,1.0931533934969213,-9.465580366804659,-0.7141440087989857,0.4607996954239635,7.777108503270785,8.104093691738171,-2.684042930489685,-7.02383862884306,2.726402962621812,7.120739643703594,6.065900760241952,4.385578967967875,5.977130248144988,3.5661051108829334,-507.9542028483488,-1.3718550972159917,8.937140570973376,0.939629897704279,8.937747842165379,-6.7236109641225035
3.2358528626284926,-4.534557818783793,-7.233613902118757,2.6766283381791762,-7.284023679074362,8.20293649662111,7.216659853916337,-5.761265734342458,4.352522473385644,-0.28797875307039256,-1.9322465574481456,-0.15600590314962126,7.214280266402898,-3.620280812907004,-6.133558296226904,9.726457587871725,-6.0158783509634395,0.9636769841468702,7.693567227423323,0.9760667177753675,-9.75812925557052,4.409994745836851,6.0334755822423745,-6.820247084398277,-9.636494985510682,4.770244579094287,-0.3301308353313619,-6.492533501606054,5.109625310008237,-5.204014212940593,9.486172438699047,5.46695715754594
6.2147373836363045,-8.920460511583004,-7.020654335375691,8.719578311445776,5.192057110412925,3.456135267646962,-3.7403375903739544,6.351723953765504,8.928059653419997,-5.937724549906454,-2.4639909396311417,6.889281166688853,-1.6269020866846517,2.3385756492195924,5.78551127676095,3.0487234175149407,8.584839655741671,-8.039875563281257,7.32508872798266,9.528237026809698,6.228694447481995,-9.78082795409285,9.559240707688957,-3.229433617119149,5.840012229291192,1.2658428783695719,-508.54339856527395,0.9566544088438551,8.5327737686235,-8.31983025063947,-2.6980136562771095,-4.19145888510516
-6.212400287236459,2.4874553371431887,2.5762728769054384,-6.584657946477261,1.9955413434984912,8.610467671087768,-1.5346929272997158,5.870893576432268,-2.323532865395153,1.1635631736336816,8.17038611670656,-0.801994236846646,-9.370063346033362,-8.108919859420325,3.711610544235395,-2.6793321357695232,-4.614662164145762,6.282577683687922,9.389838711841964,6.707833107414547,-1.9774438477420269,0.7662640821089717,3.076319463471748,6.1866139783949805,6.7068532095887505,-5.143362269604863,-5.52290097628612,4.823549667690015,5.268616283395955,1.7759976882483937,8.333569840642937,9.406916766812706
7.539275200959423,-1.6194128774252476,-0.6499515133013656,-0.37065985475156005,2.2997314758500345,-0.7963088714263087,5.31885304994351,9.983456474485912,-1.4758175731746945,-5.250246867280783,-2.280562368682486,6.657715684767702,9.607649816992499,-9.949062617919129,-4.8251509651040365,-0.27620000891423757,0.10813478002237353,-1.4153347423188105,0.3011288457920358,-2.1997514508270903,-8.387103918798962,-2.7216494841659316,-4.255570755480562,8.028986405209054,-0.547428901299476,3.3687014258457424,-507.39146818153483,7.197267136759514,-4.442813097182608,6.03667862205317,2.974263256649836,2.366689763209095
-3.527979427310603,0.3759108434837781,7.46595181115579,9.715371896005237,9.42973398093704,3.1797421481335757,-8.65971287267935,-8.53718829779407,-4.336414603051335,3.1083531275393117,3.979031061009625,-3.943330344766844,5.876473804727809,8.801100484471828,8.204277992878229,-6.029449541057259,0.19844146920689454,-9.847229821668478,-8.069836199824227,-1.1817111622062697,9.998838033948058,2.539498918805025,-6.49941817137117,-2.1538829329417624,5.313376128139895,-0.8140645566056737,-2.8748775188910365,7.885570766611917,2.5695736851892104,5.111339412425684,-0.3712608216817781,-8.463092309151241
7.177701963006463,-2.8454476428896047,-9.004808748433241,-4.288584877642869,-3.6045196319136714,9.864388834799595,5.366509908154178,-0.05750368635177239,-6.929835733036009,-4.230722327693181,-2.694376956818676,0.04174892532488528,-6.963747216021668,-0.4189824926238579,7.799861674788939,4.784489791012421,1.6915728747449528,-4.122119485043029,-0.747248794077251,5.546136335162316,3.2348446933539563,4.033016523550863,6.307933242914718,4.02605273470364,-6.041349901604862,-5.184244673552096,-8.130495639611905,7.297847878334384,8.285231113077039,-4.41714669408282,3.8341791676799275,-9.331160675856543
-8.793973848025061,-0.4478894692764097,5.928427394191775,5.673848412535401,4.372125256934776,-3.1351638638187396,-5.212139110960106,3.7443304996396556,-1.2322660964065513,3.4329933748233294,7.385047558679926,-9.728169147801742,-7.324363026143934,-1.9614968833437008,8.446204749392738,-9.360178045725991,7.512802349344518,0.15492436090396033,2.8987008256701543,5.851020016818126,-4.006163147902424,-9.59734088909647,-6.82296292135625,-0.08406541189885175,1.522408552908356,-2.982068927741784,1.4362807152550339,3.0764188619426776,-6.7280479694695465,-1.1939528275050115,5.651415230818941,-2.9971905627333717
-2.3154027155453516,4.691944311122558,3.4489604819994995,5.529418143263472,7.722885546067964,-3.3129591166050787,4.053894083044751,6.1912675714650796,2.3206650445550014,-2.017464022609518,-1.4251584869640794,9.795216597836344,3.7771186437347897,-6.295795597992207,2.102079124716836,-6.9796247221555685,-2.3527117413687337,-2.0055103411588693,9.887085395723059,-0.563972432689436,-7.7687529322529425,-3.3033544647184954,6.596763056497775,0.6503580218755545,-8.34435969434554,-3.5059580686465246,-9.982841117927158,1.4267986843975695,-3.3568375744484396,-2.816396464696802,-6.925139723354354,0.8622569855040396
-0.4550354190726047,5.819802450278777,7.428897049541302,6.122549558683282,-9.826530272749638,0.9841015272046185,-0.15612751122112556,0.41433502903741193,4.434585862417515,-7.180033585708014,4.468726712733144,5.44260725981893,-2.986247227874255,0.3972008213042333,-3.3718987281484747,1.6623847344739637,9.951449269208638,9.912706320854056,8.844960943885525,5.4707137747741506,3.3820361162524435,-8.506237241629115,0.19318083128329278,-7.0015723819755475,5.0408925083660865,-1.8897386716875282,4.5464985125768145,-7.615014234550497,6.054760585237034,-6.46601326297398,1.170172260458207,-5.646942034286056
-7.776912581515749,3.5861848885599628,-2.4776538555682563,-6.265250920585643,-6.573783925812213,-5.8892781328326205,-0.9141654930540568,2.229465412257456,-9.055036156624478,-7.751713001789248,8.817198401863301,6.814802776580148,0.5916110771218523,-1.4748880544291971,5.348491842774738,-4.101662168110407,-8.920514970714336,3.5267231626051743,-9.544377929215829,-7.4423761422581824,0.32523605006911893,2.1000268309870957,-2.954039974045628,-8.621479726779551,9.667667202486072,-8.541346389844547,8.061925315649585,-0.8057624838475252,0.7793532615794625,-1.6841448705251274,2.4586565832881107,-8.801722394437004
-0.9503533576427259,-4.955438767562144,4.869501399826689,8.27699441722466,0.5022162757694595,-5.355998465261688,-7.5436481137157045,2.6533070325249675,8.845424643379484,-8.685916102361208,-6.973664125150862,-1.470869375124824,5.191901051016863,4.432708764634022,-0.9260669365307415,2.145898321774979,6.527113234755134,9.609949608421044,9.447558940972648,6.79148311251981,-7.472268198630263,-5.45774193440669,6.966339022613525,-4.626756304528796,-5.669474419528373,-9.345972317168092,-4.655595940822172,7.61900830304689,-6.787685262140155,-0.6060184535939772,-3.1573887164918073,-8.098850413964433
-5.666475210143851,4.665057405121598,3.326606798981759,-4.240160025235644,4.459851433749876,0.030414810451816265,5.448848249184444,5.23174305673545,-5.26566965078419,5.678280351581487,-6.200332695572053,3.301385319177381,9.459929350651954,7.791436967055844,8.693231117966391,9.15696220178528,8.276481056154292,4.704920504786774,-3.4689131812892278,-6.5251380322544055,0.10043241337410258,-9.070638025956795,0.3555217178888235,6.298988553074118,8.636139346948333,5.098823181396568,6.4041827846289685,0.2986168098114472,-4.403435977221282,8.111638975061805,1.9526116124084858,-1.1131358910542275
0.1489639055672054,4.133275243445251,-6.732644231886448,5.942769327312758,5.041896193345668,3.2943929837281516,-3.1442810471338962,8.784922136873764,-4.761976229814183,7.2342560478545614,4.858377320861374,4.122254972157576,-0.28173529475062686,-1.5815596867534154,-8.486463751964937,6.519568104277866,0.6505884911440951,6.115645876136856,-4.780206693877851,-4.895409342037378,-6.001768077873184,-1.663167964329812,-0.2759362532285241,4.426810140689296,-4.722114674717133,6.3642046065967826,0.5080817946259906,-1.5779293750973622,7.483209322151449,0.9437872777240308,-0.6789251155289335,-0.622630838514663
-2.293018778224085,0.8705734397091582,0.9012225571956041,-6.306500393588788,3.823599988541357,-0.2997459596944836,9.393798206471278,4.403121042426342,-1.0194308755921018,0.7908275217777962,-6.377694334851968,2.8146905189374323,3.6585851198307413,2.7206158484234386,-5.46932480181135,3.9358823614683587,1.9147478433987501,-1.1460250856036946,9.65073605315861,5.405026632679224,1.954127962907176,-8.449792704657082,-3.7202418587179924,7.118839508918892,-2.823852312994677,-9.93225727150941,-6.195353539937982,-6.026558018510883,-3.366499660632096,-7.512506188052681,-2.8903625303993525,7.915992865682174
-2.2219952926178754,-4.955546447837693,8.915262043552204,-0.2830744879921916,1.5297092152130443,-9.958389422975936,9.929950116959375,0.2948503880128186,9.459273444641592,8.020469212158183,-2.0862953253501555,2.8047632047414517,-6.254539209420839,-8.09296930122861,-5.53639777728611,9.550011130840993,5.537878096959695,-0.2101874720722705,1.2988563007577465,6.598653915958746,-5.892864741511817,5.677657686474538,7.714602117041167,-8.089447644042615,-3.1787307553665123,-7.702382915187047,0.13186608978684333,8.838547012050437,-9.653096768786604,-3.2338932988808233,4.404738884394812,-8.430751068750137
0.5400020273325801,0.40498572844774117,2.5589047255764825,-1.7469742493526734,-4.976079131531128,5.489930131808213,-3.260504677457263,7.428372809299805,-3.0429055654614867,-1.9941668730093003,9.772554892487214,8.83442349964253,-4.004491159161527,6.477047733445186,1.2339631941950913,2.5450158621164185,6.722799033207242,-7.8172316389694,6.8681964255014165,-7.790708942877025,-1.3852969529311903,-3.9370631264783373,0.34407794316033424,-0.501390904895068,-9.027660788005573,1.317829696257304,-5.430223917922734,7.713065773052968,-4.040884937816324,7.398145097260535,8.96322496648834,-3.2559038528383466
2.8915804264041576,7.259412980368271,-4.272402892124971,-1.8135666243547615,3.2923222385039335,-2.6221173017587756,5.999253599522621,-2.634768255078095,-2.9400473655248183,7.5924173956557475,1.5273368595853434,-5.080094166758002,3.756441810384402,0.43249777533653955,3.308792518128808,-5.455024492094194,5.990814720390214,5.575295768272239,-7.689073413146312,1.1813356266113466,2.6290714202499537,3.2117245199872926,-2.833324375323267,5.823759812497739,2.453389732329594,6.9253907350511525,-9.468654928394749,6.93233560360105,-3.0147125069410414,9.029191508905829,-8.361392503158902,-4.078243731022633
-6.689294813989008,-5.970903583230669,-6.943783946733088,-8.267315262403594,-9.003454983202916,-7.1347386990192,3.3687764490072354,-5.382865664611922,-3.438969571045134,2.7797930185085065,-7.755920704392816,3.9367642220862553,-7.629622759175037,9.597317044937569,4.060056056495894,-7.456250981061768,2.8780703572640753,0.6382304688359923,-3.133733344948986,-2.94334243508459,1.9457020205815319,-3.7075454927421188,5.735801570477584,-9.93568992640978,6.641448290674546,9.358719617648287,8.289754667693796,8.02698589052326,7.626541701059299,-6.161649509775624,1.3231770992409082,-4.563113165448107
3.4849482741229885,-2.7038914846356903,-7.7842252079298335,-5.8613883116746335,4.150156235146071,-5.885188730841322,-9.593852416962633,-7.658105686907191,7.021250247632832,-0.9856971023873626,6.025231248206225,4.804800308922186,8.80112046954983,-6.294987132375178,3.3452178554389818,8.942961194727527,6.5443646831801985,-7.803624114473595,6.117895037065551,2.8276915499604947,-3.1961761397047734,1.9781341799088903,9.157187291483723,7.240964724448627,-2.8684897266478515,-1.0397817364850077,5.3533193396880225,9.964047982120874,-2.0866690379429382,8.150898912166905,6.474371576937028,-9.24389471642662
-3.0991171563302844,-5.276097881502714,-8.166451964892858,-4.867061385077425,-2.8633781894528916,-4.102828865393537,-6.016690344312973,7.243237068842497,5.527825415761532,-7.019451293946557,-7.532602902688046,8.234722852910416,-0.9861262602646104,9.703427372213959,-2.877458746355659,9.890723046466231,-2.867776217723752,5.5292538444323025,8.037232148120527,7.169938151183075,-6.808361503424052,-1.1729387427195537,1.880209698039863,-3.3308528962630284,-8.546688679526948,-3.734203770941442,-7.196636498690545,-4.2421294365426565,6.649818505288568,8.757405447096843,2.806824410930677,6.593537239121961
3.9988340344134077,-6.297739998544047,-7.613138275598588,-9.663307493503368,-3.105950565136193,3.787737534916884,-5.740049545407415,8.864493672889857,-6.080549169704954,5.734046557057457,-2.841244201643713,4.080267315903388,-2.0056681433260426,-8.092618763439036,9.9297322833978,-1.8181405151158607,2.394988813404794,-9.42606879428524,2.192009210677446,4.847848693012434,-8.241665180101908,-9.049453210723527,8.028477908261667,8.70980566184592,0.8571945992594578,2.8969005633177076,0.021954834292650105,-4.604289543882089,2.4949070660376282,6.775208238770563,6.621192066831981,-9.474843042990358
8.514201579003469,-0.6872618895366571,9.034718775182373,0.27529086865762764,-5.17512757136644,0.09221780326690165,3.045012003766116,8.846935786258253,-8.434836326275168,-1.573888368570442,-2.933887448035142,5.144779883627555,7.147305953633886,-6.410174176277891,2.2645220135702697,-9.90486470718222,-4.993732646127558,7.9435816183157115,-2.779275718942557,-8.728600392138288,6.216130433521329,-3.350983358893078,2.070322664454224,-0.3045644745598217,-4.737750595651569,-1.0502794217017541,0.23189091180066512,4.469770592884911,-2.133059477836281,3.73011370780414,-6.602538594321152,-4.543575781917147
-9.57274082927858,-0.6406423996412656,-4.168753797379646,-5.673876740426403,9.782233882087311,-4.932657022593421,-8.05557163459621,5.079502999971998,-0.018367716301902703,4.061867826071325,-3.411677085828419,4.029505608870593,6.345932914590037,6.695930588151768,-8.850415165848935,-6.257590470295524,-7.9778439573642785,-9.180648032537453,-8.049166206462314,6.632432469012311,1.957292158207018,-9.201757227784356,-3.133001132186319,7.757289955946675,-9.750902871721213,3.62731224795375,-5.634434080703961,8.232826117866175,-7.5459043298043715,3.2978723024171597,-4.6178605761330305,4.6291759179972995
-0.4851197063436814,2.4460621309975075,-7.95230537411739,-6.390829490650085,-5.1728147457161295,-7.0286610464545785,-8.920287745576305,2.369252115402663,-3.4634669053144034,-3.2604937986816758,-5.687715482189903,9.713141571496763,-3.3070032276288135,-6.52008236255853,-4.831886868206194,-2.749613979565493,-1.396873860588748,-1.4882944981017658,-0.6637851407451976,-9.907957592629032,-3.33592057236455,-0.641916987088214,-9.99986894030474,-4.870969738242248,2.720315430219152,8.94424346425954,-8.380206879813377,9.68133190514694,4.163452156198282,-2.6848042828483276,-4.834994985765597,1.5217659256587996
6.225251607756913,-4.417179829871314,-0.7867318933096374,-7.688561702161958,-8.416285265931101,0.5025694450827594,-0.6954986660665963,-6.645929022023902,4.175513427564452,-0.022886325164693133,-6.266821946366874,-0.4424914789690071,6.215650754018338,1.704108465961621,-6.485434729650721,-2.2739567009883004,-4.115347187746414,-5.318672102321744,3.752414709499403,-8.06585390494834,-2.7779309644590677,6.891462687930474,-4.84466910246911,5.433556026614127,2.921245847431779,-3.9438955133532634,1.9666253160423643,3.3417168290789974,3.4114815955894144,4.0814628783847,4.399858823296363,3.8656210502570847
2.495741526899371,-5.556109442027745,-6.94801671069051,-7.508199023893201,2.429353146081624,-493.1542405697917,-8.230717489263107,4.102810875695109,2.8665273645196585,-6.824216682800968,-506.35145196632743,1.7767319765314973,-0.7694337607761099,-5.360038962465201,5.801678669282795,1.4668970484098676,-7.944224581082782,-499.52056004391306,9.650668759639945,-6.550719110722982,-4.526995704598146,-7.6380814335430784,-0.9356818262381488,1.8109805974863136,-499.38598938073443,-7.33569027398479,-1005.9012793417364,4.986075752959671,-5.9251642628094565,7.002536772434219,-1.4407388908316765,3.1030772899094963
0.3642106643249967,3.493102645588662,-0.9082404238226527,-0.8104302313120986,0.3430171921524128,-9.986707885048931,-8.076358050679278,0.01373941325866923,-6.5375939310692015,-5.831216506626371,4.875513300950917,9.564503559064597,5.340041042541303,7.863146046529668,0.34871201728878987,-1.0380263542514143,-4.27729830078219,0.9634315502929685,2.647952781001976,6.856214918750169,-1.372025490100519,2.2464141715745463,-0.4392406291392348,2.157816402049219,5.28532911476824,-3.6253530566787795,-8.486082153069303,3.540617482293234,7.667862954771042,6.740933830931372,5.694832438735389,7.598679431239205
11.264993680280053,3.420073441444062,-26.133967096673473,15.3326590752174,-6.924137741047698,-385.0352414737063,-6.654484585383891,-171.92896046280717,-234.84628099658153,-430.08701414043276,-491.91208734007853,4.9213135724991535,-7.023404649828791,-496.8369242697776,-283.8136593668747,-1.0081935778552262,-17.14886971140752,-451.0259837060222,-490.06267303322477,-3.933005685646874,-16.609795161423236,-501.05448683648325,4.7864421264215204,-503.53882737013504,-490.58846886386317,-485.6833597583615,-1005.1783255989275,-488.9655578607274,-352.0514155604843,11.702490950804108,-505.3934329872607,-6.010809941099722
-6.282394752636382,-0.45459171663908826,-4.8654095076960395,5.133603755968945,-2.26676730571139,-4.260843809717438,-5.843843305168681,-5.572866244948054,8.48953725518895,-8.058108932947661,6.404337869063696,9.34875507020606,2.045473523040675,7.678913837429317,5.354579548531079,-5.111746316995573,0.9874340598234177,-5.2714215875993675,5.234475569651114,4.468439716982925,2.8211232780063575,9.429692864202892,4.053047260396186,6.171798929647203,4.465868357038001,9.392493553907062,1.6320208976246757,-6.08492375413589,7.822037058047936,7.662957809416401,-0.2944001165646384,8.875360745434214
10.097570212202324,5.413906842612725,-27.83370122578777,4.095096652439354,7.582709330606232,-389.38359849317055,3.643686844160129,-164.45924660328842,-238.38606319197166,-437.7750744569757,-490.0052896445975,-2.4849273134228937,-5.157664845677459,-509.8262126296252,-281.7452995797405,-5.1117552287505825,-13.457425551708784,-447.0597808527919,-508.32574875816397,6.192354416230923,-9.818831071909118,-506.05052110620704,5.980330463568742,-495.17336456949624,-503.60126862116044,-491.7809171914541,-1003.0076820872057,-489.3042979104444,-359.8046842584552,7.288279495306346,-499.28009103543985,-5.302728684807148
9.237779967160876,-2.5170662041990166,-2.2854353107359415,-0.10233617316058918,-1.9604594054062634,2.4398263239389557,0.8585107466806718,5.354171594897512,8.881719666091293,-7.552884616454589,3.558999537154584,9.012637157678384,0.4775198275294894,8.072414121868647,-0.2770730892620712,-0.8921757255153828,-2.5136911303145215,5.24036215697955,0.909579146740878,6.6770376182668265,6.740007896980668,9.93102335426644,5.186001342453801,-0.17255195207364693,1.0930711143205212,1.3355725700704006,-5.773728294701918,1.8845206878861571,4.1138820040836315,9.520715868826443,-1.0110375407535148,-6.085164389968796
0.2334124323522524,4.592317667491578,-19.692094413101728,10.270183602206863,-5.057422777551903,-491.62251652019256,-7.902149945468686,-2.051808038734899,-4.531067137727415,-11.118587957428138,-506.2151522585216,-9.766736058016575,-7.308396101541019,-0.5641951442828663,-7.1475585178080365,-7.513183137177562,-7.045618014028575,-496.2959795485636,8.106946455424588,4.1618844747446,-19.49864507437117,3.62674730496232,-4.884350462224446,2.0182955156892994,-506.23541658681273,7.661547031501263,-996.2687673936847,14.987366309190632,-6.691128036252508,14.3191325953843,2.209246456208996,-4.750066028535658
0.15388588641503098,9.812388145817074,9.127103780359601,-4.5354739513421745,0.0901402465330996,-4.1029928666872095,-7.871907375649714,5.74164494815388,-0.8090624375646005,-3.5415858410821155,6.045718626694484,1.656534802999193,-8.146738970699277,2.808754215354547,-4.297716446124824,-0.7451129595937278,-2.309563880447687,8.804520650445461,6.935434131252677,3.954813650042727,-6.716357873551601,2.718107923017211,-5.797999898098388,-3.5061289928823918,-8.56353375751361,5.308212171936615,8.128035294667175,1.8587370742743499,5.815866014528115,-0.22705384104977533,-2.1999692627792093,6.645436094632029
10.538406271507672,-7.1759641851713285,-19.780408953381844,-4.7514552768788985,-6.331409852897374,-496.1180980290643,-2.3329172287728905,7.02767087735279,-1.9683244610450998,-3.6075576429201,-508.16720683415684,-3.680748786743311,5.444758339508445,8.379589959100137,-3.663526662194548,5.035920209159144,1.321157290825222,-491.2437678653705,-8.495538673122224,7.748063442359034,1.3270916815669223,4.250363701732707,-4.269917704736564,-6.571072571181493,-504.4126900321522,2.9459908068798333,-494.10063048640046,-5.808560861187259,0.3978588378571146,11.065434261397709,-7.218598989645014,-8.37827327516984
-5.686022341924684,-7.443116432968695,1.1796680235711516,-4.935941101877659,-2.692205447450837,-9.270128109861254,-1.7024002394205322,9.83539839719693,4.109281851943425,-4.320112982576161,-6.955292702913907,5.288125025577985,3.6690952465125477,1.1132456665752972,-9.516803907242222,-5.812937591079992,-6.2709099223909215,2.904191622359786,-6.677011552074785,-1.5887202110369145,-0.9059675701951253,-9.132463895366957,5.171396800298156,0.20209822406005706,-6.223119036549079,8.388259594944902,4.015388643062723,-7.293761694905363,-3.9624261414666755,8.648767779556941,-2.879426490057641,-6.905737137418734
9.00644765809189,-0.4684316453546682,-1.2716299631805974,5.513614914709903,-6.636363930848099,6.493190903455648,-2.5115515212668775,-6.09694025111297,8.640971066713163,-5.5107369973874,8.240025045488629,-5.664639700589604,4.392348285335203,4.706054521080336,8.18308969456221,-9.310175993480751,-4.578229264931998,1.3403772022421663,-2.7825913921060774,-1.39933793486912,1.9549821731328159,-3.77960870613321,2.4980549742138614,-9.0036147213285,9.573774469241268,3.7383668554584304,8.933083922215562,-8.709897005302123,3.501692128981915,-3.1151868008287353,0.6072864298213112,7.574832589631331
-3.3406614683864415,-0.3322224270701284,3.528151512328561,-9.31776343807823,-6.258501957460137,0.25609757647560905,-9.08068381375611,-9.23945325938569,-0.34719979921436916,-2.70154450404058,8.854699667497389,9.952534623417197,0.7841601228722936,-6.2323694962811516,1.0587427179503361,8.633290212929154,1.3677710670698708,-9.36872112057237,8.680069933299944,-7.025887344369883,-5.179025123666006,0.7056157350730974,-3.3977187340026944,4.699143635035934,-5.086833223950311,8.921261222024725,2.6943908582675427,6.525691859038773,5.8391633063022415,-3.8384936892830606,-3.5017284874052006,0.6014399224941087
-5.307673062850917,-1.8234853724653703,-8.007197829549003,-0.996523628814721,-9.136166189462536,6.79562191823344,2.4667968955665813,-7.608706193957124,-7.721984144421303,-6.589774373261705,-9.843881100929037,-3.0944476358842703,9.60219133728448,0.8411743018552968,-9.553648275093913,-3.3389834084400327,1.0102189850445757,0.549646426477322,-7.2654597349547885,-0.8216294722823747,-1.0028259362290282,5.544798963154591,2.7818980767074635,8.031081859463967,6.557829778010515,-2.7871616882183154,7.60184390333243,9.728143960891003,-2.5490838434128715,5.442575789422513,-7.161849792811934,3.949626888207751
1.653337468844132,8.435491158174514,4.851595248767126,2.550475045647776,3.4872128107771694,-3.508148346884809,1.7369686844880476,4.758924194140285,5.02920696670915,-5.198129060784682,8.05880839378624,-1.4826673774002082,-4.831994758269884,7.171729043520042,0.7854592748113305,-1.1062011617603424,-1.4855361465673447,8.157395810437478,6.2344472227851995,2.028191562998831,-6.5191168219232125,4.286249587033259,0.20851764603484035,-0.7601453916196093,-5.552497426665028,-3.077986108856323,-9.64354509840737,8.175444504310846,7.192305967559555,2.2313240363670044,5.03321830484985,-4.547985710948039
0.3608139679178528,-9.034845440031676,0.39554115755650443,-1.2353660586147264,3.438910499675165,-5.931906104514457,8.633197874386063,-9.755188382763718,-5.3250349757792055,5.33841826915191,1.3712163816761098,3.917295062938784,-9.34321417929805,-5.608003725119799,5.850936024957276,8.11887074175614,-4.558137005345162,-8.779298999459645,8.873392826837694,8.776448801343605,-6.206547897639432,0.6617105234191669,7.105379494568464,-3.9200466927116473,1.3914454051767855,-3.1994126191414747,-5.9744856652163065,-4.215258483772663,-5.231539084751811,-9.0040862291848,8.595726763972372,-6.399707723179217
2.163139075542164,-6.795706557684493,-2.3254697485234583,1.8944391182687976,-7.283250577738121,6.546955025708041,-1.0282002850205902,-9.74180813889032,2.0506419255752117,6.24022831717134,1.8282259791401998,-7.990287818189962,4.731247874071656,3.613772562359552,5.77742087216151,-4.037013702429151,-8.437048758824988,-3.073299985140663,-0.9138516016481439,-1.2155261696549466,-2.777786427571942,0.5552875862513567,-4.871616052980851,0.9730570463257049,-1.8209507170730177,-5.0098107016689575,-9.610464132077436,2.8125941250006736,-8.005418204353811,3.769396281673714,6.463120064591884,9.360988326175004
-6.465078860728042,-6.084144522709529,-8.162732768022614,1.1058639747227836,9.283762359919418,-5.472966055052131,-7.559836846040666,-2.3276684228968207,-6.135662486068394,-1.0309129351436592,-0.8075896283529644,4.092210192936282,3.100752125590912,9.164341471148049,6.561441496621679,-8.050212077387899,-7.664038540817943,4.682930674562957,-8.782415082375552,8.409048831590262,-3.9006098054770284,-6.51214918799602,9.039239817871842,-2.5058893430591596,2.9957338150660373,-2.898958432788998,-7.885284682919544,-2.191008342787992,7.610011449032818,8.152272985626734,-9.994719888278683,-6.953695612674624
2.371515870357271,-4.993469150847485,-9.710672230172602,-2.7267167975881286,-9.130173361921301,3.8327906792676494,-7.922392853554017,4.505040220817127,-4.830856369857834,6.824220151465724,8.142453009295995,-7.37267967738674,0.03884453647028607,5.760632477151372,-6.779729970832468,-5.004974280079675,1.8694379717580247,4.735780006568726,0.9182703342234237,4.244041173441511,-4.3785541399297205,-3.9036431365522155,-8.04046248098878,-3.742490084254424,-4.241885099662122,3.1958504377579917,5.806080096516805,1.0590102693940224,1.0981763229354424,-1.9087592387086296,9.803808722140666,-5.686307275446659
1.748074330442682,8.701563457613105,-7.98342129748036,-2.6516064813369633,0.2588660253422397,-8.32317270055044,-0.1661236327240232,4.840442128712795,-1.7364148550746137,9.21614843845137,-3.3729301191601895,9.008573586435904,9.512231283105557,-0.4173215631877891,-3.777848544042226,-0.49621488438946315,-8.683714290397933,-0.7605760063352527,7.265872285690548,0.266041500200334,-4.172008224848911,1.8138729162632004,-7.863246866275926,3.074155711819282,5.362744832736251,2.702291797571208,-1.5737131849074188,9.83515539640566,2.50669357760591,7.211933176907269,1.8791447709812914,-7.300922539331822
-5.038758432314014,6.510011846850837,4.463168866033037,1.9259531923518818,9.069370876806282,1.8634359477855824,-0.6041254580695394,3.9488091140991717,-2.2099494484107236,6.633067850099252,9.216967814341494,2.51026027650836,-5.401331228726736,5.848457244478853,-1.4864719409985572,-4.750583983771069,-6.605968581881287,9.241584316624149,-3.929661887620524,3.7752395740749947,8.32727534638424,-0.19936594592326706,-1.8310070043717879,1.7564650178597052,-9.471799457324718,-1.683593253678941,-1.3231195528812378,-9.751752626397616,7.2280586852581585,-5.825746121377637,2.7731425981185716,1.2082799649925633
-1.4063236310102827,5.334592145216243,0.8735994331660386,-7.835032517401562,5.837936902493798,8.17689630863898,1.2893461572072198,8.901390106285547,2.9996729120123184,1.1413726756119722,5.087910199910326,-4.968997511197966,4.277366761647446,5.0348406370920955,-1.0537643841445892,5.277615380707818,-5.088446794811476,-1.6059869952287755,-6.605474978578503,5.206644990582049,-5.250720941886153,-6.906523755220453,5.728149165224675,9.99647718799936,0.8645331115328485,-4.156133192479851,9.009621536165831,-4.387562147081859,-4.71772407261475,0.18304960869877718,2.9606523612679485,-7.672627466864825
-9.816124837302864,0.2512824085927985,5.712586396298798,-4.14172868706255,-6.378240837781561,6.711246142418183,2.529489609727909,0.08496132176640536,6.972847176340068,-5.3370304899482175,-5.762455664177093,-3.530005061646822,-2.6156663790707917,-3.463017337560479,-2.1974581032563067,3.560469898787641,-6.284450938923108,5.13235635397111,4.4343179367472825,-9.139316890058494,-5.72100399433735,2.4660448849813754,3.351328935758584,-4.688400654145579,-5.417077517492615,-6.596741508730357,-1.6879005014210477,4.786556473846318,7.208372547968352,-9.775108519297627,6.799461323697042,6.363579380425737
-4.927382606525706,4.667291930127334,-1.2598889567174325,0.2912620761374729,-8.285840843757786,-4.180984758656687,-5.665595509126955,-3.8238934907907023,-3.237099863132009,5.630602150781968,-6.351124243035868,7.955047522499218,-8.454507857161243,-9.896410996967992,-9.377807408525635,-7.291555487516346,6.187997264640305,-0.19644009970954812,-3.1728735417800813,-2.743774187162387,8.393492214338202,-9.363157033071852,0.7789432614992329,-6.78570607641478,-5.073867659969007,-5.518692781395953,-0.507306179460965,-6.282226504842557,0.4387366081396209,-6.084823072639358,8.63522187433459,3.942038370589671
-4.618043357625363,1.2783410988399186,-9.015885947067757,6.618895248633034,5.199927355180765,8.351503011070044,-1.6964064594723354,-9.210250616709303,6.757432261324389,6.9199983643520895,8.248265996353869,-5.120023615680189,-2.023735441724927,-5.698123724350803,6.333590430305037,6.456529475568836,5.529986003756553,1.6142851791831703,-6.475377019584525,9.733913545636995,1.3503662432949035,5.203044278661711,0.1689120906132917,-4.076162579461755,-3.090993845269516,-0.22811788813319644,-7.735672565289999,-0.9849314622641572,7.112659565266753,7.944736587909112,-1.8101395754506626,-7.202223262857956
-7.745183404497176,2.099895397521056,-9.332871739847693,-8.105946935417009,-0.14495702758169138,8.738759105982677,-0.5567276331208415,9.156502136661416,2.1603035760882285,6.459586925842789,-4.912617581289065,4.638134199530304,-0.7425676030362851,-4.849275842735235,1.7761265479343713,3.4931347924376013,9.76194411324737,8.52586830939386,-4.902021618826982,1.0977579358862393,0.5006618702808119,6.241968462941841,2.6539537961335036,-2.4282293180851084,2.396862014855481,-4.789173124165131,2.9145359476330963,1.5724721916550308,6.2714438904277685,-6.609069208418599,-0.8460272123164998,4.1666694252422225
0.7150085913653754,6.089009578119196,3.165250419128453,-2.331678481937745,-4.578546366999728,3.0623981149128525,-1.2175681232286824,5.639647701044236,-5.2145598192143305,4.475832151746918,0.8099253024065227,9.852125417431008,-2.3711156234395308,-7.4706113273214765,-3.3917481957621964,-6.064432053973472,-3.3779580213749743,-6.886449359277213,-7.583004131278505,0.43028131897869315,-2.74997405232019,3.2549629670751568,7.122628079785361,1.9406607220661556,-6.7896165936739195,7.327205970067297,-6.753595133848966,0.6378351967705331,4.278497438622944,6.081496120811337,-9.484044750813643,-3.438570294967813
-7.63012415890123,-5.963800177886053,9.357724659874929,-246.36807894493452,-1.3548653169605842,107.30931126018667,-8.054508940023116,-152.56235242953196,-237.5507830657337,-434.09362078548503,9.97696895220876,-1.0836548937943657,5.844337632716348,-494.17529125032894,-259.18359179065453,-8.44576023087026,-8.702211040170676,48.27907280049274,-506.6166465813861,-7.863991486134079,9.411493215219814,-494.0650455251964,-7.044886871768032,-490.5208814174188,5.335889200520365,-506.0735316989724,0.41933147135875615,-498.1065338206866,-365.1562560471476,-0.5416917784641306,-509.08783236916815,-5.720136154807958
4.857168010568651,-6.609894461782377,5.532709327194487,-6.724728827428567,0.6839088533573374,7.931992158902975,-3.010186428042452,-2.931092230507666,4.204708628391224,-2.093365209150604,9.816645219445789,3.2126135995191856,-0.26142295064950716,6.344926617196101,-5.692602314301141,-9.785293275553212,-7.617880119777536,-6.693594754508439,-6.31980306923102,-8.452011225716824,9.932927880401007,-6.23156816877141,1.4880182591437023,-5.306203367755038,2.607109809430696,0.8201148819762984,-7.757723880480228,9.511467892994862,-6.836557956578964,-1.0994634503779963,-3.855076098823842,-2.085829259196088
6.7603296172258,4.24959290969638,-12.360987764958788,-242.06696912598807,7.755008534329903,-322.0557924501844,-0.6458251764560767,-226.9692748231647,-353.28493475449534,-501.00327562554753,-485.8209876034964,-7.433263938245096,5.919155483047639,-500.80948075746244,-397.1573557503255,7.782711187212712,2.578323440517461,-444.7493128907041,-496.8579062646404,-0.9947126120780903,1.2224359370832714,-492.57461787622015,2.781453316424655,-491.76449223219197,-501.9600918420003,-496.4905205658109,-1000.1363929067156,-487.64358123111094,-502.7238675247093,3.730215176581801,-499.8140530273472,9.25086641591211
0.6351756701748847,-7.67223197178436,2.6075726184362793,-1.3338799061769464,9.412958186980191,7.591972020816364,-4.523076590501207,-7.234297056929632,-4.456448630783651,4.093617552953159,-7.380529880310229,-8.16733245275989,5.223106524551248,-2.311604389546291,-4.979106053604396,9.342192210200764,-2.795281023566954,-0.2096976988403032,6.449272567780842,-4.525262855622161,-0.6198337051611027,5.058934512799407,-5.551674268126621,6.847914983326071,-9.849673716273537,9.060762006894247,6.351370926745567,-6.400288932391436,0.5231030213177412,-0.10185456467685938,8.230897593720751,2.6267098672147693
7.73738590201216,-1.6000108783117497,-30.62176445776288,-121.00876070413271,1.8961778863133745,-306.82484403301487,0.18408925890917516,-254.96399038514127,-358.3513643341672,-518.4979803908685,-481.4485913386187,-3.571578047193828,-1.0894614858238505,-503.385181210563,-408.3442975748929,-6.987281329633375,-20.236770864565564,-454.2544323221155,-493.8423471819227,2.187268559547027,-25.13718062294175,-507.03432657309855,-5.296307284072747,-493.8835515323904,-505.4756711713232,-489.16657143575725,-1509.0976146443193,-503.22447998227494,-499.9731878543581,8.492296145737946,-494.9309855492578,-1.9257272735125746
7.867488681180195,-4.405679954751712,-1.7839255955385056,7.684536267387166,5.6949238203323365,6.295524011669556,-4.335415035637766,2.0790596008916147,2.6642485712552926,6.365478466447421,6.512012084908399,-8.568958824493187,-5.2937522193502655,-0.5050696365404566,-0.04021639689710632,6.435566009649428,6.946832279566394,-5.261639138688814,-5.367344847002496,-2.243218794457043,-9.437021541033591,-4.784813434931509,4.991108291196946,-2.892208866390744,-9.927924795971666,-8.411103953351223,-3.832629782327494,-6.455101438092159,1.233422710950089,-2.9601278731111584,-6.102309084652793,-9.074953947990265
1.05553116033954,9.282668948086812,-28.858118476389073,-264.25332266736046,-5.289109941248185,-661.6989934276082,0.48635035053507814,-493.2225229895494,-490.4393493793908,-503.364682479593,-442.07951378622386,4.0596250720220155,-2.8071274583660113,-498.12239588041257,-502.3603116877565,-4.6864007267884995,-1.3296791925294489,-414.8123559373133,-465.2335738831059,-4.292029081995764,-36.41501403588545,-516.9269005944216,-10.09325357935342,-503.36695022610513,-495.4982166922247,-487.89653750272504,-1459.4071765650983,-490.62194186992866,-497.789534363494,3.725087262528023,-501.8329659645236,-7.827758966918747
-9.729102530225886,9.98330502627823,2.9191494250317778,0.8924053806767027,-3.400782207467417,-7.582926171533222,-1.6841412793906017,0.8084627702660168,-3.977938903283949,-2.044853436413474,-3.3519631932659095,3.6790158562052984,7.232994551624479,5.220073094347267,4.608587399608414,5.458953601329181,-3.0835967986712802,8.061056054333317,9.710426716243997,1.272127924091727,6.777857933690726,-4.043486506875147,4.606927565680168,0.4837788373819407,1.7401173746776344,-5.678370640536801,-9.716714439369614,-5.719669739397442,1.8516875059060052,6.704964144481998,5.872705223742171,-2.584638151996752
0.6343031956978686,-5.926767418899146,-30.964694785168714,-264.1104053686139,-9.743241607582691,-662.022909841272,4.86586534556843,-488.744164955969,-501.0926308575856,-506.9763584996497,-439.85010056242425,5.26555423888909,10.321762446886456,-500.99312061490434,-495.7677928039405,-5.9978616987806115,-5.06015055870165,-402.9739440515228,-462.1630251683203,3.153663197080709,-32.55475140384418,-505.3375219693685,-1.9147941292892998,-494.91113217249676,-509.81825321963305,-489.9090038681202,-1469.865331156297,-490.55154384487133,-498.282188098879,4.881576275690081,-493.4933193629124,6.711375751165704
2.785326908803725,3.2083456073708323,1.5814766857575826,1.2480778508109118,-6.169960858994584,-9.436712862770504,-1.4653759946048375,-6.874502069983297,-5.42833627006056,5.173456066058398,9.038592641379331,6.676787042284037,4.893900350063969,6.3465355333403295,-9.873008397145966,7.105238789490606,6.1349762215942825,4.15660473703722,1.5256214304772353,-9.801213938120414,5.010987488998552,0.8083036490971338,-2.4464703879589837,3.540310761428131,-6.842299789057087,1.026960605799374,-6.710057143424118,4.9328526349626145,6.107233851994579,9.313596894478916,-0.7589952874367185,-4.001548366423126
-1.9571073601818574,-9.83001544975539,-6.122294666006152,-282.78916578190217,4.647013228197434,-358.4987262741861,-10.206106906872243,-159.56763286267199,-221.14927926105892,-487.22360387532746,-506.89127146322727,-15.915976936161439,-7.965296410203239,-493.2944509826518,-217.469222920384,-1.1634618424578251,-13.672866129952107,-491.1804990723192,-487.5642025158138,3.8572565936411003,-17.84444222762628,-508.93249551864596,-8.380322187792874,-502.9802836655847,-514.6654285383106,-488.08847202813945,-1465.8134140883922,-496.05277557957953,-506.77933075688765,-4.28820709435573,-511.33925982999205,-11.05093358434184
-3.205279336462308,1.9797209025852922,0.6310480094532913,-6.326721734410561,1.9734437400137708,-8.141934603378262,7.9145121568576435,-1.20504476224429,-4.335479547674728,-0.10349514921891334,0.5328640404725711,-5.576702092269834,-1.9663180042712085,-7.573452229770188,0.5056011492007464,8.134060005911742,-7.374194751080694,2.867810837742404,-2.3559474149939685,9.98659792553125,3.5129791046365817,-2.936185605127881,-2.3298565491083556,8.322730524479638,8.3702301504714,-0.46027249352281885,-1.9500489096234972,-1.5373363606710218,8.928542505141117,3.9610743989670922,3.4260290974365564,-2.443576801013858
-13.090732736394955,-499.65028281406484,1.547592438576638,-295.5833315789285,4.732889763334874,-382.88738701515877,-4.344718432665266,-147.35767833557475,-211.47740812564143,-490.6152400365794,-488.9066612268375,-6.619032919400436,-10.203676278200438,-516.8415765736723,-228.9115091998339,3.400469275234668,-5.411565002246388,-488.75304872928217,-490.28337529089777,-19.33646760665532,5.3187198564820495,-494.8780328528663,1.7222041408704118,-491.28239892469105,-504.91361228639454,-505.3361711782202,-968.2557014363877,-507.9580986258161,-445.4850902366352,-4.434683385050454,-492.3448616731699,0.3323606039852507
-3.768339520332571,0.6426480918628386,-7.289405933787121,-7.293611008008396,2.085067990782086,-9.495591306029924,-5.02127528042609,-7.68878445219336,-2.3830612145299312,-8.432769065536869,6.738976549228756,6.412810504424705,6.100868249138468,0.2432028706289291,-5.853233107419649,-5.267717049497471,3.0260147697578805,-7.946871733218551,-9.869646137518153,-7.685191858742744,3.254749780811462,8.714757987771048,-7.331942459073442,-7.658173270520356,8.04912302863698,-7.613118250378321,7.08323761337358,0.3783148586778058,5.42424170379981,-4.431846466672762,4.595460810954211,-7.333145830876482
-9.154802268014901,-491.11797674483944,8.256086483987865,-142.93384190591632,6.746686778354972,-461.3626336991225,7.589002800800479,-80.01502374441199,-104.50497224168242,-207.92866906219527,-491.49657757274434,-15.596175544818463,-2.759461656184289,-518.6668162771024,-109.61315412026875,4.593707332554777,-1.3656112542221406,-490.34154163832545,-275.94061410106804,-10.323201820119895,-8.869061085643873,-508.8969576328098,-2.575011741891517,-203.66138894700745,-485.21752440016235,-399.7105301352127,-992.2932350292829,-355.2321012529353,-185.71645497875167,4.073536954758811,-489.6458767920458,8.783752798853037
-9.17891584342577,-1.0049342028876076,5.3315804029978295,3.5165971745665345,3.229124910885039,4.014128565322272,-7.418117936243518,5.345343143034416,3.42514775355453,4.664959356483202,-0.8858480180838306,-9.036822448609245,-0.7830891774284954,-0.2774854769963131,3.9986381450383988,1.298270013028791,7.5861638517692676,-4.531214481174793,4.275356083668257,-7.688153050435204,2.3476646984860103,-0.8950583308607811,8.932171443288283,0.11906529910881147,2.4238727998015754,7.086307982091242,4.470756125825465,7.044271298534259,5.356301839942079,-0.09182606438278995,-6.983559733436698,-5.613256354170497
-5.892302887482341,8.08779485384488,-7.34879925472139,-4.567386689774279,1.3338790183941716,-7.584890990793063,5.095706158093229,-2.7438477016546647,3.3562405868324223,20.69730942035497,-3.2282508709047386,-4.503309291154935,-12.491800592875528,-8.658662554545412,2.429277723069955,-1.8976968540562087,4.862501040780024,-0.19811262359238846,-2.855643015596514,-5.724346796085623,-7.770001219141697,-8.092390953737617,0.2339681751775668,-4.308927558328696,8.79884620178165,-1.5125162706702344,-3.196490765410376,0.598045024786364,9.14464934221576,3.7418134696289975,5.791340775490038,1.3362336712839795
0.8820951359611868,6.372697294838595,1.9521681375880284,-1.6624043082915172,1.3195482906977674,-0.419116200237287,9.502213837717932,-4.238800957987423,-9.91943132328359,-6.1260323800469845,-3.3954826284909707,-0.5998429271531531,3.1995271748373266,-6.526444341609164,6.1172803355518965,-4.062367553703757,-9.35002848579149,-2.3291717881579688,5.626881785350175,-4.434347362880116,-7.837332656879569,8.279274300626362,-2.452629654136917,7.471396023421637,-3.132238825345574,-8.368604115133618,5.309785754672697,-0.8812835476029068,-7.974650777004313,-4.265408258172045,1.6499799228719407,-7.8854207522624336
-5.082135709250489,4.434240408305463,3.578008312759213,-12.84876182762788,-1.5175583875675425,8.122105813030323,-1.0225675270287233,8.741608316420088,-8.593448073918925,0.6949068723843013,-4.591302075356745,-4.9362818603917304,-2.5789102677757842,-1.552038879151623,-6.4895040015150345,0.5098833856046285,-5.139522507050486,-1.7313165314138868,-4.362797082086189,0.021712079870697565,2.091188190080109,-8.23942656223377,-0.7000248915972186,-1.6539799821172958,10.270749555229038,-9.596742559688359,6.798373966864521,5.2665913893727705,-8.814152078509576,-5.499210274199434,4.518189108818739,7.153783692963675
2.459483535911577,9.848904703855702,5.8029676748568,6.694874743130995,-7.708854280790865,-2.9638839262174876,-8.993300941603897,-8.680812894039278,-8.826857202412768,-8.007308312548481,-2.672759342718578,-5.0583548418695035,-0.5962128344592532,8.672559982638361,-8.967824054610174,2.3557427445734884,3.2870832543122948,-2.8489889900721765,0.9525841887160276,-3.1801864395598862,-1.778034308685454,3.524488047181144,-7.246221523512839,1.9346851508210676,9.595323670999282,0.30579283105641686,3.835879372521685,-0.2361445984427757,1.0140475038511791,-8.993834158208081,-3.1585825522437805,-1.2307462097529882
4.313060409902462,-8.654696028677158,6.088868918770636,5.158143707895995,6.377380689704854,-3.5119480702093746,-4.346379247195964,2.252630487573793,3.316843161978939,1.772273367871728,-2.5145603880445027,6.9541668549398885,1.9922166079108479,0.023169699022016488,2.049374987211552,-9.070968412129668,3.622168653408732,-9.912783165248085,3.0924547067231956,0.5064998150911819,-2.2513265925229975,-3.6603617571082907,-1.1162005174273109,6.218829633403175,9.47924764101344,-4.195717602716769,3.506874519995895,-8.634431269617926,8.186492233154855,7.5319281180688975,-2.0923938065947922,-9.018283774698643
-1.484100422153107,-9.827497084084682,9.878235787119564,3.1387221323188257,-2.2128366457768456,-6.394119036011725,-4.097433626123593,-4.436648984192912,-8.798472274087876,-9.439061211677448,-1.2304153620466867,-8.08473895663806,6.321153574072895,-4.664284336874067,-3.597974450690373,5.534681524149953,8.79424427264565,7.750342625238201,0.5704518397767195,-7.055978712692128,6.953904851225573,-3.5992723841861363,5.8112040416964845,7.434920142820644,0.6866472151588372,2.1273392099916837,2.5449982688945223,9.574781910739272,-7.284337824581135,5.037084040609045,3.6232973090604315,1.856012916658667
-7.525181563972874,2.4881062473558213,-7.709156887421901,-6.555110517023774,6.958617686012058,9.63429356319946,-3.5519852453756995,-6.07533848962273,8.69528937439918,-4.6526334355764565,1.8974755717971998,-6.857307255331886,-0.3310967963715168,-0.9649754658274912,-6.324720962979711,6.184172436993006,-1.7230918465084173,8.13809621726368,3.678724939187939,-3.534733269376586,7.268434199188757,1.8432139942793206,6.96645644558544,1.135257569944418,7.161822019435444,-5.283342425865856,0.44971722849093076,-6.074448772648536,5.08352736348167,-1.6216577313150982,7.456722009724157,5.0332968723271385
3.1040526358498077,-3.094439269875453,-0.5538573633308896,3.1073759314558735,3.9266430537171004,-5.910835179424958,-0.47805807809455025,-4.3669198666004005,0.8946633364311278,7.259099806927406,0.8155709770071446,4.356459986307025,8.828522994888669,8.23398174446666,8.049998562072314,4.328202680354735,-9.534474214648297,-2.3704911564509024,-9.448747921932155,-3.9051557913149555,-4.378353460333139,1.420443448343935,-0.6120810734227611,-3.2109401437916034,8.136043845833065,6.108274305311472,-6.553959351525654,9.943520374576774,-8.083554249462209,4.155812818526012,-2.076838787333248,6.872644943444119
1.436883844670847,4.89679472932673,-7.883142811511792,-7.100452117411249,-3.314413614644181,6.343035697054368,7.580743021410832,2.7609687297643575,6.275921875763526,3.392016273627185,8.039673011350306,-9.695464052803409,1.3522267912398984,-9.155287080074412,1.1841554030490968,-5.9203794225861195,-1.2270668426583082,-7.725389734431587,-0.21673227195210032,9.793772908943687,-2.057950708268357,7.172704233287327,-0.7548682096036679,-0.40499598311564,-6.535360939302612,-9.531905764764758,5.594130039393107,-2.711615740901201,-0.2005213526284706,-4.122873293758236,5.367758240733309,-6.995340805979467
5.296959981707065,-8.193265736540438,-2.8569488433265544,-0.6329305860787535,-0.04700421261047261,7.707906368006981,-5.814819357130299,-9.68295868914835,-3.62351722100718,0.699351300606379,-3.4061398215807737,1.9784511584590074,-0.21997385225318666,-9.687331652994747,-8.567101593680517,-4.550099435813717,-8.04228666831133,1.060999641985589,-8.071200738873328,-5.100878232132522,-3.5987110238674624,-7.799265794469317,9.265778986202918,-5.88905412937744,5.826489953342941,-7.845353898955658,-0.15091751271675946,8.000468657645484,1.4287409327798635,-1.7602127599047694,-8.152266147602765,-3.172595565822429
2.3315349862083536,1.415523052322472,2.2640410485333327,-128.29214694594486,4.193190862472374,47.974318226617875,-9.622496119840969,-82.28369067741095,-110.56998504491406,-227.4463825681641,3.9449494001542815,-9.671955053682472,6.659623004371419,-501.8556130671425,-130.29654361741504,0.45237308769053364,2.4399390176654716,15.865149952835724,-275.32224004670707,3.6004200085979434,7.13344104851512,-491.8137524993041,-6.110642068546948,-256.1088100405149,-6.481485158476583,-421.0526025567837,9.056042051917725,-331.5459948564949,-181.80081579627642,6.8930446265130705,-498.94890950427225,-7.98871866330404
-8.424350522800069,1.3183917380983026,6.461338254609888,-0.19391659992347954,-1.4327223868902905,-4.022046602717182,-8.277424970332582,-2.1259276877118793,-0.20042318720741292,4.569904263383233,1.2115619208553614,6.350193084467072,-2.174380540684801,8.310256075087516,7.632073780312659,9.862169023454822,9.002586867671226,-1.06377462713548,4.035099530910797,6.006500424422942,5.943620594574753,7.146641856067653,6.620381839407074,3.8936127822543742,-2.497041497303634,-3.7985661319827813,-6.362161465744713,-0.22204068859277548,-8.600653382547813,-2.838396726566492,-3.1574022823378334,-8.528569659888905
5.746359053408076,0.4704072148201277,7.791624294185432,-244.33068338946268,-8.546454041964909,117.52106130392079,-3.1743675181940105,-149.28120997321895,-233.83932600551455,-438.0363365926608,20.68429170919994,-2.758752859382021,-0.39011077955664497,-505.64303405451085,-264.5034379699433,-3.5076904913158113,4.48516187075575,50.49909173880342,-498.74430115011364,-4.9867945380092005,9.698176437437652,-505.7262758837093,-0.30874964734883825,-494.46219113347087,5.313644538566377,-501.55291247249767,-509.7569124911699,-490.4224091184836,-348.0065380133071,-5.791313824170043,-494.5528643007694,-0.9562985714942034
0.7018336044162758,-8.499148631855034,4.231903903972562,-9.415980567267715,6.573937594069331,-6.512085342811589,-9.126814678987534,-3.1451915110030555,0.13961229215817283,-0.6547390235124677,7.242079808550628,-3.8820608860800014,2.0018854805676263,4.300192367324083,-2.1674159972294804,0.4815788419828806,-3.286233599616586,-1.0243777582001918,-9.274925202472431,5.767012555904769,-0.6244119566737627,5.935652314857968,0.0160306380902,3.193387691516312,-5.388214301848333,1.1557042233637063,-7.0859555369743905,-3.9478028665346665,-8.796055874524413,9.392528186014378,3.5726241290262966,1.535011940877947
-2.5932861574811055,3.8111805103839664,-24.1356275632881,-485.9469631657037,-0.8331333428066277,-223.5257111058321,-1.8216436407999446,-397.65375999807094,-492.1019039480199,-506.2746265720327,-464.44609620375513,-5.81134982252096,-11.358779564452488,-505.06073354197133,-512.4645537324133,-15.794939058809925,-14.349297663997113,-430.5923406582442,-508.4357631547438,4.487579200648121,-21.918434616810416,-483.32903186249916,-8.825173243806429,-494.4537527615561,-500.1248756511299,-486.3751483639029,-1464.9310474569124,-487.28455916308826,-504.3017583492816,11.853566606028895,-496.68299702115274,5.854254319354787
4.940978245236526,-1.9050302285640939,4.368133798724269,-1.8424805555582218,6.268885405726088,-1.8033867306576248,-1.826613361799616,-9.082734642356147,2.459997283892033,-7.841186916246523,-5.905515913906989,-8.182063474871024,-8.464453551439064,7.9773516732533665,3.213331750245377,-0.02736003653670238,-4.57068114598667,-1.9827251293294168,-3.95063788319324,-3.5794070241350218,7.084872288253372,-8.181314130490254,4.2387539961899385,0.5534944324904814,1.4025411985877039,-1.266380470018742,8.990657433928511,5.313092663706504,7.590865424914984,1.7282083552803211,7.063350380092569,-1.2600428261162975
-26.979325008472305,6.929427404883377,-31.58797172173704,-481.4646349096613,-25.219540334339538,-137.8787638452788,-9.977523257820337,-956.7739593572868,-500.7138274866976,-511.4735456774574,-464.07238936676885,-17.908947977147406,-25.91959986243664,-509.9138947784387,-495.35769617111356,-24.438257661795188,-27.327723326958125,-410.2870919881839,-505.1667040460556,11.54055776139032,-55.08340909928128,-499.53083777355266,-18.04286644130756,-484.52325980396125,-501.32308741727263,-472.17062423172973,-1462.5215415582254,-497.0437235076936,-498.6812465673058,7.39078277799463,-493.11621382479467,-2.6299478858312644
8.445579053204778,3.8196777691304398,6.836754040904978,-1.9933730930138438,1.8822630167896293,-2.0725666061194215,1.3902484550805774,4.238103709561184,9.579000172246602,6.137066311107468,-4.932691696797294,1.0184445888043658,-4.040856572726956,-6.502545362622141,-9.956401707643113,5.335410072702986,-0.5227215130778262,-4.084054743926561,7.319902128323946,7.419954437770073,8.779448065616961,-9.898738512112535,2.2748353289600605,-3.616292810270963,6.035145237333758,2.1193512005086603,5.277584795814661,9.698469987459589,-6.424848167485928,1.3960496511929499,2.22722231014194,7.985958911539232
-2.1211312849585786,1.223840372834772,-33.64427912434151,-384.0290229230663,-22.702916583857565,-618.1970249849326,8.6746848046242,-991.0830062142469,-498.49380737631026,-502.1201824871265,-455.8046709372782,-0.017102532851980712,-6.571617056108167,-497.3968482942823,-508.7179279255866,-18.83279652372156,0.5889157532333531,-433.40785049905844,-470.74282927941255,9.654762211046346,-46.54015439523464,-493.8078097093193,-9.934378049623739,-499.1356635662411,-494.367606223794,-487.8944120763488,-1458.0061286672717,-488.34790975559383,-511.04981166004296,-5.772844377681371,-498.7531363362148,1.1876719458307166
1.6487447023398225,3.0213733887942276,9.147688222173674,5.044328312531919,1.4996821935999094,-3.4440393318708606,2.876551221137259,-7.345650654060152,-1.7013582293678216,9.153973428721585,-3.728032109656545,-1.7306018969942887,6.660334585466131,-7.426956964111255,-9.711590861419747,-6.5390433469359905,-7.221095474695227,7.844074637519945,7.825441408011216,-4.022302518630672,-0.1807160860628354,-3.155388106967836,8.472702165130539,9.734422875583533,7.785716273260093,2.7501003490765346,0.13084728831051784,0.11758755877050397,-9.045518578966792,5.187705490417969,2.342939380510142,-9.158008735690137
-3.606958478833051,-3.3340008759334916,-40.19721021251819,-264.39187775468935,-6.1533435205496225,-618.55524938196,-509.59257557086806,-480.92598369301686,-506.5173984746637,-507.74237839663004,-434.66026557186814,0.3638590941871307,-5.557817550535323,-503.56990461436203,-496.16174852691955,-4.843114238959458,-2.6141863822849363,-425.9515898343979,-470.3592666249475,-4.130527226363146,-35.53796831371381,-509.98075304182294,-5.773032379715645,-510.3590733588626,-496.10228225606534,-486.464579444152,-1466.3026666903108,-495.3645936581442,-503.4820163191566,6.285045827925844,-491.80412209424276,-6.590984048802923
-3.206969266584978,4.052820176493178,6.332428991808218,8.943169225450816,0.9879304661676684,-4.190162363969732,6.248951783810746,-2.631480521812639,3.7643881545099163,2.5245597682051795,4.305725920986097,-1.1552793900367178,8.81128700745997,2.4643683446635745,4.629110579625612,-2.8378094944750725,6.821479159666254,-4.313688630922892,3.636245928942225,-6.76208500097792,0.939317310795758,6.435729280475595,6.3322494383376196,-3.039916406727783,-9.239436394497616,4.968700400392317,-3.0730938907961747,-5.37677760825789,-2.81732459380319,4.071562855025936,-4.00451985060803,2.918918196638952
-6.62797690169748,-494.4892342827601,-0.7138356510863275,-280.3584449454327,6.24172287115912,-227.54515725566318,-501.2944426940377,-412.3904306244587,-496.70865162259594,-476.0635615799069,-465.3004269681747,-31.057891812248346,-15.293111699254478,-512.3943493507194,-499.92236354397187,-6.60866770871055,-23.124789337686167,-472.6680860362746,-490.67289927469795,-12.233234548729593,-13.810545263077522,-505.60497186581745,-26.318055561344703,-507.8423691454642,-516.3041582060777,-497.91379694735775,-1466.6871127074983,-512.1556758246996,-492.0601145724728,-26.244363335072315,-498.53635639372413,-22.55763230911354
6.094582708031972,6.766353090087797,6.283029116107265,5.570906783152163,4.315833920087723,8.508496485760833,-5.433267974225391,2.3069532063537697,6.643628791045856,2.245775089302594,8.184355145312583,3.264998726000181,0.2311746730914166,-0.11064627541438199,1.9060748741238687,1.6055240816476974,1.701377444981473,1.0282616087332013,-0.7270631191915307,-0.5578950012753872,-8.270609278087006,-0.9981485467764948,4.856454542456532,7.2584942451034316,-3.546956433829589,-6.857319373955029,-0.3099944243965709,-5.2205006826122275,-0.33186078780970796,-9.009352427551658,9.578377000497916,-9.453834680681652
-16.119122551544645,-497.5243098712924,16.97371536436328,-11.62598256429545,-4.337138210104056,-413.58624305275526,-4.881016919138559,-20.76421829389426,-149.6989824871203,-475.71639790606827,-507.71491985545214,-23.469931024829194,-27.33229795489587,-503.9435663974281,-132.90626966331808,-2.9140112312404085,-10.56041135311525,-542.6347899555067,-504.31890256909213,-6.427816751380304,-12.230779544065602,-508.07816591699964,-12.7917657240543,-331.42290760483644,-496.5694139013553,-501.5258875050017,-1495.5925945826616,-516.4875878032336,-361.4687452937561,-16.996020615556695,-481.35537550537236,-20.61586486991694
-5.8568708804584695,4.0716180106587885,2.5421912404986493,-6.992474047774964,9.701587126182787,4.156615699674816,-4.401317489437606,-8.573850838364246,-7.54488256770983,2.1284993336481666,-6.385028011491956,-6.755610156937175,-1.1389021274239255,-2.6385305119548867,-1.2788283691336595,-0.2321815268967491,-9.971004829097387,7.554326875793677,-9.108256892801904,-2.7715739393609145,-3.152119804005782,-8.20502728520444,9.747921195565649,2.9045780253144073,1.8552162721334113,2.3876543868977524,-9.890918728362589,-5.043661383727729,3.1778279103185874,-7.540741435908169,5.07519624301732,-0.6571768227925503
-13.562321124343121,-507.32980686277773,-8.371197335440073,-3.383112758309661,-18.00539888531665,-470.4330247121552,-1.5196535970172014,-4.22035801714734,-7.9340791223071605,-172.07416817296917,-498.62514907644857,-12.147407535394716,-26.90406241139297,-270.9521865845276,-3.265865183071945,-8.367840024127197,-3.9466740269051215,-512.3666008581599,-126.20083595339885,-2.0488334954341596,-26.298913305004415,-489.7359368188821,-2.0539474876357176,-68.54428963065556,-484.149019737996,-247.9678281795841,-1501.068896636427,-271.9139098528275,-91.38968436969691,-12.290550723696748,-428.4158993159157,-6.6247527497666
-9.344666172484457,2.756363960532955,-5.766160935490436,-3.6207599181014576,5.6274134949669214,6.339009240865153,-2.7368645912689153,-3.916144481757482,1.1314308458490796,6.837400879758132,4.8031081215536116,2.9515341138602658,8.89113701788499,-5.23902865151769,-8.036094916099849,7.781452421688748,3.4877879513399623,-8.588242463055407,-7.827174716218801,-7.163722836138526,5.266763284020328,-2.399938078770547,-9.769193199405368,2.051825556198219,6.294582377172478,2.685031674309432,-6.676001504459135,6.304645212671389,2.9742034391261924,6.108797106601177,-3.692351853272175,-3.662980108832315
-12.286169299337658,-2.353625662388909,-14.473496812027498,-1.4265203388297625,-2.4205409886134905,-503.9122952893765,-9.470602725017807,0.570995990236703,-8.569990024952745,7.804882020746184,-502.78517531559464,-4.331692580037068,-27.16518251608914,-1.6528398306462488,-7.714125012714968,-21.991083702718925,-15.867701404452545,-493.3604797213637,1.5866819130443206,-9.73689505094685,-18.712616263717095,6.96715787320351,-1.531851500593418,1.2678427465184328,-496.02147589965455,-1.6528482618209643,-1003.3768818593637,7.047085059892034,-1.7115870891355112,-11.964725720295071,16.79137740556468,-0.514295801660968
5.920412691920973,8.10633053728698,-8.751816045589935,-1.2788133148103338,-1.0018874817720338,-0.9763539461389197,-3.347684254803771,2.3176294835073623,-8.980691300293397,7.734298272112884,-6.593746406307332,-8.487892442894932,-7.720966138160124,-3.179582174802052,-5.30633421486407,3.4978627688779635,8.800111506045749,0.8940710836167227,-3.1180166438313694,-6.223758236553607,-1.0160895707024835,-2.8498199299093336,-0.7965691624802709,5.167543433786097,7.8295890989822325,-4.085652741176238,-2.899865834921962,-4.229178270092193,3.722034983228294,7.603567605833344,3.475372571917525,-6.869042815337827
3.028313444921345,1.3287951850571051,-2.0800156166416928,0.04995277244036078,-6.823666424015994,-493.12560292299446,-6.777501193951019,-6.518024187893763,-3.0408842711556865,5.175542751335488,-491.431302364647,-0.8304386527144452,-9.389559617858144,-1.0817587903019872,5.081877055032276,-4.431410112161946,7.063856918330016,-498.1591336694949,-3.951603564793733,-9.990766060648323,7.200135587860132,-6.7725568711974615,-4.137671879716548,5.607081720138282,-495.6230616536631,-3.95399158171516,-1002.6159400884496,-0.36349393545628494,-6.146422052175058,0.6929551816538222,8.843758765207935,6.033590813177433
