-4.377135397235234,3.606077463923201,9.085491216066902,-0.49902607531788234,-0.8771029387660825,3.4394120196979916,3.2381456203343753,4.306603665815231,-2.6923366790753134,-1.6380613800017496,-4.980673020552331,5.974188993747173,8.410849288742206,4.1991510714344535,9.417456585139433,1.572136013567583,-7.223016711382126,5.426530773055379,7.481562853218019,5.873118103675738,2.849489216504752,3.285619154053048,-4.245597467253798,-9.32246587545081,9.58601204526077,-1.9356641560921979,-4.899404560892249,-7.673242999993571,-7.722293984339135,-2.525273878529526,-9.577545168140968,9.532860567827136
9.892328256900853,-3.7133563909617813,7.72128802930191,4.740387229188137,-1.1456686921715153,5.458227590279144,-6.5486127625996655,4.848384249570037,-1.9274764923837555,-2.5725699542256786,-6.836650733389737,-9.311970663442652,9.005827696009021,-7.7881141474299564,9.660356529462007,2.305962231761141,-9.826454879759883,-4.446524694367988,-9.725345663428184,7.678453262833912,-0.33967283861381325,1.8254859335785216,-0.23376049081048933,-2.9143444755541337,-0.3765639552889972,4.373196136164859,-0.21520577853577905,-7.942206751249017,4.608849597386184,-1.997596368796291,-7.6173175671105025,-8.606212578020937
1.9924488696153926,4.952308235890007,-4.781414642658197,2.6678504679543664,4.440239293211668,-3.5122162014211344,1.842875728962806,-0.4813954911030649,5.486657471861584,-2.8294128823930613,-5.345991914153467,1.8488851317050692,0.4192497402347257,-5.742301559282861,0.968723110662248,1.5174036812695633,8.043371819691348,-9.23129992034074,9.215658248004445,-7.92891244397111,7.323309042925558,1.4314391837199238,-6.201599119976682,4.198390489722852,-4.968262874245195,-9.488674305216804,4.134394643069596,-4.8032196420174555,4.086813304678259,-1.9872998566705782,-0.28586163084856686,-2.873624698407662
5.547771885667842,0.8385431349078161,-6.818775873159568,1.3627511912997292,4.22681506513446,-1.9048515071238796,9.814127930193045,3.6430818430982033,-4.674119200711626,-7.720542435878466,-4.210999533540358,8.439948017233736,3.561434766014038,-6.148020617813144,9.799096317324082,-9.633094460666962,-4.757197738295189,-4.58485271040974,8.151913351734333,8.914802003529836,9.685893489466459,-8.96811768894852,0.21377456536796302,-6.899787167013047,3.8745583507340946,7.71406398814614,-9.499110749360192,4.078559982418142,-4.592533622905409,1.6330790873593415,-4.650415800141808,3.2715488494715377
9.707654402100726,4.551276106223126,5.510984593670848,-9.010688276824464,6.119332666555003,-4.620861682427108,2.389356712718822,-1.6741359121883157,1.3461367894092007,5.5062269976600895,-0.8151482053920773,-1.7814925526380563,-3.115233983280672,3.0459771426732374,-3.0461661010842223,-8.139721640644954,8.827674080759756,-8.815735744390045,2.443248125075968,8.167933204210357,-2.8857736889118124,-5.776746554461749,3.986136429450573,5.8403457919522435,-9.643416435818967,-9.784370181049592,-2.231704345553201,-9.784959522355571,-5.830711979809973,-2.399497830146659,6.62672322455078,-7.6758725751212715
-0.15079530522129225,-6.013071310443756,2.6654994172988395,-9.418804892514904,3.111585064667704,1.744833081717129,-9.494740664941332,-1.4502297923981011,-7.200779903149,2.6802668463676245,-0.2350229465010667,5.074316586365146,-0.7703551239486828,3.0830824459622885,-0.4139421074657541,2.5799900133400406,7.205356785550087,-3.704128313683645,-5.38187434211574,-7.72384339388527,-4.814490554536386,2.2358349134921767,-8.084612659886002,2.9546451113921286,-9.135069996721823,3.6024774151572903,-2.2260427709411506,-4.909197015507159,2.82206809922471,5.751587123302894,2.9914552612837824,4.136169728576334
-4.6788865605337016,-7.837422659107229,-9.531820943872415,-4.35347974574718,-3.218243564428076,-2.671017486579979,-1.6490193323239826,2.0096690865349522,3.781307772142723,-3.981301952187673,5.179595118948207,4.09949737115749,7.606532588965248,-0.15527527746087344,1.4651837218691792,-1.46385680357454,-6.930137667383738,8.377066285636474,-2.594966724405219,1.93193506122247,0.7363627895071545,-5.223658692969744,6.793344281245371,5.225486418250467,3.860884948889087,2.095815009180086,-8.654613091651747,-5.384065976380934,-1.5924923782125333,2.5891254920759277,8.08849682432864,6.3753148403944095
-5.094863644239616,2.290867354155715,3.164496016275729,7.83703677701293,-7.425376078383539,7.728592873105207,3.442386061254229,-0.3689642818635104,-6.1599052225575335,0.3583207078068025,8.043558693247974,-7.480255430166571,-5.59966435736203,-0.29472659459287165,2.188511111959011,3.193728066777945,6.321525132563199,-0.5215564432815185,9.424260170308816,-7.982259706976955,-7.322518177592263,8.479789891566682,-9.381203080783486,-0.7083698285620148,9.137129772578977,-2.545344379868382,3.5661648317187264,8.837630041011096,8.187111626180869,-5.502268225605606,-6.097012264985031,6.537313663107614
4.585862994781699,-6.301126468371667,3.5880328230960536,-8.375822316238908,2.7055009947301034,-6.452727450182598,-1.8829173052293804,-8.273985013799312,4.865545538661246,7.0506285071248875,-3.0226906118130774,2.0301733779789206,-8.199426289784695,-3.679365844007039,-2.722789732837292,-2.7807779099186103,-0.7715637631738161,0.5372322891350194,6.32251747961331,6.596929820202057,7.172373191788569,8.154216503548547,5.352729220474096,7.192079749494241,1.9271467952392012,-4.896783521149275,4.124758018082076,-3.5475648237353425,7.183499072984208,2.2427014016791365,3.7449061509099337,-0.37401255286537527
-8.757216045428143,4.2504688106645645,9.022411544207372,-5.497651394595639,-0.4932930532956714,-0.15192568055812217,-2.6386250726951115,9.462576343276119,4.190176737013395,3.0953449397554635,-7.318145132888823,2.82277561516233,-9.24348862958879,4.419902460256161,-1.790696994960495,3.1721598882694053,7.133762465016101,7.934596677590157,0.9955462610118655,4.311297067653783,-0.40295649822558666,-5.539395351622911,1.0353477504654336,-3.1374808694556737,-7.0978544188017185,-9.936845105194836,7.844235303990711,9.41846419309234,6.609715912984942,8.973286915038624,3.170467626859235,-8.269839403384582
2.5665300767562105,-8.617974891308604,-8.213127236885093,-1.0421897552486232,7.850812684363181,-2.2217994741188196,-5.405417522819869,6.47042972382366,8.949531331770633,7.078720216953723,-0.7345212247473469,-9.37410788005209,9.079302658492331,3.966682316345988,-8.965191030087666,1.1281080665263037,-2.784225558882751,0.1833217614110083,-8.710460121816732,5.894779078219193,3.5708914831736287,4.649665108445278,-4.691808119221714,7.618401113283916,5.74415927915018,4.58344437798144,4.042806329566105,2.0030597620308868,5.124222362268675,2.240092212416773,-1.7373328290055294,7.32246869095118
-3.3998302663347024,1.110119250092442,3.0688691943791753,3.6914542055496664,-4.397460027391869,-7.269714881845002,-7.55503298652288,4.56158476193009,9.362765356946504,-0.25148355773244546,8.599367162593452,3.0190545587393824,-9.731344856485514,-5.411081288258639,-4.848687946016447,7.346534952269469,5.693040781693812,0.4369321909330921,0.03502216447441242,-3.214139719102775,-2.9499032763748563,-3.871601436731302,2.8598419558979202,9.491697128287289,-9.607518053103266,-9.249240629050117,-9.613886518731992,-6.765025905951907,2.7474833177379203,8.74005766591192,0.7120633948350079,5.70326530084516
6.738428988534476,-9.036277125513752,-2.6922881919939057,-2.188484774097006,8.155880520663008,-2.5590322473489957,0.6518203989518447,-2.5526355153207962,-9.403190713336514,3.1096456637723175,-3.849034444119102,6.0416340624129,2.417432726779138,3.762367694409601,1.400301802929027,-0.6033846141331409,5.776792331301493,-4.076044428599614,-7.6144928840671895,-3.3227276890025976,-9.317592979291216,0.43534984471087235,-3.9593847277907557,-1.3565589295966234,-4.6529608513905,-4.805935981299312,-7.267477745155038,2.86439479003122,-1.5191371647683205,-5.048907856358522,-1.5142437510385953,4.7544592742914205
6.2749677248843625,3.4990731962125032,-7.406837968357795,-7.112968709282899,8.692625325474499,-3.6473180382957455,-7.153197094916881,-7.49709593286277,8.043205143334106,-1.0808897644735111,9.198484325214629,7.817603626778247,-1.48130931533845,-5.377884686240558,6.203727993581726,-3.2164136480395005,-6.304012855704237,-1.5406421771265606,2.9847001177168604,5.2818155093458135,3.9578706642097377,0.7167784457492044,7.845404658693372,9.458893899779682,-4.836184256471312,-1.1759000505152102,-7.879792483825527,1.770006439877612,3.6419859165849733,-6.437519106613562,-8.456246740680422,-7.471919680297652
3.317340511851407,0.4461119204062989,0.4674186290748672,4.283377334126362,9.709835252645526,-9.453213059575681,7.697526946604935,7.491706173327472,3.31186517996259,-3.849852490931605,-9.039330025622235,6.943373355321025,8.045562374924941,5.343951086093941,3.2304525575253322,7.836771284457708,2.130163973939325,0.27925509278238536,-7.092141382873962,5.533344757595092,-2.8527179696717724,6.399775111563283,5.698240454829964,6.849509596935395,-1.753548183856772,4.453644633178888,8.194289475177808,-0.4519905229063088,-2.2440854236111063,8.720868062707265,-9.126437870293367,0.5696633844532766
-0.8455935005501676,0.8104691555866133,0.5436500432935691,4.764068561908616,6.90669278753478,-6.39881421700867,-8.137679668742635,1.2404363651385069,8.578649757897072,1.4798059893169366,-4.95611291027693,-9.68827502206337,-6.996563954764577,-9.423195408195042,5.104633661481881,1.5661934913689102,9.20245900606876,7.486508494882791,0.6020233758175308,-6.482313093685859,6.887080007565206,-7.078594025020479,3.6140461942443363,3.865170317175936,4.428037934119711,5.026941066178882,5.159316304704639,-6.58631789449891,-0.7519346334070178,3.037890269138778,-2.322665194744655,-3.476386636104751
6.421872906730428,-5.246621468149422,-4.949643625091353,-8.428688680918263,1.7383922868764312,-4.437755150445037,0.2578323290868916,5.8086835635444505,2.142946723195621,7.349999155469895,-0.40727743274994843,-7.230337794837498,1.4550477992446496,-5.526308908715043,-2.71703659945286,-2.80209560984944,2.3410584980891986,-8.233930412590606,5.852118289162064,2.0124501242218713,7.349741131928013,-4.424706946412185,0.8047371314559992,0.31162723976129847,-0.19095080950916277,-7.657059217452138,3.52793172057255,-3.060594487529597,7.261064919113544,0.7109843542243404,4.893529988655283,4.644968244138541
2.1048347928845317,6.63634780742262,-0.9421605979716112,-6.419295040474662,-9.822892693480883,-0.3817936417475991,3.2327961728732113,4.505560840274558,-6.5831023210573765,-7.0545703774525625,2.657527430106974,2.631320598556126,3.2664257058683717,7.373708929168224,6.729880225140224,-8.986872820592264,-8.422691640955783,3.552552819414039,-9.96564609848313,-7.190710312727637,-3.7964443429039303,-6.457662169150362,4.762024378301355,7.954276961808663,7.656217622646892,-3.808952175133335,-2.5670537472189086,2.9895103439696076,-5.672822781429618,-4.6701431214886036,-0.9109404896016127,1.1164859588237501
6.574857910811033,8.936104655693008,4.830846987385948,1.804527942952065,4.879895394044828,7.691904650925025,8.369592556976507,1.3475720000379248,-5.699852299615906,1.3799484957670387,-2.991375998992214,5.636714366624389,5.076813689253992,0.42335989816411335,1.3058812785446676,2.5854468527416437,8.06030944102401,9.687903346893975,7.942444603980249,0.9605051119696739,7.78829683467141,-6.9649107215381,-3.092197978362292,-6.003528569302046,0.16581172820587575,3.506679727555234,8.921068521499006,-7.56519354309757,-6.449434860265826,3.9291351585966403,-9.345779145445013,-8.954813598790661
-4.246729547925092,8.863003308578492,8.225366200214978,2.569685483127742,-8.261641907765036,-7.94209086981563,4.06324549513943,1.920179548662519,-9.663924776445967,-9.118574217946524,0.8096932275823665,-1.732364884486035,-2.9651050557428693,6.629008520285815,-5.759459050366926,2.647899248226121,-1.8411395863126518,1.5686812192367512,1.8593074532825966,4.863836130344792,-3.25375788333945,2.863107318688442,2.3599497058286474,6.361564712227175,4.931445583248827,-6.0241905691206,5.84995734265641,-9.211956774346,8.475183920136026,-9.440113951881344,-6.760236169095634,1.546509792800597
-9.528775839530297,6.012552315221438,6.389831268146452,1.7026746613455899,-5.440175758693291,8.805000923472875,-5.445415581565052,-9.368941661617107,9.73384215410319,3.6533797490928457,-5.422880816072439,-0.4295475791959351,0.42450969386777615,2.934668946711005,-3.020058517634034,9.393972907394211,-6.774478401815969,-9.755755820286252,-4.252419568626767,-9.832546113530894,1.4799022052845512,-5.255397350651307,0.011714827838012809,7.150026500274873,4.738227311529981,9.274267419939953,5.3733875760730765,4.715695901917938,9.885878650855865,0.560074692064072,-7.823714392701804,-3.7724080632692587
-2.087362123607555,-6.770715900897386,-0.22684018999789757,2.1583964050764752,-9.136942805205823,7.89411867261731,9.041217632764859,-0.45339134123278235,7.8818553150117445,-7.433531881507102,-1.5969557898540838,7.988663135356198,-0.8015916170616393,2.6418715099729724,-0.08401794784227867,4.129029265002204,-7.43552470090809,-4.869343603754479,-3.8956487123525267,8.18274425301804,-0.5727583008655213,9.660925070618212,5.6335529052268605,-4.4118962497382475,5.217112402271207,3.619652805534571,3.325487934139158,-2.742001197899981,9.298258102636439,6.164966497084254,-9.92724459250037,-4.718327398373072
5.594321363460518,9.277553345881667,4.053065799685349,6.868136215828791,7.22224246785359,-3.404771864886267,-9.475226676568386,7.88899919466283,-2.7766620588741127,-9.869051444542368,-1.9480926513583938,-2.0187914770448634,-5.061569881818162,-5.161659982276632,5.6040817678070365,-2.0707645099547722,-7.998886980396593,7.737071027918098,-9.047779239030584,-0.6883365799921553,-2.587380926503819,-4.995454101681053,6.740728404038158,-9.681153575346727,-4.101856085146737,8.742932984142705,-8.10605719079283,-8.802671645467669,-0.9659050755068925,0.9379969236805472,5.353250246660481,-8.50497848901907
7.037989753968702,-9.874465382364999,8.12184060352594,-6.398029513406087,1.6540193751725418,1.6830227093434598,-3.688156328852492,-4.767333944860268,9.77451419494021,-5.956221524360775,-0.4183996255070035,7.5564712384487756,1.4466610291507784,2.58391905779275,1.6214858828187353,0.5025406029483328,-1.7790782626492572,-8.956590754777938,-7.664420116199886,1.478425696202203,5.665407570203449,7.878008184581866,0.7595678212812871,-6.504500483903555,-6.824069098739125,-4.598197729296649,-9.452709312062005,-5.852117246411823,-2.404784646550418,1.5609885064779387,-2.1874448387746925,6.755489547648775
8.7536487811314,-1.896907137067675,3.1843604183792387,4.278302418549739,-0.7703568811911783,9.882242022505782,8.677918418189972,-7.265547241882377,6.2909413586947664,-3.1188092326593857,-8.980236285498666,1.0662633171265394,7.094793301989711,5.2346639423532775,-4.92164576522415,-9.54759878869684,-7.06884542498357,-2.7412372162975007,7.719245854504667,-1.8268985047617026,-5.401866148614842,-2.9738700486236658,-4.870901520674311,-8.433295161083432,2.3252904256416524,2.336537612292126,8.634690446679393,-0.4405238039057586,5.861777976148561,9.094575901905067,8.826316833522835,3.9946809974245667
2.948944395684343,3.1423960713077737,-2.3955500010377335,-2.8419836471292204,-5.653854816572963,-7.069513574992814,-5.2964457014204385,-1.5653776035406715,-5.780613357002807,2.7954910311194876,5.418342868409914,-9.29263113378137,-3.452439571064783,3.48989211011704,2.000943847597899,-3.9537621171300996,8.718285174730415,-1.2109731848438834,1.2338460051234534,6.188980736339531,-3.973073332585484,1.3564648030907467,-1.2660717712383516,-7.862786625187899,9.788386892678062,-1.9838852062580727,-2.2481572136135997,-8.2964702408697,-6.495346124232082,4.018643390604835,-7.6482348624693275,-4.874512708357381
7.539000720932531,1.5833301671899598,2.045471916039144,4.139579671464386,-5.0497447837214615,0.10482167876576653,-6.417815527411013,-5.2231307531789355,-3.761758668810913,7.225575227366324,-7.197581437702469,7.807653814709425,4.6871619448659025,6.030264211163605,-2.1937214947467414,-0.2766592979967051,-6.212023259407784,3.3204226850098344,4.077983897121468,0.38191975744829243,-9.919295549157104,-2.7105301990541513,3.3855369731218925,-1.5147099230245047,-8.559834928914515,-9.9746810190905,-6.737791138591767,-8.758647052904916,1.6111758217349799,7.7633581160937695,-3.489040603208755,-5.587057689695378
-3.3921789140648357,-9.388722644671892,-9.171513764470987,-5.645690493237634,-8.125940120966073,4.6147304883040405,-7.692640597160432,-0.41632281339643207,-8.207969830833303,-5.4800847553005205,-0.22169267330140308,-7.354568106210118,4.928725559878906,-6.995678805158001,8.245570592097767,-1.4122416782517089,7.709668605353379,-7.083868969971334,0.20962428109006837,1.5660444126732216,-7.780715513406968,-8.69289338084135,8.540467489242982,5.512471818012122,-6.931984198451547,-8.780574269714048,0.9300129265938644,8.16640116516778,-4.633164895323725,6.799919079471934,-8.04035184081749,-6.894418150879416
3.5734799439076,-2.9825195542805254,1.5265125014651524,-6.602281170996629,7.957684500824161,3.6902364843725,7.573672134651034,6.2215650162437655,-9.948941080194453,8.416774005989595,-2.7184944969318288,-4.250402991791735,3.6566280567873264,6.406978237443425,6.146877056406339,-7.906173001316558,6.6046420606830125,7.457485821963971,3.2206746519251794,6.93162559139288,-7.5759459275429775,-7.464747349203257,-0.13498325532771638,2.5505433746393074,8.746145267367808,4.944145843689402,-5.674820759894123,-7.329520145225345,2.527833174308256,-5.678453308774369,-7.221942394408137,9.056533991362137
8.747572137217972,-6.721372431411201,3.9172390991161556,-4.790505297168039,-8.893763881408244,-6.248065211506573,4.901227020847156,-9.20553955232432,-2.2737076198815824,1.642250207918618,3.6964909596484734,4.382744739656815,4.354360967082421,-2.361416414545035,5.598062112530734,0.5722316588085121,3.576377827718918,-4.738439136201544,-8.939365299671532,-9.926145117073986,-3.6861917685710477,6.510594163160292,1.8244548501263118,-0.4222578110445685,3.6896498422181967,-9.36098030169067,6.055933545031731,8.594503558612118,-8.52364438024983,1.1786127753634794,8.959861711200588,-5.819387852561222
-6.278782639030888,7.912647304706294,-4.298868297550573,-7.472638574595905,8.800165807922212,-6.094840123503773,0.7168495758320788,0.9620345680778559,5.093124840688358,-7.625690109293057,-9.903845744891608,-3.8227523127290786,3.4830542759891614,-7.154631711532293,9.023092844645952,9.978631367432953,9.194807195007183,-8.95114857236395,-5.307668552182825,-7.021247863309775,-8.508098128663468,-9.018676290671245,-4.1890991866793525,3.6882076172335854,-9.703154599247917,-5.960913357334707,6.3249378015745314,-1.2573574525966897,2.373854999137489,-7.998304462562443,-9.875156151429323,1.2233053374222802
8.826889978604648,-1.0500879985592917,3.3033994378697358,7.5241136592563045,-2.3048295804665653,-9.006376733748311,3.883586983416995,0.43259222165878697,-5.5680544972990065,8.841434061501147,-3.1257567794222947,-9.865434537578839,5.31065750052843,-9.341479910456549,7.200590681167199,-4.792222164070548,2.3682491649046646,-5.876943704096664,7.74364865202179,-3.4610536841160666,-9.6793479305858,6.5174336561315656,-9.703839415171153,-2.5694788547173992,-2.7774522938248047,-2.931500392307898,-7.920368966983173,-7.394492053311737,-8.988932135872101,2.187536712122135,0.27252027212708896,6.210949843544675
-2.522348702635213,8.884719510665462,7.648566761948256,6.6670266670017355,4.831461784921029,-8.586828259686044,-2.8382037150722823,-2.1379270633921754,8.318884168437787,-1.6576486579471634,-3.873344443136091,6.955632266912485,7.054949841605584,-6.929870432994236,1.6453894644456994,-3.018750512285484,-0.8843327385378768,3.6860553433667462,-2.441217957920909,7.993456080256632,4.060078707197496,-3.222455304564889,-1.4826742739336645,4.5465141124238055,-8.05116326903299,7.0213546149619575,8.733199733360383,-8.62017674023307,-7.854069688697067,4.544700608339978,6.151912483672387,-0.4681095799006929
-2.7834122654504023,-4.117706789592219,-8.129742100468821,-4.420413876664346,-3.592436123991667,-8.650646518927134,3.541297913619875,9.48757277797882,-6.32927050858366,-6.400948483467291,-1.3540113161159262,5.024604097879626,-0.29822194040789896,-2.781110892900256,-0.8176494090369246,-9.865868428620828,-3.0636051348478466,9.248902287450449,5.7145540414544005,9.015276690039247,-4.7972046487530555,-3.5313233202692444,-6.5662643714048325,5.713436975863864,6.00691036430181,-2.389325189176434,2.4857814763551485,-9.07880439942571,8.062311444376935,5.541876620942334,2.400019710337901,-4.484822511649558
5.184912439866864,4.628883057693418,-5.3624877325920295,-3.467830817843856,-4.545847694542973,8.00783751132942,-9.593387192806674,9.702362707874293,7.275518957521211,-9.57831591098439,8.260886175629068,-0.7608066168019221,9.873771451501149,1.9957687309002594,-9.583286414324563,-7.043821714101915,0.12347216174995346,8.074224345070707,5.508814776922581,4.065623799909213,9.271765834804388,-2.2250877138544523,6.719195320857612,-5.672373924437018,-8.962639270680368,-5.777156521796368,6.430226893909033,4.679421103445199,1.536312769662695,3.302634964237793,2.7343403605377077,-2.0887901345450306
5.333040430613599,0.021953292652574063,6.154864301303586,-2.1632383772551966,-6.569863659435473,0.3202010597773519,-3.8428103740927844,4.597941383180332,1.7517740166605034,4.437076206767166,-0.8841452913106238,-3.3308323832389153,-6.878178557495669,1.1942890643901745,9.327550420065645,5.4673107630269335,-5.830341845891917,1.078287303715106,-4.275381376757776,0.9072253252010682,-0.0628317263879925,1.0051602685659446,3.4335077215583674,9.482740778739842,8.265882772647295,2.7539299431303466,-9.100641486523438,8.968400057218048,-4.792393900219438,8.41961317388084,-9.40997455768229,-4.253438975793689
-1.2974981000699,3.130521787429725,-8.622327813786,-3.345928256653239,-7.214838965065448,-4.6843502019402505,9.056657393030335,-2.998597158946339,8.969621038860964,2.2295692964213387,8.960924230689564,-0.6535898190066334,0.7377396105535006,3.9541434920217373,-0.1929740524713175,-5.687435721631868,9.160391900954817,0.2615618788992098,-5.692305697752134,8.980288997756869,-6.982064014928904,-5.970545204368507,8.42639900507347,4.508413539708712,7.299906316388864,-0.8973967267305767,-7.1310094808872755,-4.408538823771435,7.5156722763161845,-0.6658187356668126,-9.981115909073088,-6.264339631185692
-1.667205186917018,3.277927316004501,-2.701858637333525,0.12281517331126679,5.398944976646074,3.6750368115514647,-1.828195722128802,-1.6859596019367302,0.25387694805776917,1.0880212897667452,2.9385053982363942,-8.241168414485688,-1.7451165762287069,-5.147898952691852,-1.820149511934929,-9.57764125564057,-3.902628183536077,4.7615485545385425,-0.20634945950321892,-9.849172389663563,6.790378337744794,5.108095869226471,-7.428624937514014,9.4295353393541,-7.111903246567266,6.907714134874322,9.211739753563343,9.657173779586397,-6.3449090634236605,6.648196860151366,6.350554522666204,-1.9125968567018425
-8.506625666156172,-2.2458976558262123,-9.196172479628633,3.6031418692082884,-0.9868282815432128,8.872150061131062,9.584928566210177,-0.348961427208458,2.827525309346484,-2.6114828033171893,-0.5780118384940245,4.137160641424188,5.562259031693102,6.306338014224021,-0.6644909340701606,3.81473737456437,-4.85021803811688,-3.369067696348969,-1.4308919274967113,0.9345476784321409,-2.075740511423936,-9.164935552849071,8.138775086609847,9.387057727890792,8.21260081102951,9.995219878946497,1.3727444457328275,-1.6310990078252097,7.9245262979341575,-7.635411590007298,3.2183777538728187,9.216845856271846
7.412278307415615,6.5609798038492,-3.7164853369725197,2.805697826991146,-5.96566851182581,9.042984915039796,-6.42201717862334,1.84363718121495,-8.916388195953228,-2.3777606705440046,9.556058636095507,1.8241484908440952,-6.879333144035257,2.698576368342332,0.28900565999398786,-1.7659591108808748,8.859453018971056,0.8447510000509695,-2.9636743701771646,-6.626933188253146,-2.3630470553974074,4.166375225805748,8.174081068714514,3.524848778734107,-1.8721882093500888,4.646600951426347,3.9241145378488174,1.4683793663768867,7.576463314165153,-4.335862167464482,3.7786215863543138,-9.603637672118753
-4.612830537981414,4.39168151504335,6.645670162330891,5.669904737017582,-0.9727280803428755,-9.750677099669613,4.979509070522322,-3.2255198270053143,0.2796513470388682,5.385158087433354,3.1582637955404778,-1.946892473929223,-0.1202276580266659,-3.942800710642711,7.031916334720567,5.063079297505935,-6.312104750170901,-9.885620820423505,-1.2123974163166,0.32182008823810904,0.7532761926648135,-7.460296952376124,7.1486990200341936,-5.235734496388547,-9.58444475203616,-1.8547421197113305,5.061664150879196,3.5253688775042065,-4.835872038946299,-5.62380490577363,-4.908349746801319,0.6721862251478647
-3.736731155026865,1.2458334608162165,2.456536573991876,4.135431208203631,-4.394547169752039,5.303450392559746,7.182586536997938,-6.105584498040835,-2.976268975713195,-9.19239852047852,-8.642043927370695,-3.1711066386194586,2.903970511651629,-4.268822030923385,3.1611449357471706,-9.283398782983008,-9.044191959474976,-2.292208286889559,7.505659287625242,5.554326607922597,-8.389285625945647,7.360427305016234,-8.566681681445335,3.3784977583963087,-9.083544019529604,-7.878394877271506,-3.8927559426266356,9.249581232959802,-6.4813562349281995,-2.911848516535576,-5.041334591051168,6.855602211908906
-4.2414012532625485,9.563562801233171,3.2158903889113404,-7.136738092427938,6.281898717838203,-5.311206378858944,7.086267233365252,0.6202533495003273,-4.328465881947698,-1.3633966394127999,6.080857203274789,-5.594733308314305,5.62569014877894,-5.661194461016739,-2.6518495874899184,-0.2317434533234124,7.337542239072889,5.399691084722807,-5.56859981233131,4.217119686035968,-2.1434721347647727,3.663230115920795,3.16348627058748,5.366555033841836,-4.176183322494509,5.898626888680884,3.889389280730853,7.622134549568397,-7.672872214495971,3.886307584248893,1.661697099121005,-0.7330907712637913
4.43610210297965,-0.6999292437246556,-7.266185373089613,3.4492946775364626,-1.6194001918992313,3.53134307749192,7.177852772901975,1.1336384064200153,-6.623094215296337,-4.422795062273397,6.540444480032729,1.4354470187359354,1.5998457883954629,-7.48874672640728,-7.903648027441292,3.2469460767070917,1.4861204076140524,-3.750506997163039,-0.35587002616068375,-7.276812894503514,9.63746616435198,-0.33950024318509797,-7.7956483703162816,-0.5186705232273958,3.489706281897206,4.142667768662456,-4.1226215437510465,-4.683864440229817,-7.205549394853341,-2.178145310420345,-5.960810652303494,1.6730384509564544
-7.558347675748987,-7.446625421988314,-8.913298784838075,-1.416129365529823,-3.8115125192332,-0.14242388077206947,3.312492355041197,0.6960058405888798,2.9966891405892166,1.3232995843840385,9.143403638747312,6.183121626210308,-2.273095218345487,3.9393426108372864,6.845054498270532,-0.120979641213113,0.4661349923363307,-8.692628498914551,-9.706129386816611,-2.6962085263731357,2.1797515524179936,-0.32801815965058445,9.739757578756706,-4.407856914479273,-9.574394604027441,-6.149117991931532,-0.9144600921350321,-5.545666700649594,-4.638553305725878,2.94020490957276,4.366506484221581,-3.021132040848409
-9.024486284004404,-7.708101514418475,-7.513847551922965,7.210474135937744,6.536068027104147,-9.212218855878177,2.784815549640143,4.67416109275198,-5.245296596288663,5.284639084743494,6.4346026041493865,-3.543215816190264,8.37174673134825,-3.0202079895004763,-1.4839678250549309,-2.510252825484125,9.128132090349599,4.306501443630895,-8.532641622124837,-3.1202152573796793,6.729454791326603,-6.772366440641422,2.35433491339311,-8.349482208690372,-3.384501765404604,3.2012471935145683,7.9513863380514636,-9.972421053559582,4.2399528149471255,-2.658950128479769,-2.4810838803893986,8.992248335807481
4.046232622863336,6.267411107762989,-2.5072759699074476,-3.0342124510517277,9.388765776842739,-8.234725081525811,-4.95575666906208,3.958589731661535,-2.9997215388593634,2.9298763814332407,-2.4537018382809546,-4.607941490837142,2.2626640418609494,-7.117386622060209,1.4765401096690738,-9.935006081677786,-3.1303839279271823,-0.30135959024974923,1.0632120591374026,-5.982220084934751,-6.492004106967755,-5.188807184081754,6.790342487046864,0.3924420494102243,-8.994149136970101,-7.099124950440617,5.358301553258894,-9.142552326859336,-2.877896340257533,5.138814222979935,9.52335180338055,-3.1407525750702874
1.5938208070215545,-2.8378895824300105,3.3898534581741497,-0.6351733985871082,7.9708649670192635,-7.5703023362092186,2.2521094750278188,8.864188772546385,-5.438888760826249,-4.410127593248278,-5.916098661291431,8.932508003975133,5.411879183749271,5.687331043816975,-4.422785030839358,-9.737862232938015,7.917840183436663,1.8726868170740403,-3.262880728956084,4.086953351366054,7.754788023210217,0.3344200865887732,-9.672311438214587,8.486410080835146,-9.787265478944782,2.266724323080629,-9.675119053315282,-8.967384194231183,-5.562019128958793,-4.919601828538569,-0.9240554544574273,7.7434272105433415
-5.008431863698057,-0.46715446287708673,-9.200405816071786,0.6690452367143251,3.0345628369486306,-6.955456789495806,-6.366656163437147,-7.846603681888443,-0.94205944965179,-7.146017576288994,0.7515689281583366,5.0624605846475745,-2.928171216908357,-2.2115757472547077,-3.872227116559297,-8.265734409354732,0.5837371819254322,-6.521449311623934,-8.232837670940334,0.23617426537519748,7.5383359864509245,8.67141786782281,-9.139749447647166,9.16243585422712,5.0491157614959885,1.2366358310165246,4.107792735001279,-9.669621280356262,-2.541777324884384,1.68837545712843,8.46644245670699,7.370556118270962
9.529150444503685,-3.9379572551289517,6.634050030933729,-9.801159555810857,7.9742482086095805,-0.6244823760089844,5.114332487382317,1.8125517330706593,7.772203076728012,-0.16006675996473874,0.0044668430112970725,0.3248576684984741,-4.009249201013089,6.277124638561624,-6.51819132882369,-6.6158840503760015,-8.614759720870651,-6.354619258064302,-5.933710945599453,-6.381811491483527,-5.934897237768418,-2.1572461949505906,3.082020497448461,0.07589053902486853,4.361324052501121,-8.36746913806724,-5.804520119461152,-0.09972700053999972,-9.036696947675251,-0.7630697605270171,8.919777904816762,9.754497743373488
7.909093334283874,-8.194092580746194,1.867451979242185,-9.532419017079604,2.2546070934807325,-2.3175394456751874,-9.687121897054924,5.9790419825958985,5.901501220818627,-2.1820151823909377,-5.31579613230464,3.7837869913834883,-9.210668088639446,-1.5188456159953834,-2.08359511343176,0.07282925054831679,-0.45673417315072307,-7.4136542750766266,3.0469034680464304,-3.853610550242987,9.742230414868985,2.71466223475376,4.552768808513957,-4.82525244464294,3.9088057933980487,0.8884061596501382,0.20971747208312763,-4.887145442381822,-9.705674845618423,-4.3080677820023165,-6.711639637302122,-5.217729800694462
-7.125725082261118,-3.2865021176873572,-9.287742888440452,7.002278574684585,5.748984146875451,-5.340153333372335,-0.7492411748171612,8.170968220763676,7.954779580903153,-6.242886123454947,-7.817306934732555,-7.916798280756923,-6.313923065874436,-0.7960210841902864,3.701204528953033,-6.919440969862531,8.320609465815942,1.6996674372018994,4.161401237287134,3.2187692223405016,-6.385113649627123,0.5087931205129177,3.9640480357399497,0.46083944939864274,-9.044595950502906,-0.14603659727075957,-7.587712070611028,3.4285859143351445,-0.16346978558716252,-8.002839872932885,8.99341197852354,0.12278623939005762
9.698528802265713,-7.080189872732712,-4.1493446533864535,2.6439310180459596,1.3810735600563806,9.296429724530764,2.7642297668720737,8.21185621764857,-2.778150904994929,-2.1194221908037747,5.727847164128235,9.84953997226372,3.8569346869687244,-4.541779642638566,-8.701620842399233,5.851462701439603,-7.059114530915187,6.628402861316729,-7.648773982126165,8.184281115907325,-5.65787225063729,4.709809465912102,8.669885467666195,-8.68523477922572,3.2624455446168277,2.459009107298245,-6.196738998352485,5.096263351646108,-4.52077450634852,-1.1430207401327692,2.4553231919690006,7.522040229823702
-0.20040406749528294,-0.27103421278345863,-6.339188158133442,-7.245363192906944,-6.627652373094646,4.349741081273963,-9.638976909488399,0.07576260057018835,-0.011587658202712348,-3.548392982143344,-5.190423325047742,7.515120412009615,-1.2715793841422496,6.851203115699537,5.450678166785037,-3.099128873564558,-7.78248768165855,-6.629589282872397,8.963593801377975,-5.070035751251667,2.0977736356203245,-2.6980437597818057,-4.354011437852421,-3.47662698494309,-1.5745124588286608,-2.259624419055976,6.863878449491295,7.61385682471839,-2.2642604536608424,0.7556398933960331,-0.2319766226894,-5.357642025988573
-7.84675391416477,-3.578672889840684,8.776093585932124,-2.6751864532197605,-4.635641201226928,5.0342100168168535,4.73182438183796,1.7887638290436687,-4.292182731509781,1.4857713425774612,-1.8204613884175576,3.7139070699452486,9.427955478277639,-1.5130501588448162,9.192052936276767,-2.1340057781043793,3.9993628155767347,-1.228596582856964,-9.33950418104291,4.831574705960914,-7.110290247614444,-5.07420153831275,-1.3191400803100777,7.882522340298877,4.4871080512841015,7.272798340901247,-0.3027216278600591,-9.862621251599803,3.625061956834788,-4.78013006217878,0.019614373964731868,0.6154226884433456
0.21820914689901016,-1.1114896597999984,3.526245349403469,1.0135630247996534,7.042365111982136,-1.0767515472957605,2.684046137010604,-0.04131174828602724,3.5914534262842874,-7.995477634547427,6.463137057849128,9.225151620748331,5.0739573521611625,-1.390513391286488,-6.572538359218541,-5.642040031389135,4.202097989990925,1.3562248330439388,8.6929205407809,9.309261389363574,-0.6648055659876064,-0.47299620162232614,9.712595956667233,1.7196470571319544,7.708038669276206,3.4466382328016643,-1.6401643507978942,-5.128774374946192,-8.389701449034943,-5.492733686648387,5.217513360248114,-9.334185297078248
1.5223645097304672,-7.584338212621356,7.632278613071083,-6.944133677932007,-8.520393135251421,-6.094362225910599,3.7941540892430243,-4.651189438535674,-1.341326476701008,-6.868640997268082,-6.6390551500418375,3.6797090502583245,-4.893360320859335,-0.49303576009990024,7.013991963251968,-1.5267890184918738,3.4739430731468683,-9.558095870791698,-0.923056704365365,-0.6028122288128479,-4.459030219444529,2.3080660131417545,-0.5344100556904152,-2.93191216684745,1.6327170549076193,3.729491516954395,7.46215316686807,8.25775333727045,3.682648890945032,3.710019535306472,1.8298945577925494,9.268526040949695
-2.2241427349676464,9.875943968731821,8.338335822547613,-0.13494625446309172,-7.455259649168797,-3.6272861547369173,-2.8820574044761056,-0.006738754690898574,-8.60820287002059,9.632215697162529,-4.145035096969467,-1.7794388843850868,-0.8990314158653945,-4.250887789865501,-7.504913855014593,-1.5855573529134332,-9.995422524751918,9.448145703979012,-4.640754484601,4.684726689385242,-5.4728736265938664,-9.827949315252717,2.153434805729045,-2.7723051606532456,5.152619478039913,-8.608618513591546,-3.5629399932945294,0.6998785356531272,9.626497556579015,1.165122032406753,-6.6508314320610395,-9.870735940993935
-2.8619949457282434,-4.710057670524675,2.7546648738842894,3.213888695319705,-2.952094835778148,-4.512363792459981,2.1086755362935445,-0.20503418653916583,2.6794520638763064,5.530936765951024,-1.2322068569396532,-7.559887018269594,-1.2573865850166968,-4.147104968767827,-6.2193823425365435,-8.383273131091096,5.315378908125254,5.6104111116211275,6.822197932384565,7.969157247639519,-9.855785295342086,8.741939637005352,-9.1616945044529,9.453290836721166,5.358814380845306,-2.9735399094965302,-0.3422740672407638,2.6646178819803463,0.23909140809831442,2.2852324135245876,-9.390373019471873,4.850948943626287
6.74269987064519,-7.730018952921601,6.36854870772218,5.760654290414225,-7.086183301418119,-1.3413100785657477,6.730718596483364,6.927593454547637,-4.589657242766885,8.127569415209763,-3.789199672772874,3.764902618686797,9.011609909213789,7.9762874064100835,6.380082911504566,3.691430099979984,-6.407999033762348,-4.8363800132042245,0.2894680541947956,-5.476744891072867,-7.3571796005403245,-9.457054157949864,-9.682514525611978,5.0845188906386625,0.036096189147293956,9.993521776199419,-5.702681087781909,-7.736185073049169,-8.116295654383524,2.725264102346028,8.84646766806885,-0.3588560833425003
3.63763253751266,-8.117548661169781,-1.9994523918405243,-1.4144560637031063,-8.290665386355464,-7.862968682805668,-6.667519362444805,-8.79870343420203,2.2863556602508357,-0.891700056527112,6.350983013273474,-1.9611662621294794,9.61707808856739,4.085824091758795,4.246488846036646,8.930652323289152,-2.178504410860011,0.03965921154031804,-3.0452223115546007,-9.572017039569364,-0.2620971188269259,-5.113624500070153,-5.347947437164073,-0.567074017252601,5.671993943056455,-6.2973870946274,8.36169627456438,6.5389772259435155,-0.6143871903365135,5.38484971009234,3.806342578200084,0.051549258326900826
-2.7075591783494506,-4.80388392071151,8.10363086115499,2.661214695261421,-6.832024885852109,-3.825071432385574,3.117058186004929,-8.676766818504603,7.396319241634615,-6.67142572019954,-8.323430795668322,-8.008803990557933,5.030374910983049,-7.179480687969999,2.27995798166695,-0.038875248015159514,-7.522542974918027,-4.07971762609492,3.506982111581422,8.51926096121198,2.4836207681166105,5.609722310658455,-2.5818079741561117,4.738460003469402,-0.7775092633358902,8.610436501193785,2.090297123365959,8.066349694594518,0.4364198417764449,5.563195063378723,-5.2604539401328365,5.657806221119179
-2.5088378510801412,-3.826198021584406,-8.402374424688572,0.9478193991101449,9.149725101420014,7.9403143188128595,-9.369415703689043,-8.51056649801974,-9.672511573858827,-2.241662003083997,-6.006092063947863,4.327019292122291,5.296676842414394,-2.7981294542560953,5.538888806867375,-8.492081513625234,-9.399020511243123,3.167629928088946,4.795965079794463,3.1962143290334026,-1.7775661144539292,-9.729131830403578,2.4468697828751935,-9.115284027709542,-3.6514722043608057,-7.685945623178512,7.068429969769355,5.383422900471855,1.7771525278165292,-9.167235618760541,-6.086833721548379,-3.461377688627822
-1.5469998366768323e-06,2.31628525311052,-9.578658717922853,-7.7352870788490025,2.912961232639228,3.7138755825068053,3.6710482633373047,-5.410400805728974,-4.920387616194355,-5.574819024227988,-4.059136343959306,3.1370413441264304,3.1010470784827238,6.565749302014808,-1.778096495164176,3.084000474977815,-6.460689033541989,3.990492419278622,7.928411778516832,-8.000105355326482,-7.299178462940599,-7.021757337527658,6.7761962059109635,7.306948512040336,0.5837447751506009,3.068973548744868,2.4609212788062997,-5.822674408566984,-6.993947881207836,1.7659836657989096,9.779708339730917,-2.1783675669423452
7.6103410462614285,0.11920703050970083,0.3361617340305507,4.911034723721883,1.2073461113634956,-7.219951417557695,7.30672701858666,-9.276005826333185,5.619980443781889,6.2322858630163545,-4.520477293282865,-3.855901853699512,2.0559972855956836,5.949214724982143,8.077324302098287,-4.789988913227328,-5.776674395135657,3.991902905775655,-7.1849359381008515,0.5304791300047427,-0.5757726848115468,9.736208829589089,-4.148456762132984,-8.016517540821134,3.5186327270705693,-5.021695250221914,-6.181918469123624,-2.795782912869848,0.9132976583835628,7.043852208692769,-5.6823024748037305,1.4423464295938793
9.3917665214877,-6.230065155368334,-2.8267058969854997,3.3267934253308837,-4.219804783985022,-4.7712187311151695,1.3556132826196094,-0.3714213893873737,-6.567375376618223,-5.8043342779489375,-7.528406405910076,-7.491410464376322,-4.311324954298366,-7.7465408608637425,8.89206469411548,9.919829027440066,5.772600828005119,9.44011881611409,5.298115246891932,-7.672415524368967,-3.4032337909407184,9.770215262078256,7.828878437711566,5.084767916818967,3.5606059346804173,4.27260924344354,2.5273661154768092,6.552057317898633,-0.5841234124153889,8.222002311770293,-4.581919403991767,9.152962247893097
4.337637409870915,2.1452229255507955,1.833650128342958,-3.76660982030526,-9.609196528153465,-8.320259367778887,6.8111880258547295,1.1034859351952981,0.16260658934599448,1.2808093264138982,-9.292893788185896,-3.9693520736995547,9.323350961732565,2.955702994145039,8.0725199620952,-5.5652704542575515,-2.6066118254857518,-2.8467485287792833,-0.529079755203945,2.7923917859972924,3.4023157430912754,-5.397924690679858,-1.7127138695078195,6.612158172238669,7.768816651169146,7.292083234185377,-8.968427566787945,-3.274610897325669,2.355892477123607,4.784888246983613,0.3736455007686441,-4.379322077049785
-7.793880991919742,3.607794329638219,0.3548861385904871,-7.914102536471761,-8.57136366664442,-9.076062569788835,-5.4202846701763026,2.7834472514197888,8.059997769601253,1.8323006981772405,0.1655506851021098,-6.199710872934052,-0.6976256360406019,4.777063709796465,-5.573172186939319,-4.424493352942511,-5.202997073081612,9.671234786859138,-0.34544581122439055,8.100395984488465,6.551566324327034,-3.1539540948519784,-0.4151368557123689,-9.431398993586921,2.9229732768613648,8.03277283741739,-4.841867474126291,-6.312667106713647,1.3886543941237157,8.557666980329095,-1.4718787950092391,2.169042241545725
-9.48318014031259,0.38908662049029274,0.7698862327914835,9.352146032084839,-5.243570996558445,1.9825969425007415,2.2148276114916943,-1.8532712787306487,2.434295687166026,-8.147408435049673,-5.859116789808317,-3.5582349185863986,6.279749120734671,-5.778904101709161,-2.0398270299385217,8.206045557590063,0.8719291457871421,-8.246896779202316,4.7117633803044985,-4.398509992943747,0.38537764781215245,8.950461324591743,-2.4054414050871653,8.374536536246701,-8.961615106435366,-0.08159706453504789,-0.7166869881515936,4.686095043897446,7.224747603662603,0.33629835788329565,1.3904946707631325,6.316792275819541
8.286958478059287,-7.066701777382887,-0.2967645456749519,-9.804412795047936,-7.765847337159537,-8.770332971491882,-7.6130489312286675,-5.206770561815086,9.008139699128556,-8.301569211034021,3.620126962302731,-6.895557496408444,-7.319293648226147,-9.79387131326237,8.853823487679556,-9.414921369282826,7.653668738596057,-5.276262906028455,6.447396045104128,5.298939147165845,6.830761992951075,-9.73667389103783,9.436821354975852,-9.439229890137753,6.611356778561877,3.9423753917137976,-1.8021470405757167,-2.8352122330113394,4.935541086447227,-4.591394407255915,4.072525689960909,9.736039188292718
-8.366178442229895,9.977813798331844,5.475286740036893,-8.27532989861626,-1.0524227954892638,-3.429623970153064,4.65715742239604,-2.9775010650087115,5.116108050255278,0.8778715633988909,-9.98013976557068,-1.458499689103503,-5.576020603211129,4.997099134541818,3.838751627468932,3.2973788122244923,7.980596339009235,-8.650001116492518,-3.8721142724806246,-3.022959270682188,-8.446363012573428,3.7184655000387696,5.658131695676749,-7.192763211973068,8.316713923951859,-2.6260170635116076,-8.033900949090416,1.2295965870432184,8.519759647995546,-8.757386037309836,4.316767686046724,2.166884735500748
-7.090253189129678,8.513630719767843,5.21943371164957,-9.866966054676096,-5.460061226231751,-2.373669251120565,1.494870600671641,-2.834273175120501,-4.477768088201728,-8.488652669736547,5.205128812604599,-1.0472413536548224,-6.182004592517063,0.9380618547810968,8.604356767127644,-6.0362386625525115,3.8706519316314907,-8.706542761903913,7.5303282591799885,1.449126562395243,5.306954986033521,4.84448899897502,1.70692115988812,-7.110323505763255,-6.009850961160059,3.9932721015632904,-2.894338292849177,-7.067671427333098,-3.62840247891514,9.409037237599797,0.7677225316103602,5.841235981894574
0.45767539970117355,2.0878884020938404,-7.669532768212772,-1.756734330432522,-1.2035840478830409,6.4445027423523875,9.568609453367682,2.694816635207699,0.286856490512422,5.933212654470081,-8.32652889314869,-6.071079923274969,5.34266064001163,0.251680380352024,-2.0169910404776363,0.17322273217883222,0.6388652405181752,-0.8006147682029052,-9.640003765559237,7.128541553497172,3.953745204261862,7.859284188859334,9.456837651012055,9.09568350489699,1.9265468738099898,2.2946068747382533,6.0325315270014634,-9.658400585402214,8.785545919974457,-1.8732808904037395,7.635723558299205,-5.620888842186611
-7.179041227741008,0.16828936528786542,-6.792941929230518,-9.026253211835227,4.674266913098151,-6.996672007976798,-6.145178915378655,-1.7476737437694752,-3.401909840658684,5.539247433219359,8.111105557421617,-7.63094629786127,4.113231391018386,3.76342858582359,-9.427424707771516,5.122647409265964,3.0359273248069094,3.5613798101936496,-4.9613084791056306,-5.105023819156789,6.686008420546138,-6.085562236763358,7.556088115983883,4.829012788912843,1.8703565553691792,-8.538299254539908,3.2233603373357234,6.990579815947289,-4.912454103063249,8.234659155533251,-1.2168761406397817,3.658864142557963
-9.265139438433964,-6.005121136146867,-1.11218329631129,9.545024377204822,-5.266247602831495,-5.854402701558117,-7.2183071724439625,-0.3279741804058993,8.680878428885329,0.5946066382407178,-2.309963800704022,3.530011223922017,-3.6957871336292953,-6.773674691754861,7.323690772991352,-6.030036911547462,-2.9601317364233797,-4.567291132714657,-1.2436403175019812,5.175623609515853,8.564182213310435,-0.07329801312903683,6.265285716439138,-4.381523670776783,-3.6707716332370417,6.174318695202597,-6.278576069416653,-5.661513633840527,4.67338393064162,-6.382316865919666,2.4129815143598847,-9.555595174608609
2.817938685955916,3.162684478876267,-1.1503275270794227,-1.6211815685052784,-2.0557164342063494,-0.7272624192365651,3.158325671363194,-7.667860460858005,-4.280991877788411,7.558023124108949,-5.937271764620351,3.2235863790251624,-2.1083041753821963,1.2186451775466285,-1.0487905861455324,8.434364417756274,-8.050815276578465,4.648666912558532,9.624042906237896,-5.613312645689723,6.5958758636498125,-2.300386449003504,4.8563097369182735,3.905317920586116,1.2282329954281472,-8.689240300708727,-8.46948350580215,6.1739292075249494,1.2440448938284163,-4.2159221444803,5.637945047002802,9.906191582536337
2.4803013901823547,5.076933571728377,-3.5709877627920754,5.894863529556174,-2.970865987150823,3.5392064658803886,5.019821674003197,-8.38759155915902,-7.898212800508619,-3.962811858644839,0.7538110225213241,4.388605420186707,4.949564380450028,-8.50280149593085,-4.790665162062435,-9.190505746278891,-6.7768263122927985,2.5199779248085292,-1.5855902221286549,-2.9799408896720925,7.756064038648262,-7.522541474870364,9.471349798264068,-0.2943952753376422,1.7418936104537863,5.4092796372644045,-2.5934370490787124,3.712495848336408,-6.367055705125582,5.585072281721949,-7.181548958154567,-6.07467580153096
0.30407692353987414,6.3124408024910785,5.7245481637733615,0.9388915286443567,-5.710981408538731,0.018384633098484926,-4.244916949773625,0.29650041866866594,-7.337400833468388,3.870283042266596,-0.6384914927630021,-7.468302593902885,-0.7191253817408914,-1.7466226431578118,0.33671034018432167,-1.570790861404742,-7.4295484103044185,1.9350704688134641,-1.1371720135963166,-4.950842850644655,-7.777368786155623,-9.912114861059436,1.771280516857825,6.688111079852199,6.575963186035452,3.359228187540836,-5.390797317359826,7.672982494036045,0.6463814637678027,2.352947242729968,-8.38830214946763,-1.9383441715722292
-2.4418460137986786,7.387861074405588,-4.5026028464323335,-3.862508168542382,-5.552854777134986,9.036446935826802,-7.18723353663,-6.0714525866049485,6.306176985178734,-6.363052467119131,-1.7831477854356077,9.199773597743537,8.29462981308437,3.5633235049276557,-7.5731428407891865,-9.708322384694315,2.1788071160375075,-8.13638034050155,5.724764132893398,0.2423812724609391,-9.582578987450503,5.79876616966364,-2.98223685027504,-2.4996823651068905,-5.848885316453254,-5.9792366157168,8.30960334870164,5.982149978035025,0.6720193729950346,-1.209393339678826,-9.600926558828643,5.233700191740265
-4.788461073548826,-3.180482191019789,-1.902692204741296,-9.394177488160512,9.860266879696681,-6.592795832684397,5.7739316970302,7.772491716052986,-9.556872832705935,-1.5871984246757798,-8.12833778476217,6.253466430650484,-0.19048472204644007,2.1918547305046445,6.3468017516770345,-7.2491213378660335,-6.5891971003786605,8.216025587595624,-8.887652459787923,-7.682262272730897,-9.452060718436188,3.4461024767739,5.411549055354952,-3.0157641182388595,0.4786174860268062,-7.024460663354464,-8.332010742771308,0.917963978131624,-8.863269905602959,-5.683849204254359,-1.0136467124633022,7.54094174384354
-4.571753128073157,-5.716908168063613,2.2896655603312173,9.134445828600576,-6.965593236293697,7.715041914922711,-3.576688355899938,-0.4232082052317505,7.64002207533219,7.225694489120926,9.175106903381906,4.366096199489958,-1.1506172856543095,5.878700085524759,-5.631540404580166,-4.53851387192368,4.336237371455379,0.06004100030321169,-1.1411683427324633,0.6402169774138873,2.0875507524218335,4.6074152178812575,-9.274091896527203,6.6162583469039085,-7.666072927747749,-3.2839199188318613,-5.134902556832817,0.4091440807905773,8.047200704689946,9.983801919955766,-6.628496986694376,-8.656615855546052
4.343408378437676,4.915117393482207,3.3796666386110346,-5.861823037503298,5.751099411185958,0.9135609923548511,2.12611446662139,4.61286289980171,-4.470398252209618,-8.35019327756264,-7.128095744781058,2.734937352875896,-8.91509702377566,5.67852569810926,-9.118491346402584,-7.973865794708573,2.0043748175027254,-6.506972533095925,9.778844754425489,0.5352771398673344,-8.168556317142688,8.362796021622959,-1.0752885629238875,8.387986331493103,-8.649862421599916,-4.559497266088313,2.6757120941568076,-5.580337640563089,9.623264246726336,9.729237993586835,1.121595118930486,8.821258246853798
3.9970051947862792,2.2134507385857116,-2.1348047657651392,0.7193245258354501,1.486002168468385,-2.609122971915605,-3.452564020212689,-4.784478758806916,7.481670108515097,-2.5861417594474467,-4.888023788867875,-4.999432807873065,-7.383589062208049,9.584319137131981,-6.286314696464688,-0.13574554642009673,-2.175929227768611,6.006091364388286,0.8177857811069078,-7.445567974872052,-9.861880803951241,-0.7229011665727487,-7.923958267403959,6.439631358643695,-0.8600492700721869,4.631795127809589,-6.397370368388369,6.601497330748746,-1.9783986433624428,0.700347783795932,1.387887925578358,-2.991571957608521
3.286582774795658,-5.177572974978517,-2.596974607386729,-5.29812796447853,2.2160690475906257,-9.487668501258055,3.803510901447689,-3.453696929325371,3.486125237825293,-9.870701435865614,1.3252156493989542,5.896547418216036,9.243697471088879,-9.62684756500957,1.5629349052963768,-0.9798782572027402,-6.054112964006264,-7.215117398183281,-8.73205001463427,-5.674242042435578,-2.406013028156595,9.882737134072755,3.502930813203321,1.407509279887071,-0.5578471627329034,2.0271174383323736,5.532080917618025,-3.3087476518562653,-5.755975626255278,3.3075948946504496,-7.1131273363464835,-8.728920908126474
-4.381866655284368,8.31878445175278,-5.734019873028499,-7.557495228468545,0.41706841015314033,8.776515669129232,-0.40017370511374395,8.272270589725796,-7.019203738671673,3.2509452383228954,7.273529091981864,-3.991016224367449,-9.657867916406499,9.899899561406023,-7.8129382081546,3.497696555271098,7.468649144716821,-3.6620399883419363,6.505631773802001,1.7799727374799428,-8.321884353865016,-1.0864635108117575,8.714318637859062,7.928993368911261,6.072858026302978,7.40001667981295,-8.772077817357008,6.090598379489482,-5.894806712869791,-9.874166993992677,-4.7910652429645095,-2.6055575661802255
-5.623606552600555,-1.0136231440709143,3.12119518640133,-2.759675058121502,2.305095916390867,1.465227451242285,-9.361580631806476,1.9998507549297617,-3.78507036900481,1.4448013476413273,-2.0686429685855217,4.3372208520139175,-5.778441594277151,-9.700971554597764,1.7654536789689033,2.302990421573746,5.6063364384428755,-9.358549766875644,-6.068271711555015,9.777345718844575,-7.345584617281982,7.2700538128860295,9.922572369398853,7.92702629772932,9.899098488163375,9.830838780611167,9.665883173327234,-0.9398797058982318,-2.3523153783032775,-9.001075506897196,7.24019435310375,7.0965395952984025
6.71374870581991,5.4229108674126,-3.676995453102416,1.3771766867533852,-7.484537971902762,-1.7766626635367917,-0.5712581555430223,8.556100483611143,7.824399272194981,-5.407365313771908,-4.256139834085742,-6.475622856170753,8.021440461847174,5.706623133496059,-6.74893161943253,5.045394612046806,-4.685154069857442,-2.151585648688437,5.251218456438583,-2.8888428506125763,-2.948374032600885,-3.51582550449616,9.096255205319594,4.395609176125735,3.3385158375558444,-5.992541954662693,1.5458665398570481,8.294714694710589,-6.769046418077775,-4.868843782903864,-0.009954450291761674,-3.7102648235617597
1.351084307247918,0.22377102026502627,-9.787881524030652,-2.701402858686171,1.5419471024002096,-8.211199541771485,-3.8694220325484103,2.9012739115809474,6.412002411913015,-5.0572979912042975,-1.1135502525459966,9.654270671725708,-3.0738263706610347,-7.686106459573423,-4.509036894801401,-1.8477299321248548,3.5239383072485264,3.800085051317124,5.064180890577223,5.191534507271335,4.250190703547458,-1.9422440387679547,-6.3159210278602025,7.8915016226951415,-2.541316767608521,1.5568965411240576,-3.023273836222444,-1.6702751500617765,0.7404376846599803,3.6200458284120067,1.4402815942238973,-0.2061570566488342
-7.041019553186734,1.2614836726959027,7.6558923135963965,1.336553343848676,-2.7562403316033706,-3.6880678143376144,3.437183143079885,7.719503805716631,0.6588408501171301,0.1557851729219415,3.9971876550755763,4.053359311454109,4.682345708266718,6.524070112700219,5.995460525953334,9.683163099065702,-7.988588309077302,-6.379714577485247,6.14326278913347,-8.02269652030126,4.212803398804363,7.1234812817244695,-3.5539065790315068,3.8578062479084725,7.974006471780378,2.2059952585322335,-8.964222605680547,-8.873158204108982,-1.0827848029786438,-2.1447098111092977,1.4943611258431222,-4.627195936415096
-9.656281457076393,8.822810479047888,5.589600279401569,0.9522148890243027,-3.5021035858146714,9.07903885493901,7.8339253225847685,1.9686347505946493,-5.840302445421816,1.6565358250876123,-0.30644035185511065,7.894851411977029,5.496803527158393,-1.51875038093538,-7.527756515782611,-3.322336392997247,-6.89039347898232,3.431436895637516,5.009312785031186,8.02554458186961,0.9971379805865315,0.20067869244026326,-5.467059364136988,-2.9400413510132957,-1.172931306594192,-5.868982135432541,0.1432211687816487,-8.089521130822268,7.962793209419928,3.136076250793261,-3.0902691865647043,1.9078030844979832
-5.382863898373811,-4.280463813638049,7.088506544090361,4.647326002837476,-2.9361568982517072,7.025501072852496,-0.4786761198263463,0.8706046689283848,3.8677912338157316,-5.673749052295705,0.40193467711405617,-6.726430851575516,-9.270314239931894,-7.970641476897162,-9.880908101554759,1.2295866182225978,7.565258650127003,1.7119526147592978,-9.757528127899457,-7.412587613336119,5.038024797688754,2.9959494095488655,-7.178541404590401,7.181866936167477,4.468550322673924,3.9103458304965493,-8.758754954839485,-3.993565978403611,1.2359808353129775,1.423608969189356,-0.3004472638710389,3.357910831839444
9.023675353159717,7.894602676943759,5.303344701711696,-2.5117204582297648,-2.148571440127352,3.9816797356546747,-8.493814979599538,-8.423027274506559,-2.6775301174417105,-2.5068395772406804,5.432111321201026,3.9579829763182417,9.687582068317887,-1.1614332580968565,-2.2368579834891467,1.909500786778434,-9.085399566185309,8.77010375677741,-0.6330763796745238,7.334448631719624,3.898339887951483,4.560827385572745,2.2091078224775007,-1.60110773944651,2.890455453252571,6.077187593751571,4.382396431718261,6.969199234876019,-3.9974895960611505,5.8142837168085535,3.2888811137217324,-5.176626315003499
4.459692483223856,-5.491165041040569,4.010016303712554,1.9874721847887162,5.270597700719781,-9.422702599647524,1.7586857042125423,1.833465721098948,-7.309719259318643,-8.555224584467865,0.19815020153694896,-9.731718458063757,-6.892767943844507,-8.604563924601212,-490.8624317244598,2.9650039592385475,4.672127897414837,-3.1070694355533597,6.189987717008719,-9.854793152735224,6.560364251574139,-8.404263707026857,2.708718763190012,8.721139484693868,-1.234440205402139,7.9104961026215435,7.595719201435529,-7.576454526383969,-0.2405525549556522,7.37021770116084,-4.534746103757725,4.175128871142261
-0.6341120239336195,2.1239659226281624,-6.404134605679676,9.23871573972416,-8.46738688626139,-6.326369036609298,-9.877101641375237,4.565034719794101,-1.0268262865497029,6.792730483131468,6.6086859760268375,8.62817404782135,-4.666450246154912,1.0927466686365186,-1.9353717610504102,-7.115201197778731,4.842360696997732,-1.5598450918089313,4.655681808121804,4.0132598958208945,3.6132219387304616,7.933342121820285,2.812851152599576,6.978111204346007,4.777067053553882,5.3995513142729745,8.097082357638424,9.269200371486761,1.7946989385210088,1.4945618843377027,7.1769614832038116,-3.4743767028377732
0.7277789009945774,-163.15389372853866,-509.401022912027,-2.65882853251562,-0.3422525078677552,-46.96428803286139,-505.1225318688243,-479.28841780079426,-16.058927918096572,-4.6432861970612045,-7.34723799154586,-8.270544331823986,-0.681539108988682,-351.509596714221,-507.5322275502164,-26.945719025355146,-488.4969523671748,-1.2012126493032707,-503.62318077579886,-0.8102159262728037,-1.4811398764061074,-10.442768107398797,13.409760179152725,0.36270142609741995,-504.5149995160168,9.240491969319098,2.702367126333421,0.622576674178962,-496.43537568177027,-152.66925954548103,-500.57902979987256,-491.35467511786817
-6.474472297315337,-4.729844168609549,-8.135836310328578,0.7827016824689821,-8.952552547514642,-1.1326187089473692,-1.8101962164980367,-5.659656904009189,-5.033880527387094,0.8369120656335394,-6.072686457300831,6.608329631304706,7.634042619950193,1.663937463030054,9.613992547782342,-3.331149263648796,-8.622388667013176,4.2615871401514465,3.2611264291385353,-4.527084064072855,2.1137343226049747,4.874813881076289,8.4492930958673,8.88857731231456,7.5832694397740745,-1.5348560012676806,7.622735478359534,1.485748426484708,-0.04228957720095039,4.516330526954418,-8.953290675458248,5.417079357833476
-5.637974911541179,-178.4809864576007,-493.20542585974886,-14.509390681570192,5.917366773661495,-43.84499661763814,-498.32405683410076,-476.5049881249082,-1.4701099612461057,1.5355703434333279,-5.8705992106139675,-7.047064594813004,-1.8137850806245108,-365.0417983972413,-495.03427890768637,-16.979563936144423,-491.62467191379733,6.99501616628875,-505.60074158149536,-12.740285171983654,-9.35391846171067,1.6327071391415515,9.672869595232545,-4.683766308677397,-501.03189169792364,-9.754976313996615,3.467283195530875,-7.479890524619368,-491.37408365576056,-155.1060485615346,-495.676415149113,-485.2284395130584
-0.8540077849042049,-3.9124498148815867,-2.2579032331752114,-0.568861602018341,-3.8715415765660355,-1.572434870942125,-7.669416951091783,-3.0138926086342366,-9.44970037380031,-3.4280567181434662,5.669245900668898,2.9432658620983254,2.352506820785754,-0.4208644048907644,-0.12938808381514377,-0.28903242082527214,-5.325549022278393,-0.3562793413931722,5.001229847223886,8.678603574983136,-6.714326159210682,8.968812075108787,-6.76241546407833,1.6263794691094713,-3.06018214505629,7.842568301003279,-6.3609061814238155,-6.9049660092150456,-2.393547817379136,9.44776813990745,-6.266993272253103,9.17449006818368
-8.673412077082812,8.461267399727852,-2.9959559771047277,-4.232611145220992,-0.3169353589480739,2.501029463375655,5.240520656329391,13.835045604354058,-20.30352909554249,8.254528104648074,3.3754180950371193,5.421054472340906,-9.431908738846227,-0.3715315627196025,-502.6991716044938,-14.658357123235515,7.500690178395709,8.432170173390158,-6.32719534272532,-15.489059505594623,3.807025410247169,-3.817208919671529,20.556704513493706,-1.3874187390324888,-8.513387766011721,-2.1782778921797785,-7.229103465925963,-3.2799100837471995,0.30683096042678315,-7.137197351862385,-4.1121031934398005,7.9396555015283905
-8.918815096736044,9.086652694575083,-2.409644517052967,5.780293588500367,-2.617178412787762,-6.568975250037301,-5.8756059044251945,-9.159308182789768,-5.0678575161472335,1.6235222013863275,-0.5726949925635765,7.010584738187347,0.24676883886975176,-4.205122469592202,3.721291084056693,-6.691020264827598,6.436107688155886,4.03093622968793,6.469210820199532,2.7471110729361605,-4.652031210439702,9.683577516545686,-3.829539378169436,3.501104046449676,0.1479543003719126,-1.4430335132450889,7.372441762337591,-6.622990433270875,-1.8661056834645233,5.042124387642666,-1.116823429123384,-6.643391260026117
-1.7911535514132062,-6.55558197188766,-1.534037740035193,5.016744109971359,8.452505783008345,-0.7070105138707454,-0.508714733363199,5.003813916382821,3.0659858480103956,-8.543152387660317,1.3338822650661584,-2.8062371342987102,-2.6581616284187497,-7.580874399933521,-498.4861695822098,-17.390567547525894,7.9211410138872065,8.018959161350658,-6.192981182902127,-7.128671290572483,-6.460939167097541,1.2097632968443257,6.004132143297473,-2.0562211546684566,3.4653896652166143,4.292334316429171,-3.3539557209620563,-5.341561627449181,7.47380649912515,-5.195830485556771,7.470534895121664,14.95484608456424
-4.253950850680424,-3.2552291437519294,6.377988177458882,-5.325251239745061,-0.6336092661573787,-1.5002618065339384,7.1249591496236135,-8.078956656991725,-1.057563222563152,3.435884216004707,-6.1504490192252455,9.321529610475572,-1.180461271485596,6.638995449262161,-1.5690591715435467,5.00672748327122,6.4221956005615475,1.25508119926719,-9.752107552092985,-3.06390589386746,7.967705195464347,3.236216625665456,5.085331051870545,4.040836919526601,-1.81051904568732,3.1860552011348204,0.30445749178886494,-8.21941185831814,1.9957073616552243,3.819962898288553,-4.232123260240952,4.906948442369634
6.38735999996338,-4.925204673502908,-5.861905944181922,-8.204165477223883,4.712002409960128,-0.08634029435559754,0.10516187870038785,5.915174588905218,-0.8216948370172439,-8.80628568194326,6.88330123614783,7.229694687826328,8.096720108247847,5.780116543262492,4.060568106181574,-3.621212475806632,6.346782293887795,-3.804614608997565,-6.59640788252442,8.573725741764754,2.6876681569825607,-3.684778523126089,-3.1062078808424065,4.1039393327642575,8.421163264114572,-2.9967379060155146,-6.3815112173097255,-6.3020866054036055,-9.802944290135496,7.691712315649642,-9.884135687909609,5.582696640806702
-1.5631025128146554,4.43369395193773,5.559013321618561,2.6206661169835606,1.3618028428056874,0.47367957145365125,-1.1531817816829957,6.5194002416606835,-2.6950466877906294,-6.43112896256242,5.512677199981738,3.1814071334208816,-2.7795744209015005,5.609877375636486,4.270356755281471,-4.933390225075329,-0.059871173417949564,5.856198637751188,9.264145290533776,-8.854127643128715,0.03229464963340867,4.539614457651151,-7.320868078426157,-1.7320897257693524,-4.579313073462199,7.3953429147783964,-9.055190591262171,-2.560349770685681,2.1400275985265687,1.8340898116094237,5.813531095106736,-3.1278444317943137
5.253562788367219,2.2173734826103075,-8.711541476902344,5.92218159109434,-8.64766669193524,-9.103455812392255,5.655277678893798,5.208106161538481,1.633151380118953,8.061298122870216,6.192025804950113,4.515755259531618,2.7691213669283634,-7.629488643787193,-5.490239923949276,-4.274251874983768,1.1359886773173358,4.854672288816973,-9.49250054836359,8.42685038454858,6.059851345340924,-2.18570999830324,4.569488035075187,8.075181230972952,-9.537005555889511,-9.405996284459345,-5.2457445672046905,-8.370929650510766,6.516846173641447,5.2070373420779354,0.4073771277930902,-9.456512264104543
-7.318514373564648,-3.9755865746829873,-7.573293031944408,3.019103614461752,6.328064423609618,-8.349814999365353,-6.886511972935365,-6.084932731122679,-6.154249243387131,6.931208539906336,2.1528515769234584,-3.2338061452161915,1.2753800689822299,-2.301232916053091,4.725831705584467,3.021400347167651,-9.628446014821117,4.517879886211029,-8.265735746395702,3.8652524953168736,3.787671355777908,-7.072847782930111,0.36205502984255666,3.7896617977596776,2.3538089505954485,-6.054530113247347,5.331689829290431,3.625141747558402,4.2773016487506865,2.0114261573818695,-6.998188001600334,-1.897535621548986
0.5155394438986747,3.34433685569101,-7.123089942708702,2.6778589818817817,8.611969699986346,-9.343909791183716,5.113900595634179,-9.657135571266641,7.323087737661957,-5.630940945281678,8.19975819638772,4.891063057970047,5.606950771701609,0.15664365955306536,7.745822195365054,-3.268685175428317,3.2850018003044053,-5.986678492761362,0.9234324108429064,-9.200119503037712,0.8432473517972845,-4.910495598194404,5.584881795641257,9.584947217105707,8.993832561472853,-0.38585785122200633,-5.18340412840784,-6.360446620319773,-2.1230329148687543,-6.837003843620741,-2.9880419416805415,8.264799289448131
-2.7805676155481702,-5.716656739049175,2.618528802843578,-3.373342909629624,-2.839415868949824,2.4778049140264002,9.476163996461171,-1.6538251615022848,5.282987544166014,0.20667934557625856,-7.84620107601387,9.836190223020786,-3.014274469827125,9.446780508488242,4.117249034599089,5.164079599961822,-7.6496390280090605,5.572784764166126,7.172605166475556,8.587671926833007,6.739466713411431,-2.496494114399715,3.0847924062531895,1.3819902990453876,4.725674038529895,9.749693382210975,2.0248453042348302,0.6940979974888108,-0.9685835260048776,1.8773262251153966,2.89330874430922,-1.2407033822345443
-1.3263143007765894,2.824821217601791,-1.1936019167947691,9.898974189736716,9.416869171154374,-9.381901673427864,-2.9361063163261463,7.9659894246034675,-4.6512324887727186,8.81080660764248,5.131070863361526,-4.339774617271681,9.445922848358364,5.080012493086548,9.253210215544748,-6.738584551855333,0.4716818567126797,4.6105604214159985,-5.989943771049717,5.171455750221391,-9.487376331484484,8.721744870704619,-2.6350873485088444,-4.150623004853107,1.4827641199371655,5.952661705568209,-9.869965656789876,-8.839951910314511,-8.433770295146314,0.9551974417603848,7.71838200825735,3.691076197335505
-5.71571984654045,6.197013923954366,-7.4395048725003665,-3.0488155525419947,-2.596896810861633,-9.439007314079745,-8.645219289834905,-3.507205618476867,-0.5988384341793385,8.467664121698132,2.036321872265475,-4.105710008006918,8.749815349337688,6.152216766534856,-5.562981372369777,9.375949729582082,-5.391445890664645,-3.3638193909111536,2.0334566282198896,9.740163053514195,8.765606771243878,-5.437399696942071,3.212362985543834,-9.186958207817293,6.032947329230794,4.402354137603545,7.42568781695968,6.34336318980872,-9.92577878556901,7.981325166272743,-3.0993507411527617,5.613301825047728
-2.8119028832631816,-4.640399482001212,5.345680722004007,-9.488485135642184,1.5646496319690577,-5.703847238461313,-2.1655486115213325,-4.185701512324682,9.673437547662658,-6.20359424610138,-7.2271600762822,7.652809606762482,-0.803277728404538,2.0820427127344683,9.272547874752192,-5.797084957692795,-5.2601466318175945,-2.5221136303599483,-5.464488710111555,-5.872375797515536,-7.605687292461328,9.1781852999166,4.051637122417034,-5.597091137375758,9.141392678573133,3.1708519141008757,7.4750554483955085,-7.305413317142158,-1.8297618652485799,-3.895811065473165,-5.284610521552928,0.6870639296073087
-5.982983368287885,-6.524185311440791,-4.227823272605251,2.4987389063547205,-1.0125231240852592,4.473447826956482,9.487639120838818,-3.765161187709653,4.921198461563067,9.252216351475699,3.0185933619023295,2.4496656380362225,9.482077059840762,4.586653627341406,-7.513951264242071,1.2534939452679001,-7.916391327247316,2.0215536957623055,-3.0458651429308308,6.617087995648362,7.849779121679475,-2.61381748785759,5.022163935376687,2.5148889575977904,-6.042625389839937,9.403547421256015,3.766256566696441,-8.97123295287461,7.924941662659656,5.535797724228807,-5.072311663471966,3.402966129804085
-0.9451558452239297,5.666947863586385,-6.842317434447613,7.605304452973478,-6.053041886430752,-7.2338365363779555,1.1540123573567556,4.2918928555419456,-7.42734100440363,7.735753767042372,-7.733334594275161,3.7716243318918607,0.049134091631506394,0.36951967010852194,-0.49990119940498623,3.21271330844462,2.5490616107006296,-4.040211507489704,-3.4300600288101757,1.710106835702991,-6.202492464619378,-9.524865701194491,8.088076331591367,-5.287834704425995,5.280873063419003,-6.6419018890198345,7.632024304854255,0.008626051268924684,-8.718825189791172,-5.6159918893908545,-5.770567412236267,0.431770576860373
8.961251246083226,6.579851083258646,7.206089073239195,-2.6782765391004393,-7.552064155379163,-6.3769995709872624,-4.345824184396161,-6.16690452398182,-9.04115111303948,1.817110580155175,-4.525104530466604,7.756845390366383,9.140744417760661,1.6618284414236726,6.691298357851004,-8.678128233453684,-0.6229851019793848,7.823184830678581,3.681883920432689,-2.3219682979195833,-8.684442148682216,-5.271817853093339,3.4970357670176266,-3.5676159302598487,-1.4660821221434812,7.479064905049675,-6.346931572750892,-0.7707432218990977,9.398721601460078,-9.252982272158816,7.77367655448743,3.7876540535007237
9.898783007736547,-2.858901279615303,-2.3510147462362347,7.563443044628897,-0.34126795092501006,6.244007398580216,-9.903374754565588,-1.7364389630142885,4.286373890411436,-0.6303973265065981,-5.539636288444003,0.9025525759509829,-7.25880709846807,-2.9672144946823886,4.3196229912926185,-0.8172401725751843,7.830788358930626,0.8247998708070554,-7.375874511602989,-1.4650296211347147,0.7187828482250236,4.133593903545856,-8.870400501868057,-3.894457926173491,3.348410450066,7.874415324700156,-5.881278371489866,-9.39784730033319,-9.730861952764979,2.5235049103641742,3.4979904252283127,-5.503786741742809
-8.108604569422281,5.635073927231781,-4.964964876437148,8.207423532837822,-6.695976352529732,-9.526987725058934,8.740532326785083,0.17640694120932565,-7.249894341453453,1.4266363401119708,4.495413953244913,-7.503117092640816,-6.2755192112101055,4.664170085067417,-6.1877131267949315,-8.384829101503895,-5.030642472922089,-5.074792792346223,7.208424912964425,2.40060069584964,9.968626422036117,-8.187372401992373,1.5006585621060964,-8.054641544684175,-2.928544317199866,5.166440882350027,-4.012789758098265,-4.278498274838007,7.463483260698503,7.857766697528838,-5.010356808953544,7.725644076730958
9.750439887544651,-8.518733591747367,8.631139850998611,2.2484735937514877,4.04897080300791,-8.721506559548477,4.822711771817394,3.808862697170433,6.040503751834457,8.317272258561882,8.559903024207983,0.1403003517103194,-6.676291270336126,-4.110374353411044,-2.316668547251828,6.2046343369461034,9.066522160516964,7.521762649831885,0.03353329470321853,-4.301233969083944,-3.0699255612097804,-8.768872926641201,7.434696810605981,5.337365048170588,-3.8463399716192033,7.687743067801286,-2.7664541230388062,-5.2964451825989585,4.73824435766115,-9.519550343243763,7.301517097434946,-9.575611227465384
-0.3593681154519821,6.592219920435266,0.587746808630893,-4.317587222054035,4.578841969540658,0.48409333590844206,-0.8750505460605993,-4.24823318958282,-1.7405531699085213,-7.573590555591556,-3.877434128795045,-0.9104991293020035,-6.848423074070473,7.973242056185768,-3.6793553216583703,4.039770599238189,6.6041077197957385,9.10013031844218,5.685172277261302,0.08246666452431839,-0.9116935428925714,3.3011186042060974,4.496194795234864,-1.2690972983254625,-7.843175087659779,-5.073104441839293,2.1172890857138515,0.03326241409943265,3.3822586082429,9.964526197895022,-1.9976643167230854,-3.4753381690349343
-5.2435269660933574,-46.658265259038934,-189.04770018492798,-4.824569215432922,4.525060492685887,-7.507658165406951,-170.37326031234593,-213.77228356848812,5.698882799571264,-0.3101257705016778,-5.474692247133728,-3.8947982988311303,-4.771515859059779,-321.5862550555076,-1.6257538368384736,9.751037552968441,-397.6416341182939,-7.1314017101677285,-500.80851253017477,-1.9669748378480492,6.072257896371038,0.381345463509712,0.5824186138044052,-9.123468652706077,-176.1374695312777,3.0355529936316152,-5.7632465108736985,6.902502037320378,-420.18110119687833,-82.75428851396664,-382.20679458250237,-507.52922835514147
-2.8235747851951505,6.5955806937907475,-7.204645659268866,0.7685929970829584,7.734517764564195,-0.04713652640553612,1.0022041509252073,9.10354350555576,9.951801844229134,1.2314270225499886,1.5714272905494457,8.185561812433477,9.409744954575018,4.626349663628382,5.733917015564414,7.6808595706699165,-5.538701846863894,9.952717529048186,4.343728912449256,-3.9015446068645083,-5.11871196225629,6.683586917915001,0.1112791133896156,-8.639027035306517,-4.069803843609376,3.5211064819522306,-3.4131834048071097,-6.163933775367871,2.721863546450983,4.746699028913827,3.313050926619127,8.777180878314397
6.3910467796336405,-129.64805088256762,-503.2341764642134,-11.119063445187617,-1.2460885551454872,-20.92563496772118,-498.49983763408915,-485.83163795321786,-11.692835332294472,-4.597433237402981,8.089541035354145,4.609645972418273,-6.64265693070591,-506.9738153771943,-504.22195835243804,-17.415419774006672,-488.0663775042723,0.17689306540249738,-490.66924583578276,-3.3496320605682506,8.911790557395904,3.0717390066360366,0.5642434371070566,-2.312948028687396,-507.2920274747642,-5.480376498211688,3.7793703894922217,-8.931730110358103,-506.747027228425,-166.08623321620186,-505.491555653099,-497.3430702642743
2.4638640310044853,-2.0660502982445568,3.3533248916055864,-2.937745802383933,6.003117861535948,6.399683115114488,4.118395159874719,-8.456673238857439,-3.600027748472579,3.824322118220447,-7.377347330764648,-0.5741608374225606,-6.4705453827879955,8.491926354107896,1.4946435074851223,-1.7928756980833445,-5.302035942514191,-6.086796655380413,6.089568949011817,6.318478461679415,4.520610115519208,-7.1605631788394986,0.7887079313665719,-6.146251883358607,9.320402398240422,0.18657079946349242,3.5468673179708254,-1.1954671700274382,-5.265337805953321,5.796734805215031,-6.403829189384027,2.6833567719624636
-4.862835178272995,-196.308001048324,-500.48221429435847,-15.59618098626623,1.135629241362535,-44.52489387644712,-493.920012803432,-485.2277420374032,-16.345001000866652,-8.481519075705602,-5.703453477080426,3.430867699685775,-1.3057728826439625,-511.2749248658905,-490.6815511549673,-19.327526967727895,-492.2736335380094,-6.44057435245746,-498.6450136500555,-17.838640996148595,-8.607669506140066,-509.4162236188346,22.34402167337224,-8.369025503968988,-490.60662061412626,-1.7732975151935442,-8.54190140932204,-6.974703630067076,-491.92137135608954,-246.44853929001627,-492.2568428596255,-493.48150584685055
-2.5545163050197157,3.1224154272039684,6.809789135225664,3.9146022045311764,5.325310116655842,2.84153730453502,-7.359478549035581,3.2523438724550893,0.32821136155931185,-0.3160693152016325,3.871139780669438,2.466618214333602,-1.5160295804362427,-0.014476878864357445,-2.0980107390774227,7.976500548156341,9.504059928999851,-2.003954158637753,2.817533622252002,4.319683857939754,-9.220394861509966,-1.0546524943802353,-3.3974080256555634,-6.516417097283112,5.268209211997821,0.42643905728122533,-3.2178176991231595,-9.93660181717928,-1.4299946198189968,7.759471047665343,0.32255728258764904,8.242431037717001
7.151133808820781,-242.51467102987846,-514.7626033747159,-11.781132440417828,-11.08471946093109,-21.380196574600202,-492.4034202100465,-474.2518395876723,-4.343843859093582,-1.5318889459459757,4.0459625092805815,-1.3683161508714008,-1.165461585021287,-508.57907540788483,-486.4785904760385,-16.86177172426123,-484.5960675561567,-16.51687301883078,-497.8507256853855,1.2218570792079504,-9.858032202592884,-499.4572747858748,10.494722986540697,3.9303814036875977,-507.2001460486759,-8.372859579800549,-6.984126491997791,2.153485947330892,-493.13591144721426,-207.3608366156656,-505.37801019942333,-474.443789461139
3.3771727118910544,-8.542351992106985,9.284292445506846,-1.5827151921118023,-9.764604337262695,-6.226464440889696,-6.968863796757574,5.950874567816575,-7.058553712552786,-5.980684127649381,-6.08570283529539,-0.9478628909143865,-5.3277466424692115,4.937361069047077,5.0326354745086235,-1.2401953299104136,-9.60941438761772,-2.2563279643966094,1.754643489518088,4.970605182774184,-2.857228320583321,9.792289134814933,5.55311538008379,4.044577996996761,-7.675466381425224,8.71880713537059,5.370666943486562,-9.404362593242652,0.9310776198067039,-4.8704497040322465,5.9263619729726855,1.9638798986619541
-0.7075808232745189,-82.15476468055316,-155.96999839769222,-11.813804468012648,-3.2790018251918456,23.9451491077119,-108.05999222463093,-124.96381836911598,-13.826851227803902,-3.6257572080853087,-7.71461386582402,2.96297779379843,3.7005829471927694,-340.9474603942999,-471.05482178573425,-16.130047101688827,-438.02790903805356,-22.83465145525752,-491.7079187135015,-14.417938107267851,7.798715809897693,-494.0212051736771,1.536506917051969,-9.589669623050314,-266.6742362228097,6.9603173567852075,-4.747032002383014,0.25864505119568637,-443.92763810171186,-69.10182001425524,-420.4007705128866,-399.6723226627565
5.165646226784933,2.1913075366196733,0.710383309541939,4.977739316669217,7.068155601333448,-8.104755809844075,5.679316349134275,-4.256725183611925,5.27623581468985,-2.221494436957048,-6.336979837718144,7.549285195161403,-7.744646108069073,-0.15493244599361944,-5.962725482625242,-4.1373445759181005,-7.320939242909182,0.9474084151790088,-0.16546281108831096,5.114815416834764,-0.809490946131648,5.603592755272677,-0.7358468483057727,-3.121568101546237,7.096106892703958,4.586893290555722,6.292363917140932,-7.142204649749868,0.24417274785459142,-9.573459522227335,4.3684009288184775,9.412198138480214
2.526213082729271,-69.70519286312768,-99.28076389508493,-23.47862216488845,-11.457189773954665,17.370672059784905,-118.65134339198467,-86.83241902083032,-23.718246694039685,-0.05424489990683501,0.040601792009827165,1.318101035556819,-1.8703324084652309,-189.74190650613582,-492.8495943999371,-18.695581144890344,-352.0111287349422,-14.513079015828804,-493.55490059422004,-16.445816544958372,-1.504445547652768,-512.3404125908387,7.316393369736664,2.5757872372061144,-173.11628291534555,-2.264446634680521,-11.744696733164183,-20.354451576943397,-397.2520141082047,-40.27824714663481,-418.21853744815456,-433.99670401270157
0.7807766856256748,-8.75925284954015,-2.165362020449006,7.7507038598823,4.545637613634451,-0.2914558274076988,7.36334522049269,-6.103518790684916,6.475648839517625,0.26493684283874686,-1.5060425935471127,-8.619186484932033,-2.1123399974439057,-3.7983041437065683,-0.39974882993788086,-0.9097285955247809,-7.24949807755205,-8.638844024112844,9.882233768357594,-6.421463376536989,-8.155786852501334,8.070995382965233,-2.5617085871171597,9.122836067853886,9.071822954623038,-6.315226881554583,4.974184225184935,-3.734675918432888,0.6948012678257705,9.340912451947435,6.6734783212972815,5.581592131609138
3.8388587731135715,-53.47030367977599,-6.48357493752565,-13.088459147527802,3.018266748386271,18.742156866303127,-117.71493100374947,-8.220833441189885,-26.670578977512843,-14.361058734307292,-0.25527934755199944,-9.220964946310751,-1.8928285815450998,75.68579527663329,-487.70053134316436,5.390081312719155,-230.02566219403127,-5.682481764070616,-506.3215569538075,-4.1450710941071645,-2.6276353327028907,-495.6198383562862,-0.5405371074266103,-6.656961017964511,-155.97263685229822,-17.359553767647846,-17.984351781030107,1.4982658406729357,-344.23667223665063,11.735270462460296,-418.76402634929593,-290.9646253282318
-8.113088822917998,5.5023030641714605,-1.0468937350746863,-4.577504164802557,8.077514278235533,-2.3943152860307926,-7.882702554708743,-3.858564256829105,-7.358707134869178,-2.99026437782185,-2.2627660514880787,0.20823374814993656,-8.558064912981147,3.350850455529244,2.936404922007565,-1.6827502334779645,-4.810241089536749,4.033623981970845,-4.005607581435891,4.6886609681344655,9.52236995422605,7.56330879062585,-8.312782973663126,-5.25696526184756,-5.327618585324904,0.9788807888778166,2.6126069644183207,-2.299299624374374,-7.436085571267879,-2.4277370378477787,6.724955949104263,3.5532125903950647
8.642605064866167,-30.591833869390424,54.08101063463204,2.223817066258455,2.107281966938711,7.784898601686351,-61.24943814173557,25.334084269242553,-28.86017768409519,-9.907266110228392,-6.647583421025686,-3.6028147049786443,-7.7067519189442475,169.29709625352132,-508.3597074529718,7.755718356778324,-49.693486047640874,-0.44094581694171797,-251.11019141551122,-18.92676998248499,-5.32300990429218,-497.37651224269194,-6.772840055116685,3.0235207064086573,-70.07528228305662,-10.970133889190787,-2.6789123728115705,-8.38571114244161,-147.13502377181243,27.19797727639732,-210.2068711399242,-64.61774056448526
7.189610538288292,8.273986571635053,2.989250908838912,7.612673790269145,6.0100464926639106,8.773068991159793,-9.359203015306969,-3.8549388680004277,8.170580143400613,-0.7697920135066649,5.039915597048703,-4.447396415088991,-8.223490728076502,-0.11095555876450192,5.782964848489982,4.178956278358882,8.101735782735641,-8.498365960698177,-8.085642856776667,6.9683284248939295,3.0503729269058866,-5.938647541084931,-7.461395932699702,1.5276923421292317,-3.614809460079929,-8.04560051629991,-8.100111785346382,-4.136598543935605,3.028281836561444,-5.9133750081499725,4.792561810174087,1.9581781392566082
-1.9074226533907446,3.2082981154738643,4.89018820411369,3.739225648636376,-1.1505347758405478,4.193576073833931,-1.2369141473658694,-4.828073404206075,-12.881495127264486,-7.088956218504026,7.750988486874025,-10.412326154521896,9.229030157507697,2.6479454396761657,-7.823115930206735,-0.5183763288368848,-3.9781941059078947,6.343343721410018,8.486139890084946,-11.440801317286546,-3.3022618624047473,-1.1881529923576473,-9.343795270390661,9.90613586342695,0.5847667584316305,-9.591976569146576,-9.478390797309178,6.948535452265689,1.2738695782642364,-5.455785794067758,-8.165262544775818,15.019930711551098
-3.907531044955956,9.439473126326142,8.151846772729478,-1.7883803875096742,5.522744138995293,7.307241068811553,9.406162508924805,2.7695357188321363,-8.795223286001113,1.156946744812661,1.1297267183059763,3.356476092721863,4.336764526522423,8.26479886353103,-5.288554677333163,-0.5876617286422547,2.496342392990069,-7.773418149926119,-2.9208974589281063,-9.10963497652274,-7.557123431195539,-2.6092066882505254,4.433229698364755,7.789795695828779,3.074898925943426,5.397140334662588,-8.243931410646146,7.808468271855094,3.54225233686018,-7.881295044721295,3.6650247841675014,8.547662785564366
-4.534110060588379,4.518944692760536,-0.5346760288053876,-6.079469472478383,6.735313963153111,3.98924286629841,-3.777368890340675,-3.2727809895890907,-17.251885842177224,-5.182283398295411,-2.636853282835405,-2.5605452755907674,0.06100211879817685,0.27720665041021686,-8.782198078124352,9.940624968721934,-3.154895070964641,-3.3402936364756113,-4.778000448787479,2.212392208404495,5.1889916956744315,7.585524392044526,-3.3440716027873414,9.066864828631243,1.399527719777364,-10.445046948618955,1.2251264161859758,0.4476174509095031,0.16888171770344423,2.239367012744003,0.6055967241936706,15.017133141398975
-5.502280973747329,-7.893504844084418,7.013720631365661,0.18425424118276013,7.430559603574146,-8.753488567338714,-8.649456801615,-9.422858374861104,-9.516605422318374,-2.5607925723055436,-1.3436818313722263,5.754626160157926,6.7066802063014705,1.4912265330460563,-1.3879372086610964,-1.8118801513394587,-2.786262232658654,-3.6748719181149543,5.249293102418468,4.257878727553763,-1.5468361372445045,-7.962596990661519,-3.3661412001414543,0.738818746729466,2.132662303306219,-3.363834449021277,-1.636627716612388,-5.185376890942006,-3.9215710655141622,0.7826544899719856,3.7622694624228163,-8.043423762819906
-4.3335334211486405,0.6964564513643339,9.030339079607522,5.940476786508837,5.598181010710782,-0.06728109398911108,9.163073869051978,-1.2845106154653934,4.628545447853952,-2.692409222746088,8.45418882624714,-0.5630198642783277,4.763462658075543,-3.894564513743699,4.697214626727641,-7.9196575063934205,-7.712786946348218,9.41349240811763,3.6691928218197916,1.1053341508224346,8.092964193866166,0.5107900175402591,1.9976191175907516,-1.484826902333669,5.079249480924208,3.3407911449168566,-3.576382903623454,-9.977554322919778,-9.280988744178826,-1.6945246921417159,9.317230675538617,-7.978646048589912
4.736672762485414,7.696347434090594,0.7375185351572782,-4.753065434597952,-0.6768701933388037,-6.794229846386757,-8.864996081988487,3.5449062805638754,3.3713245688812687,0.34910051005522647,6.278833614041602,-4.519377038351886,-6.553347368880457,1.8362671806252422,5.534790843215765,9.452971268120386,-2.4602637638230522,8.421723476561922,-0.6125667672983468,4.532818179932676,6.124577741256402,-3.2587469974591414,4.875197672710165,-8.863784017552769,-3.42030824347757,9.869315022097172,-0.08241528957406175,3.2421932999188225,-8.459336513460054,2.3266302156303134,5.605660304355149,9.042373749713558
-9.901451520653481,0.5392508653218755,7.5110680207524325,9.251755612324523,-8.658432514119632,5.095348924011354,5.0489835815078585,-2.134982960090812,-7.022079831463666,3.432199308210045,-7.947235078354193,4.628136567893639,4.357894528421022,5.170912747360166,8.926841673608674,7.909405940227256,7.730766338778604,-6.979312542864456,-8.558108695658206,-2.4026033238579414,4.139519465902035,-6.768581196251553,3.90985466467221,4.355836979220069,6.827279983313765,2.677228725084033,-5.4083362192226065,9.939377101551827,2.3604124896020053,7.990349703106734,-4.736127984636931,9.99377327082101
0.8835795864933864,-8.463441419626776,-8.19199908866854,-7.628594035512166,4.659089306279151,-8.573431296949563,5.5609528096717895,-9.68964666695066,-0.1861774585017777,-3.1583814516782365,8.955626979099073,-6.822331660865606,8.139059931199117,3.9071106682063856,1.7954649131805294,-5.011331356887805,-3.8730373410455137,3.5800006017599184,5.35203314099661,7.7824356819914335,4.176815738009132,-8.172988887397509,-9.034667454899497,-0.409623038276143,2.0771583577748913,1.072708548220163,-9.684121736073054,-6.856906093048032,-5.743009660443581,8.290890131904433,-8.270054382530098,8.804609935240475
0.04651344988343098,-5.10314228278723,7.55670889243731,0.5696093438214831,-0.4091201388027432,-9.577011994575123,-3.5891459617480255,-3.069145262261957,-6.387338681097374,-6.463218842258822,-8.523702852285567,1.0298591768842869,-0.41501630289167757,-3.031261030955781,2.510124596761951,-1.200239545008813,-8.700620425143402,-7.641704314594982,-7.377313091142835,9.014339521887923,-9.11145327974548,-8.272398782273386,0.6506990381102291,8.774993180370124,-5.863985812882692,-7.5188837494525345,1.3750450103092398,2.4205279047849064,3.3378444744458573,1.238679154169608,-9.394397111983555,2.713756446758648
7.073199112818113,-0.5906019486242968,-9.113798057914666,0.9596135737484541,-8.243091498684107,-6.716858355441511,6.531201648278746,1.8216607341871196,-4.527705669798127,-9.865567959913182,4.88299000285072,-5.4361318131466,-2.638960721367967,-6.485929056629997,-4.336412253693982,-5.170091951750189,5.1884811602498,-3.1885036556186286,-1.103949543653675,4.559935407914015,-6.736898471311705,-4.330283453102073,-7.585929455577176,-5.624374844768236,6.873421352742909,6.7419172325461965,0.63792829628456,-3.9136166922802396,-6.329548149253538,-7.683808205148761,-0.4522826261869888,-5.596786897658104
-6.934023978066694,-26.686475169518687,-100.90381685803978,0.7574707527442968,8.044686488559968,-1.264297784740048,-92.40554328723553,-100.03733697533028,-9.181164365002168,-3.4807881972280956,7.5565970563572975,-7.0482768920384515,9.090073038320284,-157.24921054679967,-6.982491756614369,-0.7127924137654436,-191.84423044314332,-9.286070508898055,-365.0144064301093,-504.14459454363396,9.575593444435942,4.579436043084302,6.564729161203449,-5.978419539817061,-77.36520421650177,-1.7278759717262808,8.765987712738056,-7.649345247285284,-209.55057800332483,-40.31555027081529,-196.8172183625387,-316.41416099683903
-0.8086708601118868,5.92423039466188,0.7999512993692868,9.120747315318713,-7.302929311777156,-8.704092819016065,-1.74211477660638,9.221806990519902,-4.705847600268969,1.1715635329698557,4.523294647251063,-6.179621388627352,-9.63159123392394,-1.6914580570500863,7.239678944057758,7.279550028972427,6.861124144471795,-3.1960966290573767,-3.9082097119608727,-6.70526366510768,0.6211060287773851,2.1364615402459908,-2.057139049599021,-4.686324952999565,-5.5947326602460485,-7.5025579922259595,6.115624623765854,4.630250959690034,-6.4366677329645245,-5.442225216097838,3.1184404187147514,9.161139471062597
-8.125843240220068,-41.129416502500916,-200.7002475862014,1.572911303271983,5.084696012414058,3.228319134602618,-184.23346439217926,-200.91665622968125,7.247616478546281,8.58473228740117,-8.318940494284622,-6.349268391351401,-0.13811618206958443,-333.23167007196486,-7.276883066347237,-4.4801330335453615,-399.6941934010538,-9.886709352843642,-507.6906405430863,-495.68202904249216,2.1331225973956887,-3.3610960824123026,0.9810057809418993,9.351300494043784,-163.58037189966672,-4.548541368415632,-9.231118512834689,-5.152037605327438,-405.16537489408864,-83.84599034871106,-387.71758702177686,-507.93372337079796
-8.175408515657894,0.2211971448674177,0.6646102536131266,9.96463621541875,-1.4677837615329903,-8.846261474947688,-0.6442713508024589,4.472136140885532,9.764702797531118,-2.5913796595738177,-0.8699742757765367,-1.9630968647269658,7.836997742116246,-8.26765714043211,-4.87681490677442,-3.81379712355937,-1.697186475853547,9.78807805678224,-2.670699791349538,-8.847635859156103,5.857294374219965,6.474494478868365,-4.135569951133997,5.063940853342487,8.444203667109878,-5.649748602318261,-1.1461035065869467,4.408774393361487,0.8234957551502298,7.017517710940904,-2.6945786894564954,-6.455476569517884
-9.83570529363189,-173.4049169923571,-495.1306831714053,-12.053010942808337,-1.5058230633137057,-21.20640692472685,-494.5420310330974,-483.91745405627375,-13.23824147170197,7.96304025105627,-9.646793483068405,10.83312877812636,-2.394548692026241,-467.89251660895513,-499.58577312689846,-31.32011112328202,-501.1875059959033,-11.591229087458888,-484.71917281319134,-13.227825212996512,8.303709416526889,-510.54878408715524,9.576618553325567,-5.2132413820568075,-491.8438628607815,2.995884221186115,7.161557197928602,-5.054923344888264,-498.71127835185666,-142.2374542308873,-499.94686677999374,-489.35256760869765
8.05033909887516,-8.262715178200875,6.082834845265815,-1.3633561657168052,9.085060655148002,1.77702772762607,-5.066326705911736,-6.0109430201184955,-6.328107724888687,8.282517649317555,7.302924359857236,9.713511951423438,-6.6129061028092035,-2.156772223346451,-5.773565153953162,-8.26185119793668,3.495081905398898,-6.86545751342218,-7.5097239790699,1.81342223488185,-1.3518001029767674,5.2304504622786645,6.581660977986456,-9.146464841977352,1.5772869675029089,-7.4842142916301135,-5.567428259854141,-8.047763534235326,4.567290865789861,4.017557257473445,6.933610801022109,-9.744572979992444
1.4776857510755654,-269.56737239913514,-494.62078783590715,-6.355678844158604,2.691800514969273,-26.348945786565046,-480.06811357811085,-485.8706673956574,-17.891254960749755,-1.3941793572810237,5.559762238767742,11.766268665599245,2.8379939626994855,-506.1234720705373,-523.9766275952455,-57.37615501893086,-485.6850963779692,-7.856975264794199,-470.47723107564264,-5.104949411686242,8.499918927694267,-506.01451720750447,17.593520739177478,-10.08298657681897,-493.08188832460155,-29.789960913802993,-9.07896633939377,0.6963323721736465,-503.92858409703723,-291.3178516644575,-480.1921467201678,-482.40335898454475
9.383576649908342,-6.919482398778866,-1.2969594407315697,4.487799790129554,-0.10013764917452939,-1.72139434818604,-6.743465530120119,-0.3137268101213948,6.319397796041013,-5.968242325308724,-5.699203391780669,3.992015120401698,-8.335086969388097,1.8430043415418869,9.455872211341084,-6.236518545014594,5.816799502390991,-9.462299734468294,3.6619686361411077,2.2401873196953748,0.20828052840548672,-3.4550734869430944,-5.737461306793015,-3.002271896340094,9.432751890517881,-6.987229263861289,-9.133904591432039,-0.9690545204284327,-5.143209402828132,3.4024703342352645,-6.451709593544999,-6.313049845738554
-9.843787309490219,-208.39553826357957,-497.51178941237924,-21.23769661339297,-11.686041326027777,3.6908565796189428,-502.90065562437195,-478.72592291230484,-11.522767342080128,-2.715119202425007,0.4496886010786372,3.0346425318305075,-7.339570096646922,-507.42174200704545,-486.30586420182686,-34.613372036685426,-488.42803767111786,-24.674975704946355,-497.7759921680139,-13.973273470337661,-8.67045306082944,-506.10924916160263,10.598192614481366,-1.2700595170941256,-502.1968192792567,-0.29803115891566456,3.810815578869363,-2.3675024128470765,-500.0333917313607,-299.5385820826554,-492.45247985887227,-478.1312922175504
4.773163739970842,3.7083175886133706,-6.752253559113486,1.979989317454633,2.1473888099216083,-7.609014257657185,-6.731789592259094,3.2149467115494534,9.969341517972008,3.394165478658133,6.559328207274206,-8.07121091124992,2.3689972466407365,5.366764617345272,-4.056766459885903,7.956965760867231,-3.2668633212000264,-6.778855744377368,1.0284293105982023,4.27260705773293,3.3363992231882804,6.330627960146856,-4.221710529825891,-1.1661846941357528,-0.6920289342991595,-7.833439850168313,0.7681494489560325,8.037953110388592,-9.286394856362271,1.300858097282397,-8.868524381197872,1.7256431169554922
-2.1853191909167897,-104.78495695769327,-367.11691254438455,-11.668533066303315,-2.220130672048712,19.674090270201845,-125.42210057065307,-294.8349385837246,-19.508793686321674,1.2365577220808053,-7.584479558273394,-3.174234340740046,-1.833694947174834,-500.13451299466504,-458.2632607116726,-21.43478999543715,-477.2569769900295,-4.302979739909469,-504.82151686823016,-22.887915471196788,-3.8236545602543215,-492.9557445359024,8.047578084237415,-5.924537403911918,-277.1378834907285,-9.056249941476072,-11.747643612621989,5.208883351831167,-495.3550504434924,-192.54351356734054,-411.6640006431715,-463.66408621684445
2.3881776505067442,0.22253264602911038,7.16756816388386,9.07130158586401,0.3246088031456633,-7.169569546852623,3.037978266800909,-7.0065901020036625,8.584661790735733,6.898551002230516,6.431601686029612,7.1934926987899,-6.66910207752678,-8.446587246222242,1.2565314307199422,-9.428027742968766,3.2868509047260748,5.313544534576515,-9.429798325457082,5.189480376700315,6.183850312377391,-5.880306243371218,-4.510809557136595,-6.949922009862862,-1.6624704492939042,-1.9297586879275634,-1.6059543615939926,8.376340354223512,-1.3916758792617419,6.218312926057401,-5.680594369410777,2.9223509075152734
-5.620373228562061,-98.78956836636009,-328.8161554116601,-38.57078781782131,7.066136245599187,17.365405543378813,-127.6096351125395,-279.02175149810046,-16.831098327169837,-14.650570350539372,-6.811022081790615,-6.570837393037285,-495.7076140930637,-468.5712652332675,-466.3198426737604,-25.9020670923481,-491.73371719658405,-27.151208355865798,-507.11619825295514,-33.902250017477044,-1.0583947358728025,-506.34769245628115,10.111792966856635,0.9374008195110743,-239.02395786297774,-17.749970374287425,-7.224544125605588,-25.095271949383324,-491.0813308570845,-156.35379865874071,-425.32153533611006,-490.87145838657364
-9.733252147763963,-8.942383699188863,5.143130115338375,-0.1739774745683036,-0.831548027857341,-8.940319256464806,6.590792937384535,3.1647450373138177,-2.876252443413798,0.7830503608115791,3.2631031235504047,-3.0133298748718973,0.2515899812934368,-9.303021321733926,-0.9030241529654237,-2.4524485508467375,4.675553107553821,-4.517397725235098,-9.422278385280475,-3.151746084909095,-0.2835867464095152,2.1387234751368958,-6.064444202172972,-1.4689382154013142,6.956464920862079,-5.025274845949808,0.7565673509259021,6.551628750084205,4.6869180732872096,-4.367931106386189,-7.925578006220128,2.0152449010634417
-7.0224837194259155,-101.46487710782202,-367.53951744659804,-5.724150289302964,-2.745716435058556,21.86872637368237,-95.1264029590209,-506.3185555391464,-5.5479413897408065,-3.633627212062768,7.179389690426971,1.1307976178192192,-503.7929355714937,-473.97903570707984,-499.4083117916815,-19.339379914756535,-509.25697057017925,-9.517265712274229,-499.92696667782474,-32.19279465552587,-5.793544296818844,-496.43570981357766,6.177305455865266,0.15270806045151808,-17.708639362566803,-11.62180916839166,-19.40754712456944,-19.787230666177184,-497.0671435625336,-251.4614248040756,-195.88404886223023,-489.9282379594651
4.42991864528147,-2.8924104021033,-4.698047342245828,9.740532970001784,-3.137259888767943,-9.784375506906697,7.4039912490276265,-6.877413940833959,-8.483895545132036,-0.22266590509631534,-2.541161114054238,0.5676406186818035,4.101664529213075,-2.188425261926435,-7.5741102159578055,9.940306983659049,-4.790407531640904,-2.7740326119107683,9.199878334639216,7.5850951992898,7.6593473860304755,2.7369135599989605,7.15474084108639,-0.4840896628294793,-8.915248142185545,-4.120601103986045,-2.441751516678896,-7.6995854591037745,-1.0713132153224088,-0.8816534568669354,0.6059111694896213,-6.199553238078678
1.7680476676489132,2.0053442042657217,-101.93452256587867,9.577647101556831,-1.7745288433654025,12.246676528186267,-1.3075500499619643,-87.36689936374334,-33.58564373090602,-11.087765141127962,4.122476493473947,-6.921115031771054,-504.51422978238327,-247.61117088393786,-515.9644543799801,-18.416880151273215,-125.88667146942664,-3.7274709474943695,-77.42599638327445,-9.204418213420649,-6.228348004706888,-507.30280483648914,2.1290630389091945,2.0041095898546413,-16.276864452699417,-20.988425631971186,-10.83042571837184,-2.4388758575285943,-52.8254169604466,-63.425546394595656,8.347061189553175,-139.75079682280244
0.15314681264553442,5.568392467624559,5.933036492438362,-8.824605118142216,-6.749525987326141,-7.454470271531521,-4.320538516657015,-4.014413633166485,1.5420716083835515,-9.518432638976538,3.634261338070859,6.057334761641769,-4.4764207456310645,6.213049084276314,1.3158786145246104,-0.08459316148133667,-3.200753610334841,-7.1118456253561995,7.584760099817295,-6.284090393203192,-8.377836238516505,6.978512664422055,-1.9634732460538356,-4.289142858962878,-0.5494966835857902,6.653168610639405,6.063369671815561,-9.20930837981033,-6.014047287232969,8.371565435833151,4.220444947154547,-4.594341409517158
-7.699274375883471,14.272405833022143,9.162434427446385,-2.667688932036664,1.255710208516092,-3.2977702510965967,-7.774229833810596,1.8553377804103235,-19.70595222360387,6.287063332232715,-4.78569894794781,-0.1897983272429673,-494.78773385241243,1.6073817204719747,-514.1262040578025,-25.735653030502107,0.675674525393736,-16.8388558438941,10.229226549169633,-17.140467521259268,-5.84333319463219,-491.9397498816078,3.170470782535739,-15.42859936368676,-2.0508300695923323,-27.69768681552449,-10.499540386855307,5.539071600206854,-4.649051542298984,-8.318012040489286,10.165701617899199,11.932097455713617
9.724976329822145,2.0426309500597117,6.492253533420541,6.970059464249722,-6.335475340914883,0.15796296503252272,2.8761551630221067,9.428760672097681,8.700495798517963,-4.575493434641804,-9.664809125231798,4.536286025874361,7.592798440931759,1.3671633924294024,-5.332823338811153,-7.1343106906675,3.3006160758808267,3.7477891443198317,-8.408494099257151,6.7087836116386725,4.6633824171755585,7.963594142530482,-3.434118382425158,-8.298267002341257,-4.237242968116554,0.9938506219452101,-5.590941687854556,-5.914028128687194,-7.826798074513805,2.6379174329400072,-5.1987236523829665,9.384181267133222
5.986884939400452,4.4779195955203495,1.1987451474281734,-7.8730048485966275,-3.0977958022957015,2.790854976603935,-12.578575237191009,-0.10958613861476962,-17.406738949516473,4.893619612391985,-5.4657763602381415,4.244144487976175,-506.8866746642872,4.978875792567442,-497.8358101596417,-5.228844879793346,6.606870078849468,3.776780876753509,-2.038900490081575,-13.623866997896513,-8.21220492955604,-498.2912748049049,3.5761219189091022,-7.477621984805658,5.533470688916315,-8.807592141969641,1.2278198019245075,3.9455161174423385,-4.634681988957988,7.743279592358721,8.856457946621617,8.342700899387125
