1.0875388810102216,-0.49891495910497063,-8.81595173545893,4.780322166289077,-2.1742592373686325,0.342595523881176,9.14946969706875,1.3481506207208263,3.0326479149703616,0.8819781930190551,7.000111078733308,-3.653602861699376,-5.244812012637164,5.255553968989739,1.0186831856316587,-0.20488267811374428,-4.959613364549447,-4.531194334105093,3.280423066821612,4.881316771970889,8.000858111256662,9.553402522452181,7.926568458153806,-9.41764390248062,-3.5297471744254434,-1.7594049626677748,-8.731756703118192,4.176550897369646,6.617552752487363,1.8188169681034196,4.59833403973898,3.326430603115
-3.1039102048930634,8.455198979020139,-1.5632662336459973,-9.883373247808061,-5.025652629406148,1.1939201835794861,4.392178201513659,-2.06725163362655,-7.3867060993267035,2.9956584410720666,0.9063063894921157,5.394198462188397,-5.093877086423451,3.895121819508846,-4.971722902135676,-9.00739046666357,2.797571207239269,6.863697425026782,3.06925331144952,-4.790998113535181,-6.453087173157284,2.1290670083874215,2.4865263770915558,6.356802480825859,-5.674791777810199,3.0063107629918235,9.011137843979018,-0.6313321847461228,-5.9401873608255755,7.124528830759147,-0.6612020335874753,9.042310111593736
-3.123643502591289,4.242467554221657,-3.841870785636341,7.607995220654523,-3.5454245755774156,6.149054209290792,-1.672576868872932,1.2489242578423685,-5.462324014894097,8.303387304695761,0.5950207750270273,-7.5818315855228535,2.292827600450888,-4.09228114083418,-2.3066348881931837,1.9359039823919115,-0.7220754794282787,2.1118706310856368,1.6262120787985772,-7.8576731582815125,-2.581253067743483,0.25468312692680684,-7.469913553450724,-7.092087247838785,2.2146652447642694,-0.8360511918641205,7.290557314284566,9.038259364847153,-5.191165665053161,8.94388968549919,9.22319472081292,-8.886075342059058
5.27327919911966,4.078419087389097,-0.3649844387268253,8.940108618229115,-6.368866856429403,-1.094382735339277,-6.09315622823064,-1.983609533076816,-6.578245341062921,-3.6780906095130455,-3.7247120265889055,9.635791322635466,8.38651361841029,7.212748649616493,-2.9228829274250945,3.3180412853519208,9.722966996860873,-4.475936475597697,-0.06309037166135134,4.074436720374543,-7.501858404694484,-2.097080679700232,5.606640245806451,6.037423157323911,7.162567503232026,5.908223227083933,-1.908011507642101,4.496274055110607,3.9502367132655394,7.706083574772769,-0.7991241622439169,6.173254137083703
7.9398510851352455,-1.0559254220773049,8.090026761039152,0.42978890584146434,-8.609853983853938,3.433962726595359,4.696820896567072,0.4809271933547148,6.2357859992782,-8.848794922069699,6.018799023672706,-4.618192386382214,8.926471585495875,-1.42750835409913,-3.5787809684951233,-4.988589018057459,-8.505385039528772,4.14425291067265,6.564222386471897,4.041426477929562,1.793333913204071,5.913623074852527,9.763902543991577,-5.281487554589164,8.612608707301852,-7.935110432311001,-0.7093388583127673,-4.761883578431723,-0.611444279198567,-7.389148095654594,3.1557569063626048,-3.8705354914130137
1.9317452230749694,-2.6447497741213244,6.979069785238025,-5.6459976413360735,7.962752597851484,-5.871095435563667,3.2928600148030256,8.11013702530352,3.5489636776296063,-2.7610848099243146,2.5112967041522474,6.018152120161922,9.746051875209432,1.5563098449934394,2.5225958128167303,8.485595580215342,-7.968439058208188,-3.6902777960447715,9.917764528866229,-2.034136228570926,5.08815805483971,2.256434568644618,-1.7880286362725109,-2.6963333087373442,-7.9890922358252965,-6.978435038329549,-7.364297768363331,-0.7013370867423596,8.428324419254118,-5.86029207912266,-2.1463063815883316,2.4844262388466127
-3.481375440347481,-3.5538270878893012,-5.650408562070832,6.578087270963383,-7.314022867824979,2.3353636683050745,-3.800144627432256,0.3953446003599943,-9.99195928797102,4.84686623529033,4.531090460349494,-5.881912090446509,-8.680656340193933,7.264580002749984,-7.6925826009971665,-5.184748135193031,8.604011444023179,-3.871782518772882,9.887805029033586,-1.6745157113964702,4.199679275670951,-1.0294233656327663,3.9838963960438107,5.282995319652814,-9.555657678378338,-4.8516993628577705,0.7765775828226076,3.2347924163604027,1.9769955695024262,5.188149457625663,7.477769711336183,-1.2919866819554606
5.1395964395963905,-0.5363187811331631,-1.21995915743042,-4.826136518534145,5.36288198894659,-2.7134427583047422,-6.134159180679002,-7.761344606652607,-1.0337432518802103,0.8324846042000704,3.4745998680462407,2.228014634935624,-5.957765294400133,-0.3596128675194681,-9.874352226446055,-6.03742408228106,2.2657958380757233,-9.157371899493526,-8.00089151260069,0.897963062113952,5.489374090562702,-8.107596549427916,-9.404395597586323,4.239599349304555,-0.3634167718272714,6.054317795161481,5.023954414577297,6.320782998691396,3.262402263121448,7.561710394757583,3.0053288978059065,4.481398669902566
-5.038381515347801,-2.3886439542032463,2.595732195655092,8.302606848838774,-2.7390827034971643,-6.332330394191111,6.761396532679218,4.5411530244894465,8.033215622715598,-5.699078877089678,-5.529005431905372,-1.9055668617326145,6.854434475103414,8.005530480589343,-5.889540445225078,9.393428248932953,-9.454840443009001,7.917457646086849,-3.9094361118103604,6.722410254475854,3.753847772986596,-9.529119331381374,3.9637099361748778,9.262698283865287,-3.021323905511295,-9.36742755027446,-6.249550105825512,1.5854809431472088,9.094656480933658,-4.26121742932029,-7.589698407445664,-8.079235324922244
-2.208402017570248,2.076321626965587,8.899498388693129,-8.274713645007012,-9.129072950447734,6.724729542101432,-9.588480966606255,-8.265054682018654,-1.1691260859669192,6.7331625246935225,-0.7749154202474902,-6.321708571088857,-9.012297044379485,-8.234830924045697,8.397771551764894,-6.895256182453602,-8.144604819420248,3.68624927043159,-9.1467960988624,-5.251149103862483,-7.900509118090426,-1.9887484454652764,3.19654322685742,6.053389910053493,3.2537709221529347,8.861012336390765,-6.225260321233059,4.0419036267139,-1.955463149178481,0.4353493801871977,-9.493344473983765,8.887974982120955
4.026790127012017,5.666086193517666,7.365838361385045,0.29542314263614244,-2.5593481714428883,-6.8136012591991,7.244209202693842,7.498571709156089,9.660486234951787,-1.6528896798163402,-0.1570236824534117,0.020529684338017162,-0.9745511375384623,8.366188703602827,-1.9614753953277138,-1.0910666229991897,-6.120412338991343,0.17556385183080891,-9.51921991741981,-8.265267253430853,-8.004376184919607,-6.761899140485981,-2.171207690017498,-5.604034902584393,3.947110954424943,-0.2909879104971722,0.057774012796620866,1.9811843764287538,1.49091632564107,9.548834120201565,6.518314768812711,1.4842829866792613
-5.8414806878789864,7.054862936569531,-5.051066698204534,6.6639487040992265,2.6181904431082863,-2.5528476249447234,-5.41824376483553,-6.657073764686685,-1.1427330884848192,-6.652041177867794,1.4867174662752642,-2.743256474890801,-5.540264582117511,-1.77940154776687,4.600242828234704,-8.711514928766695,0.0001832910022070422,4.675320308979529,4.852156804947613,-5.921328062367326,-4.374411496843626,9.40213750824135,6.422642994822244,5.4324244559371735,-2.9612000749837257,-7.966136694768833,-0.7010505114875372,6.544975730693601,3.217595422385674,-7.656116859791371,9.232048342150055,1.0220366620969443
2.5773790442415656,-6.22136690958677,7.3839517248382585,-6.037055531899405,-9.658901063663965,-9.37582283374174,-1.3015151284649544,-8.344661677682673,8.84285699091733,1.7743631404235138,-1.4275079693635249,-4.8329986312585245,-9.825490506478936,-0.8661451525725621,-9.698363132995869,-4.561693606071087,-9.001944797962357,7.053360025606487,6.197554259755428,9.633603942347008,4.881384409151899,9.691430015414312,-3.1200825455215186,-4.525583259499577,5.467300315508778,-8.180316405260221,-6.523517120714799,-8.26089319436311,-5.330848029826461,-1.7631093599304908,-6.874429568811308,-5.296814990132319
2.4262260915226914,5.265248066812646,8.284207188380552,-4.943748949660427,8.037940913222648,2.3679743031909695,2.4881677519061096,6.805354188514691,2.864450403761623,4.900194186610573,-4.508036464284344,7.760465156864058,7.749048977110412,1.4496272588236359,-4.6059181162631235,9.858697460464729,-6.323962563274376,3.753028053406224,9.716584130090041,4.591434930811275,4.72516656992584,4.053568209415928,1.842647401579578,9.82036544437604,9.549375444471217,-8.558059620089702,8.359133858047812,-7.250317746686568,8.963840845963972,-9.551347067879949,-4.931447107678537,0.5966224454148197
5.940570004623327,8.953709229167078,6.880304778640571,-6.0663566386420165,-6.027709063384295,7.843802383726761,2.59820802934634,-6.991938606463995,-4.753076889677967,-9.352528096182375,-5.7264911630344395,-2.6297746147442442,7.012579841371231,-7.202125878745167,-3.655954553576823,8.682322533008811,0.9001545678133365,-7.189199224649805,-4.698600753286772,-8.566524021971825,-8.955054991882532,-9.804750511566052,-9.800409029124847,5.867887803056377,-4.0331566544526805,0.5258464900129702,5.830164772688066,1.7832890318515346,-0.05696472363680627,3.406838951150384,-6.918409007490876,3.061707134124765
3.4471732396498247,-5.235016669464203,5.33264336373861,-2.529669045561393,7.093223645545812,6.147556314730906,-5.295196516697603,-4.965275014992612,-8.481816895221375,3.3643515105453154,-1.2365366079424653,4.7666263992929885,-3.8505243780837155,-4.597296799065944,-0.23277922756961544,5.6631765772261495,7.679965144036384,-9.919112489147974,3.5625796163622994,-8.537490989070847,8.662747156795007,-8.73835503747342,9.14936452519617,0.9461992000552115,2.80132964210628,8.608855808854027,6.966673226882794,-9.756952044245256,-7.234535458183773,9.468015736028732,1.7273309589420407,1.7577221547958537
7.418397316610989,-5.8996507351140455,3.028343167752679,3.5350303216727,-8.320698103049928,5.565171580390807,0.14968222981032042,-4.281710510593237,-0.3599887026146149,4.12499771658865,-5.968345011904567,4.82791471655859,3.083325121487132,-3.67772767568111,-8.532016274549122,0.9986598161482174,-7.949616972468423,9.901430077174837,-9.680603262652257,-7.046631278261247,-3.2084536998634743,6.709308257980332,7.845981347842564,8.600193602041813,-8.215674757846598,-4.987443620596441,-2.33501358863651,9.543699637191501,0.30702183736566724,-7.764864699026736,-4.612806552776134,9.468119311166628
-3.3826808502980903,-2.8830721676070192,-2.8146452487610274,3.214794660624216,0.8618558314693594,-7.342194184799357,6.36850708036166,-6.230304028767297,-4.2394684203721305,9.507802763479127,-8.52643334093724,-9.131968645421091,2.108863771227547,-6.135983147748034,-8.845006572651563,6.572371569228967,-1.5688943528077317,-0.18187852914307534,1.0631425657084996,-4.299873223099395,6.7740340711017275,4.530982444721561,7.236680327802311,-6.502919513046008,-4.546779719938636,-0.8480102014973241,-2.4317437423861694,7.67166231589885,7.9272407931231825,-9.435200181490853,2.2538265316221473,-2.476171858839664
7.818915750712655,7.124468438525508,-2.499249773177656,6.595815893289178,5.2906231253397,8.082715769679968,-9.866707739268438,-0.21620316855269728,-1.1890207921067404,2.116088721929861,6.937196772031015,-3.045901929357564,6.5906885172099585,-0.2013970589737646,-6.880221273354596,-7.651307639567819,2.525781362660563,-7.685455195747862,0.13469008724439746,-3.623509101235067,-4.843088428237792,-0.366079021191382,-5.683089289065155,-7.593616443508438,-5.295803842125128,2.602710378660099,-2.40709158318575,-3.6039247986191665,8.027888176218326,-0.473303950497483,-6.932128512887505,9.858101801037556
8.758002309964304,6.470831929261966,-6.11351472849962,2.8673733550690983,4.038722357394697,-0.5651183960078665,-0.29885336532765194,-4.844318421324112,-4.248025054452138,-6.343874207150528,-9.78832388693795,-2.307449650293849,9.59198695191737,-7.1400024469905805,5.195068369380325,-9.668131922355244,9.553423289225513,1.2792616620464692,4.16293290462734,1.1895829149120356,-6.145035400609197,-4.541409698453078,6.333252439615961,-2.06216910668247,-8.458161153276471,-4.667842280533341,-7.663975607210687,9.820741187749842,0.5120362584505305,3.6283375572232153,-7.986343571493402,-6.5219172085071575
-6.843676813860327,-0.549990741421011,-1.2986940908126048,4.01636586308927,4.913569749216482,-4.907410280363345,6.356710894363868,7.372141631233443,4.966543940252002,-8.38563474940594,-5.285464043920854,-1.3878544608180725,2.14646977316284,-3.701403127133947,-1.0416198532227767,-8.126985683581951,2.2177493740719214,7.772129702334922,-1.7206386276301817,-6.81693535931768,-6.28415359410887,-8.421030934759326,4.538397274591704,-4.522391292244777,4.353014936905925,3.4874037331764107,-5.897354087333257,3.311916183616976,4.908414274951564,3.929597286454962,0.2427378139854639,5.492836600547422
-9.19546178468261,1.8895831477119973,-5.808553579069118,-6.681414164652802,0.7060139833246932,8.688773187253894,-2.2868521747697956,-9.940836233297736,5.407867570413774,-5.8120656235784285,-9.935225819640658,-0.11504119766876642,2.266503415067344,-0.0804346352112244,0.24330390961697468,4.287046828274587,0.7196146295080865,7.386137276932921,9.394226519292832,7.414762717458402,-5.644546000742081,3.2885908812483855,8.351321695628052,-2.164828522106932,-8.55051200697259,7.865179575589902,5.689276739514714,-5.317622728188114,4.012241682170135,-9.859742112908261,7.169354506330816,7.225890540561917
-6.592509943675909,-2.859066373543195,-3.714978579282276,1.3999345377440946,8.601130979646108,-3.3992443642445753,6.363082605127612,7.462695731206665,-7.827414642214723,-6.769238910975892,-9.403398100755085,-7.130743189491797,-6.294517137242572,6.086044510794725,6.503085250770603,-8.44389818692054,-0.16188199992119223,4.327624067411595,-8.441834544324948,-1.2689829356328612,-8.05248259126609,4.819305970240562,6.913357499701,0.7769280948255091,-3.8974688825571295,6.589840314615628,7.012219055547398,3.9103124814282815,1.8484828294098428,-1.277213679829952,-5.700895482296393,-7.62395546863043
-2.3410882962332753,0.8936491787247025,-7.382354106620477,-4.685964583112008,1.4658992333385967,-1.2270288274872208,9.89999532653507,-5.8111097629416815,-2.0516805073239874,2.878510945292696,8.135257144105687,9.625945907657204,-7.387483972366633,6.889913148582906,-6.6661578518071085,-5.2743159544068,6.907080719818126,-7.749918725399616,9.777041661977602,4.115219849360869,8.4019749608592,2.4780315477607555,-0.3163315238749487,-7.341459886632493,3.849521348675866,-5.838695208868387,-9.754565654962612,-5.421013106063461,-4.058619563055945,0.7916377239514141,-9.204727042997217,-8.010449303656852
-2.033850452684753,8.024783064908291,-9.882918506141475,6.334920757066499,-3.709459950868199,-7.084529756924354,-2.619022079157509,7.707909916703713,-8.218594330162174,1.4814391611729754,-7.950944049757352,-0.21298284023651526,-1.529540882313059,-0.70041208675201,6.83882322269443,-3.3855904229149303,-2.16058436846418,3.4486007605265137,6.126196837859318,-5.866605728444005,-1.3025952345903846,7.607014719543205,-1.2748088376776892,-8.96558150407425,1.2301009486758154,3.3076151159354197,-0.951555511054643,9.62077689139187,-4.68732028668319,-9.310383989396936,-4.60600373000762,-9.494446421768172
-3.5474843103997706,-6.502286874593612,-4.218378023877363,7.957823972070024,3.9988919235277436,2.1004473073726633,8.641213707188637,-6.645691906942439,-9.528562616846026,-2.8647195873987634,8.38112935807655,-7.760558528936306,7.348106005381688,9.279311893134842,0.7631681850355587,8.634370586949697,1.9955042043753686,-3.61683480652629,2.1368654526503423,7.437489387021412,4.296673970267468,-8.127481659682129,-1.658427117444937,3.436987061651145,-8.47995099090288,-7.670996301263178,-6.930869767977201,4.401049154466268,-9.809157722359974,-1.7631243119037023,-4.103602253309832,-8.993959272711237
-9.811513574220037,-8.922642350113119,-8.35576937629333,7.813584557213378,-2.3044358854084663,1.9873943527553077,-1.7438762926106026,-2.1516491161161184,-4.77622549561908,1.6566307503252666,9.897514156774918,6.925096237720872,7.507466390131704,2.749770483755187,-4.977749875669588,-1.1524496106529352,2.3999586193254263,8.230873846445729,-7.162444224323434,2.908930227402813,4.89611048370322,-2.984914779028742,-7.727268677528647,7.253995654840807,9.797714679255229,-8.50188554522752,-3.2227284648657895,-3.609502996962206,-2.70138366315964,1.4223117340620668,7.002069902908598,1.338310390950511
2.077035967024239,2.9573399595864984,-6.035494243472915,-6.265250622092864,-6.772226464434392,-9.886012238549842,-6.557722478172461,9.579714012918878,7.0850859336553675,3.1781728648789915,8.453408528946085,-9.492194554635258,-6.1458655485684455,9.993823939067198,-6.887449076465833,-0.6551585373318112,0.8065448950987957,6.689154635346387,-1.849276894897688,-7.732076733369895,-4.160365487563222,-6.799957958683562,-9.934601643181619,-8.529340255017042,-5.101937862604462,9.727191190645573,6.496969179279727,4.494102827222159,8.386270388892637,3.711434263470819,2.0479291771179575,4.074446342048725
-1.0670254246807787,7.517496898092585,-9.538227585194083,-6.1401429460286705,0.10388505318435293,-8.901484155659132,7.217453692329247,8.085492456089845,4.579587003426829,0.39538794859313775,-7.6103065389196445,1.7506700138890725,4.867430855256909,7.3156593957758,-7.109928847788883,-1.0988797298052226,2.418577678207054,-8.261696893718874,0.5716916974872266,-2.9504959043554146,7.870056819984121,-6.574128157783122,-4.814751523631003,8.249147972647698,9.380967418723728,-7.942169926628953,-9.215767879225465,-3.434594436660494,-2.542287887147574,1.1140824435509327,1.2998115442654896,9.284817528743456
-6.558747639947978,-5.705157394035658,4.3618277317483045,-2.7857149523422464,1.9214946921552905,3.658349024173603,-1.1401940971252849,-4.321392349672877,8.444313058993291,-9.482348881709994,-5.855395553253089,-3.907093841289755,2.7149580043734645,-2.530397973404148,-6.8937728358922,6.577115199787887,-9.688769129664061,2.840766805715946,-1.1194345029988249,6.203170696572013,1.8139087484573668,4.394555794711977,3.005745393176662,-6.1115498982815675,-1.970841633370977,-2.15910936800757,5.216468223339428,-8.627045787842349,-5.5864825214574605,-2.959708816792503,5.087568508364338,2.888473516763966
5.240611182345294,-1.425833575352879,-8.904172615639707,-0.6090657829682584,1.9540356873206086,1.9752968087339173,7.1028429155144615,0.045192880601812035,8.67331851696002,-1.4474606081162271,-3.41086232132759,-7.9154162501023695,-8.208050534070574,-6.1765443593345815,-8.337237521996126,5.228951588406975,8.143116362780702,-7.270769103305639,9.891575803872897,-1.312364028969311,9.353274795956224,-4.268478232600341,3.556915186377916,3.1182963833156805,5.239613311645595,-1.504362682745752,1.7090813588772775,5.193297957964955,6.639851511630123,6.843808495406378,3.2808084382582354,2.13131310164904
-9.899003093959598,-6.24874638855319,3.2325783627722657,9.552374295909143,1.2187752582912577,0.3397083566281207,-0.9393945324933277,-8.926799585464272,0.15431467778525132,1.1736251383253826,-3.6908548997523605,-1.1636015615096351,-3.8364847819279717,2.6359754196865985,1.5225664549123135,5.846663503933376,9.205081157397771,-2.077978973619401,9.984314750625039,-7.2577496254592155,-6.463737218557659,-7.9007150423630845,4.5271068091144,-8.8458365366166,-6.442621357740657,-8.730414706647363,9.823830654016138,-2.4082117994326886,3.1134943263924075,0.782547769886186,-3.2145111574998664,-7.943724247448396
-6.699406972407928,-6.3131360699085075,-1.1871120514588966,-3.3741522565675064,-5.354540964824565,-4.195285871068,2.227584749142409,-1.2092661039805748,8.598506522669574,-0.4190661513171339,5.54272675325822,-7.415619997748026,1.3745107231715998,-9.752478940445826,4.529983531805442,-0.21043018760806653,-5.28807249811972,-9.773334590603941,-2.1788954877923423,9.296925472050091,3.7652287582081705,7.920640987967197,-8.533730729524969,3.629168493063128,-6.3902584778061655,0.5370463655290454,8.894833961223306,3.898734560505142,-8.902360718241425,-9.976508907556392,9.923772344412725,7.21397961764114
1.3491322235127434,-8.58616589682947,9.960595176001583,-6.996570058401701,-5.797839243855516,-7.311808888765361,2.1432584805816273,-7.453582731240791,-4.664660926581048,-9.732133822312587,-5.925006096488277,-5.519594928882219,4.474457299686943,1.950097172419003,-4.9833542151983234,3.4973859938462155,5.77869192125207,-1.0904243172358985,-2.1465705807034947,-1.7048304749654548,-7.975472748399561,-3.0123916636155057,2.7685108238867944,-9.82661427901197,-8.35258536671305,3.301083311112386,-5.247828777791721,-7.337214651118642,-7.869390605238921,6.203656772877185,-8.935049789262612,-9.04163189416106
-2.8633532705377114,-6.405968732934273,-2.3979880620908434,-3.7510049703132475,2.714068113029544,-0.31846469011456335,-1.8606788831209187,-4.064995710978163,1.2578542618188138,1.306765614282197,4.356879127619832,3.0646344243262647,4.202293885271143,-2.404712631615336,-2.4307003770607594,-0.9152062012094664,4.297620365220901,9.659981838921382,-2.682107738800326,-0.6081890602164322,1.5225261232438019,6.696418040388071,-7.023623696187924,-5.441467057291904,0.435349078514804,5.355191972807969,-4.045378689165268,3.163959806194585,1.5804181789454113,1.3761995872223203,5.753269439373074,-7.586015942666018
-7.109891633738991,-7.326603391278843,4.995406688158553,-5.2641853355753,5.753811887062854,3.7322856537745803,5.352544742628105,-2.312467555265874,8.465799073641385,7.624104125972789,4.487112788866003,-7.355765705890236,1.9184059169665666,-0.08001611508152351,1.0995347421729225,3.5874114548108533,3.3869738285828923,-6.768350799934513,-2.9742911906280822,-5.59975756737159,6.826591226713251,6.5292486363715945,8.132249114632426,-7.765600433033432,0.7636675237026598,-1.2062247380569584,1.716025753195968,-9.087754847729595,9.529274673982773,5.415548412302249,0.9622094198026083,2.352810908241894
-1.978132332363188,-4.734293015759903,-8.949457133508394,1.6014882314463357,-9.305953535742361,7.795069958968742,0.9698419654367569,-0.5984336058110067,-1.2925596200872036,-7.605218816872825,-6.8378427823628325,-1.1882318996856878,-1.4392188965324682,3.848362618594347,8.8430939762486,5.196071286668037,-3.6980119512622327,6.0410887801955795,1.3937854274908403,5.486194313743834,6.309746010693843,7.320019152489252,-9.918647885563455,-6.754558393536567,-5.390886973239111,4.1072093551825155,-0.9931485922103569,-4.390978666718331,9.024997744836742,-7.970247409903659,-0.3104428229554195,-0.7735536339610825
8.885513680559445,3.0848262112439873,-2.415448643927478,-2.5367418503573536,-2.5066072537412554,6.8443031553854325,4.41635609217335,8.953836980173119,4.6661960304998615,6.9690491438058615,9.199965788598071,-5.313672784137786,-4.793764015055637,1.567915621402836,-3.898986073735604,7.507454945088927,2.012657307386064,-6.933658224083759,5.424709776366601,-7.310124221224057,-5.5742901514034155,-0.07837776821246223,6.212896640588589,-1.534484113188178,-8.580051840451148,-1.5298314729452027,8.800066770231915,8.461269085369402,-6.077173301443873,-0.6452109757643996,-2.1992943286094935,9.951004609033824
-4.7758753631549755,-2.872716704233982,9.444697806954824,4.163457034733227,2.8216215483398734,-6.370615314456094,3.844877869791322,-9.846214683868435,-5.915183445895014,9.529547683755457,-7.456403042210232,9.938817967809086,3.2682734523430295,-6.509482302920593,-3.1058342283240474,-8.119097724464137,1.9537743991684646,8.276966686244393,7.8901493563011655,-0.3162377080638201,8.121587205331416,-7.321984448057252,7.690579229695064,-6.276662810442131,2.3388064033674656,9.996141524857848,3.4821003371115484,7.038261402650011,4.322946278863029,-7.543027150981536,-0.2944722370748636,-8.23880805033414
-6.212807254617514,5.952468233073429,-5.595991279913715,-3.6918306606497175,-1.1224437841811348,5.49029488636455,1.61102529016555,2.826941366889482,-1.9928872666036774,8.236994314064518,-6.708055156736153,5.532345346638369,4.39314422992104,8.244075769799085,-8.822303602760881,7.371859884530302,-1.045799009688963,9.244480983639672,7.319681205300384,-3.569274258102986,1.6418583456832785,-8.127651147973303,2.8446934822078553,-7.812769779962563,8.171383249217854,-2.2773506286665013,-0.06532989511678977,-8.80123260985789,0.3413393695463647,2.3096453802295827,8.446810718233777,-0.37918856523689826
-6.885060792104549,-9.307878604838539,-9.56070459593381,-6.462358994489092,-7.839296221561973,-9.377498934461991,-9.826696304939762,-9.914151793458906,7.237591941950058,3.709546392439375,4.393281619914838,-5.493932492449547,8.283820655229121,-5.7995050037059315,-6.901441701576589,2.315035983619943,2.3510630083557267,-7.678150824179255,-5.235502282789188,-2.511759727998095,-4.494949731954872,6.870406222024698,5.581133760829061,-4.12762325867563,-8.884448316701466,-8.610259642221507,-8.719179752862074,7.453688208608611,-9.683878613247447,1.7813885185435936,-7.450474506260507,6.489768102282888
8.723859026809247,-5.845725927081764,0.9900553666995613,-1.2679362783843153,-6.498128102669504,0.0645474840097382,-6.174256414507813,-6.957168726195915,-7.600778359795031,0.3889418719905091,-2.2978679809761964,2.4677224181835875,8.757520319681905,-5.031396645173418,-4.611469729819726,3.506162226247106,-7.743327353852605,-1.2468222299261544,8.520645793842974,-6.288966584582234,7.170974960095339,2.8589954509831177,5.062431318461396,9.058922109257633,1.4261398639936207,9.719048388887916,-1.3919060147382467,-9.682948079245563,-3.398158304415732,-0.20583356558487687,-8.425439751331938,1.3111452270316306
3.086775782128994,-8.518657825333305,-8.979475953427867,8.903660949056679,3.669948961858566,4.5977212768106845,4.783199757337426,-8.816647172033267,2.6632057590133478,-7.670312713817282,-5.014698612165414,-8.038777109452017,0.12873577500564082,-8.561648941064464,-8.369430266330367,0.8579582845651839,6.303541478964309,-6.2427741409490505,-8.99007203369083,-8.838489885143117,-5.466171487905013,8.771249388342277,5.928728157539949,8.5957634589167,-6.77911975877536,7.682936450857319,-7.841188929315026,-6.357652097207986,3.3872733454062693,-6.779329511872348,-3.2981929131088528,8.520971601385344
-2.694771278825126,5.882935370477476,3.8646864401628527,2.5187841334401284,-9.340214277776596,-0.23995483416671526,-8.75394404775525,2.378612247522863,-3.9806506889932063,8.90302866527395,-2.387294447876915,-8.590105012397354,8.275630465912624,2.6989824137917218,-5.577245250363399,-8.962028110164436,-4.119866388048916,2.6149432111370796,7.68940469971913,-3.6521329487383873,2.770978498596035,-8.682434580424808,9.360037783976217,-7.5599164791218465,7.961567792908987,-2.952846385468508,4.9489005945935265,-1.9555730737692123,-5.538601599734088,-6.881978559150969,-2.5199953510558526,8.67488820046615
-7.518214309700455,-7.463410423844441,-4.0261342733285606,-6.400449705420874,7.050693623098805,3.861274339682206,-1.1627268093856902,-4.253557235282717,-5.718229627699268,8.211255858431148,4.357730869393269,7.206349738776506,-1.4403768374859975,1.5840681897324913,0.6607470266889841,-3.0584064771689583,-6.020806778081131,3.8590181455425654,-9.870801536596957,-3.677190956520864,-9.364014884334841,-3.6044672302727276,-2.38487412208777,-3.8172041524868945,1.303598377938295,-4.452714345552183,6.818837416036256,-7.999958410191017,-0.17948628205290085,-5.568220496231255,-3.6119629783118734,9.089696653129128
-7.111357537056813,-3.7040555312010444,-3.5836705181128403,-4.491842252228045,-1.0828797651030762,8.407765566214643,8.383117903764202,8.785128145183979,6.051739216733097,-4.047505630879369,7.215534127335239,-6.789704366527256,-7.053937863314264,9.832047206757636,2.456336416018887,-5.3829538886785455,-1.4832522562720012,3.609261408283647,-5.234018985092113,4.792664234925823,6.33175201539099,-6.760185705013764,-7.93608156659362,-5.2340085721332,-0.5800487030851098,-7.176781392192524,-4.185586119196643,6.515452346057074,8.392444310174827,-9.359614167229717,7.434341527526168,8.883795704726023
8.834180976454473,9.116433366884284,7.17819387111,6.010772957166729,-7.008618634135921,-9.772868066962001,-9.098380130154242,-0.45853102281984626,-9.86084123066037,-9.168384971601292,9.440613813623614,-1.9953516749797444,5.7935440082356156,-1.1766706786931316,2.9746846044045334,-4.677705730084602,-4.024687448372191,-0.63866275607813,-7.779553727760959,-8.413811620718008,-8.876033097061036,-6.315177778321273,1.1323471770801739,9.191061319833643,4.5783717156221115,-5.543358335474768,-0.5085827843826678,-1.6200129845022957,-7.676415684223958,-1.949783120022797,6.049490866551157,-0.2611256928540975
-8.221721449335897,-5.575871885745047,-5.104670002782587,1.628917990142014,-6.193537285530908,9.542870923873675,3.9834916198375243,-3.848493246045539,-4.008473582319492,8.925201156773898,9.318066623213156,6.249667071464231,3.3133294883566062,-0.23737071521715336,-6.64331430180466,-7.497742477517539,-5.327922799388105,7.261925591342042,-7.6198635388499,-0.3639768259638423,0.8163163416070489,-7.646558738355962,-1.833783648860166,-9.2871416536113,7.287455963897823,-5.4572690394676755,-0.795388156024563,-4.269621797424163,4.192334625087849,6.9754246288633865,4.279696290908843,0.4246448551290012
6.891785736228435,-3.423988305740215,-6.532910930089681,9.550456639274135,-7.354269902798443,-2.29787753818494,-9.608208211702491,-3.022578175250179,-9.030791622920189,3.1447316933250207,8.034946849685205,4.626297733849343,-7.258695225000791,4.660399080113081,5.814870121309193,-9.006341451742081,-4.886307133830432,2.6205179494817408,4.513500228200769,-7.967946636244556,-8.314188216893001,-1.1741698245137613,3.207788386847847,-0.5682674080988033,-9.467103400552055,-4.446289157783743,-1.6593418436265672,3.174803299396661,-5.093913969471579,-8.07950988625836,3.415672016280041,2.321084569649569
-7.662509338174816,3.556293060823247,-6.641962386872282,7.893467991740543,0.519848164685202,-1.2571488711353034,-3.7476745421365827,-9.767156426186288,-2.9586877800707967,-6.207591449699452,-7.003972782655286,-4.180251145394864,-6.338724440445686,-2.3764276690798276,9.848517809450069,-3.3781784556942096,9.964744894373226,-9.253476043027222,5.346860103506842,7.950093315877147,-9.955199202782545,-9.876886151357777,-3.8682535592498235,-7.107300346209984,-5.348772478435371,-8.776502347522456,-9.47467817196257,1.9805806389233123,8.689671952587748,3.2042381851598947,6.891428899879919,-2.238463102103081
0.594428857099448,4.532526814388538,-4.263381111898045,2.2329024403463578,2.613900368369112,6.0530909418717265,9.644173049438933,-3.4465123388213375,0.35321948549434445,-4.357734700815936,-9.024861529162152,-4.463225120629371,-4.032539533542508,7.978685127094575,-3.728082991190817,8.431317299863963,-8.48124003356277,9.553291375012229,-8.965095191487338,7.634766144283766,-7.140947657912031,5.890975720028502,-7.339387914120725,-7.3730716018731375,-4.629257247650013,-5.5417148397501155,7.446077153461708,5.669340069610168,-0.7826302003265457,9.259961715040955,-4.197411763320247,1.5004533323320501
-5.01598879306572,-8.90471203303975,5.490239838654421,7.196669102210276,-0.20124957776416608,5.535905985566082,9.450239487941715,1.1557038337172756,-6.808261259769615,-5.546929850875988,-6.931665159927487,5.486578463189257,6.6117821254345515,7.019072128439973,8.260368238649814,-8.97394379941293,2.7727338230042733,-5.704190214471019,1.7594751897619503,1.598031519713123,-7.3395149338610155,0.042927178742402816,-6.886864442388719,9.98579225590537,2.637706050718309,3.468493011091514,8.648054859846894,4.509757332954756,-6.074215288225153,1.3763710823509179,-5.43611548002545,9.503776796251707
-8.809543294691755,-4.388927875897169,-0.9177002654501738,5.721978696754544,0.315975646676268,3.690281853315714,-8.778264283249179,-3.644227409880987,-6.0119508994884985,2.5238691662049195,-5.218448743336301,-8.407664949083458,6.498322696951604,-8.016086403972007,4.7546367426200185,-0.2230792873062004,-5.50050139155299,5.842303010065633,1.5098344301957098,7.630386017161168,1.8616282791775784,-0.1952664360001073,5.396294761789253,-4.627553408667964,7.212496897721042,2.572502008605092,0.620062498189105,2.309359595591811,-2.3004637436339337,7.1900661160585635,-3.675020316783826,-4.265657362240967
8.863735770016103,-6.997329896748468,-0.33319458324413453,8.569236005278373,-4.165731260093352,9.300135938789225,3.0670373957147135,0.7290052897797406,1.7759233296194399,2.089367690031356,2.3003480816929986,-0.3431366117072354,-3.5878602583442643,9.403808930913954,3.4706993174063605,8.409290664342759,4.114789179193357,5.858840038442608,-3.5624274617390856,-8.786808383790065,-9.82981278435896,-0.5393129186024694,-7.933387247287495,-1.2690225037940657,-0.17526526045234903,-0.534472147081031,-2.839990050193202,5.203822666888517,6.269952054248979,-0.8420636303413751,-7.641272638452461,-2.704869728252726
-0.8634676406182962,-5.773140524927318,-4.575269839314336,-0.42180107079340345,9.031802894802109,5.691106479127402,6.309719969112177,1.8356684438764042,-3.203257323630564,-1.8322082492209475,5.474657950680138,2.718455700140428,-6.8320393467923495,-8.726031448622395,7.08585770720202,-7.892469546299217,-8.075195201912898,0.0275831698069684,-7.761690364868221,-5.693386490583405,-0.2297456944940457,3.9189382845846943,6.354544462478231,-6.435352754044752,4.61380466584567,-2.4689912405267282,-1.103710779738421,-8.461793423060211,-6.358045670908911,-8.721969735689463,5.27837957523616,4.903247127608449
-0.06228316199712225,-3.8869685596411134,4.788284474874613,-9.958211947839358,3.967105902756341,-0.9724294611558726,8.707610677300206,6.551649728118729,5.4609543081601135,3.079440176891577,6.144309934139262,1.6936273070674979,-6.885312102460794,-1.8713662083186193,4.59924653597345,-1.7611922458442546,3.798228892698061,2.2885618535764873,-7.441061331469245,-5.338408093991482,1.1473891866718482,-9.266659469755695,9.03763490808641,1.7879493337233505,-7.0828387349259,2.039393940018023,6.713953879116499,4.281586695002721,-6.6521821901874745,1.9900807916570074,-3.198079451222573,0.6975282918646926
-5.522358051516489,1.419822313524545,-8.09607287586516,-6.834231035881118,9.028959837370408,-1.3513350382159963,-8.24672810761908,7.366243915777357,6.999299786083093,-8.767652148928866,-0.6114875218797557,-3.4467497681670416,-6.129025041713878,-4.852590060377111,4.286764682660976,8.291613399143575,7.338894323179442,3.9399305075691515,1.7704611182585523,-1.98608335157137,4.128065732327819,-3.8318272445705865,-4.671384246334349,-6.921666109920288,1.1632550473332124,-1.421253578244821,7.683175471992339,-4.2730668865363475,-9.58264512246304,-4.206732830369317,2.093725319759452,2.5995824854411254
-8.974625714722588,-2.5294202315431225,5.002268182577334,-3.798860676826836,5.138903348512258,0.22320324435238703,2.0148222532522535,-8.901626746281517,-9.194668093557505,8.01417328319338,-3.555960040132602,-7.121469969290288,-4.37265919977788,-9.80940908169665,-6.060739417067122,7.4351753524316955,-5.229310610233576,-7.5353057349863555,4.745591406860237,-4.998690637595473,4.664490302341962,1.8993143910426653,8.284369914526629,3.716801691462557,-4.307032192158,1.4624155776932302,0.5486230334844784,-8.851457329656139,-5.2229837700454596,-0.8922997783036486,2.0017351819137037,0.0348872043985935
-1.1538426734243181,-6.0047294364282315,-9.841796879601306,7.1773794252554275,-3.080515200155574,-3.546730100959506,1.7456548340563849,8.972561599232932,3.377176649932421,-7.445939732520621,-7.465268676573354,-0.7049021543448575,-4.28906776016113,2.0119217550022874,1.9840873210405938,9.573090550412626,4.819819153914038,6.842738300190014,7.012772579463199,-7.999817021558346,9.003325842607378,4.299820551639614,-9.308072431431002,-6.364328215812609,2.052164054453833,-1.179103600151187,-1.6747131614618826,-1.4329223960324988,7.3797882605117096,9.469526164490976,-0.2276858536769506,-1.1560727994206577
-6.002761952871241,6.453717518266888,5.755673249096674,-8.5936166816143,5.454391557722982,-3.084976675427143,-2.9242851734290376,-3.5462433308188164,3.2634588488314638,1.8273819001286533,-9.011983463724638,1.9399456601041987,-1.486023150907954,5.408978816184693,4.679626565507498,-2.9758295690814762,-0.6562598067050338,3.0277685274266624,-1.3095581115903236,-0.041522222492854866,-9.629187427003158,-5.830845677366138,3.3291588436804034,7.110116900952995,6.674604485387757,-2.5797102456647725,3.399452610881058,-8.856487256480044,3.1377730935437125,8.914034534513121,-0.24396799908423716,-9.724127950786691
-5.562710401098119,8.289110499052839,-9.011228006265544,6.37621751153781,5.434330580028522,2.7952737067938003,-1.258564556943524,6.27574305355731,-6.468833884504546,-3.086311026756161,9.500536941334243,1.3663127585159422,-3.5693812769751787,-8.5360780658738,0.8081936662187026,-3.738455738426076,9.370733234577585,-2.6810003550578347,-3.47413010440399,3.8748731311021842,2.5210833280835843,7.6073485201605635,9.349563236375296,-8.163873234668566,-9.267699045601379,-6.404523699912675,2.94556638905817,-9.94727345033988,-9.142931217956994,-0.9376111611787223,8.367930203413124,-8.661357900126562
5.886496605821579,8.825661154209296,-0.023819790881802305,-5.048479851216943,5.73071497590551,8.279270740792999,5.514195681640214,-7.516011368234787,-3.1135137563028863,-7.50774703727182,3.9451459017865673,-6.802932315965171,-4.7137148755916325,-1.1175979778709273,-7.3619405521398225,-3.957935360874121,-0.44080368672662473,5.739863269633156,3.1258187847096863,4.664213430311497,0.9837709227225933,-2.80377072846737,-7.003746374624726,-6.9816983657970155,4.558316970508185,5.985174125916773,3.4806483438106905,1.1253945333070092,0.013563581107270295,6.6670611375442626,-2.8496070003829788,8.26922850744436
5.461820125513411,2.1684239385912107,-0.8014479023396497,-1.7241166778731696,0.44698298080183285,5.555833018436886,1.9472292926549528,7.546959390746828,8.167921920789102,-0.25502132820466805,-5.019980112782177,-7.491951931308945,1.2344783716619094,-7.198242566021009,5.290174660872077,9.600947895167856,-2.6914364239825623,3.73226732252461,9.746759525191809,-3.5776195096643644,3.697905964468351,6.14098750270238,-7.227018455519898,-9.263931221189896,-8.159685740824049,-2.9362639766424152,4.356593271560133,-0.9252572988525429,5.173324415565467,3.890100874249086,4.209644161773978,9.674108127724253
-7.48211577713562,7.824418339970315,-9.282642048769365,8.974171850101069,-3.686885101242245,-7.276725424714354,7.8376926658314545,6.547575164462714,-5.15076001984025,-3.259615326648106,6.615616098970026,-3.75488823277911,-7.881043571608737,-9.295777163597144,9.39854055891373,2.5126136935657435,-6.134955481318993,-0.573513974824504,-0.19840405486603174,-8.407173868232327,-5.093741907028644,7.722323830424493,1.4548598068211422,3.0580654010241766,3.662111711852054,-0.9252728221079742,-6.459154547709454,-3.160434535154069,6.056527520530274,-6.925334783183907,-8.126362084919558,3.5217740959252843
7.949753086968588,1.7460502660730484,6.109965320902891,-6.013608971455337,-5.520098969972396,4.965479561233952,2.0481706943539315,2.9806607414218877,8.673149817437839,-6.936757380299721,3.88653937949514,-7.133982826204843,5.118429095324409,-7.327621059577938,5.512290542679594,9.027633649909113,5.028238846063539,-2.6502463134293315,-7.424942835160204,-6.1917189371335475,-2.3398190916001793,2.526765172147085,3.8242949146180862,7.096513693007278,7.305355439106101,-9.66919904437429,4.237583680819741,4.03128717826019,4.5369392519558165,6.968317333310736,7.308316042008393,-2.49718042353172
3.152951785752867,3.9030528040578147,5.108935183494491,9.83828655104756,-5.1652716980504065,-2.873261016746871,-6.353321045935772,5.9875355109818535,-7.398368301290581,0.7714877798443851,-5.843338800183124,-7.337531563717514,6.744096315016687,1.925141193945164,-2.9101852417452934,9.512344105065637,-0.4431314764075367,4.544690754796626,4.582599350383996,-1.5104082516616835,4.389215025716931,-7.032131555305396,-1.2223834848418047,0.7744377821391417,-4.389698842752869,0.3588515345277159,8.277817141067931,6.8026320046004365,-5.192840581862455,-9.515516014452539,1.4524656117622197,3.5530799268977464
-8.652797764291353,-5.246950363457275,-9.29260580565784,-3.021850598825644,-8.190395403941004,2.564588476854343,2.653676892113264,-2.6779106049821717,9.956422089743295,-3.515946895683026,-3.8590183553106456,-7.555863363592106,4.029120630033267,7.435329821989669,7.091533242491053,-3.2786500562453957,-3.9669998510789757,9.775354901811781,-5.645688709218222,-8.24093172089974,-0.918651156464561,-4.8081127391659635,-5.099424899777243,-5.271569698151845,-4.053528617693358,-6.1231660656802696,1.5309245983654645,7.424572333776474,2.831709635603705,5.673468804582292,2.919987183494726,6.488648461806619
0.6357563677125277,-8.0259624706285,2.9190982412687987,-9.117147608686674,-0.09991720041945129,-5.9355096508562655,-6.441562528462592,6.380398471795903,-7.779306778953156,-3.978108935381406,1.619268626912195,3.778006339148398,-3.0800307915937193,-0.8413661341806389,-1.686621371822067,6.572458389158701,8.510702192694069,9.476064061090554,8.45087957311664,4.616052487846654,1.5239016385273239,4.536275712056819,0.5835253337077599,-6.999408304359191,3.2589679861925376,9.885031184662378,-4.137460491717285,-3.3624400744668677,4.52134251146658,2.567446231262096,6.575289178725981,5.060116233048253
-9.693891375051177,-8.460383193063088,1.090761561553622,-5.6079404158904955,7.894485803248344,4.042909923730049,3.7918751031841325,-1.2608916885293553,9.741544321060797,-6.071568093381128,-5.079945016922805,-5.500645186102311,1.8057966683026372,-5.96465760899521,-3.3732263404088147,-9.723786955948698,0.6998294379063967,3.2355432921221556,-1.4602049592074078,3.1716876268367127,-9.235412855271008,-9.553256012833371,3.1992445128720703,-8.78119620127664,-7.286244769587034,-7.438011444642372,5.297519966805567,-0.3878663353934737,3.7417700124132054,-9.813038390441989,-2.577208060108247,1.7053048139912619
4.679620875658898,4.130547074422946,5.815428713191242,-7.176181627344129,7.324427901181039,-2.985489811717404,-7.59962668280874,-8.949794338970445,-6.864115393144421,5.908332093594147,1.8135922574385646,2.2418891572598234,7.5177110625192896,5.607634069134345,-8.679932567276085,7.4266403703825645,5.898173273943705,4.915004120966032,-8.766100363320465,8.543729162938977,4.584918544716846,3.4753198190163594,1.2560269427906352,6.024496236366975,9.686325468855276,-8.814004748176822,-2.8305528083249243,-6.248157485845556,-9.190357182480104,-8.601004887151722,1.4444318593972234,5.880534480116486
0.6394349156383772,6.642906537991536,2.5544685771398523,0.6693628357100501,6.605065166503522,-9.75456512532312,0.9760171959849231,9.074588716620436,3.24742945277322,2.298509715970889,-0.567480589466534,-6.461189110787757,3.644816336511745,-0.7967882431848459,7.492352742921835,7.241182822333801,-3.262761162457732,8.72410327136409,7.194632097762785,9.667643034199141,5.487317976412513,2.3178992097282087,-2.510597836192825,3.969583256950015,2.5980890860663877,-4.289783896612271,3.386516575878078,-6.481811809899325,6.959746050639733,-9.57297795149172,-7.959604446539911,-4.17251223692163
5.615773743236419,-1.0747955911882041,-6.240044882246803,-5.202164390783119,-6.124751751421904,8.767980737380562,3.577720307544322,3.2134314404349027,-1.60188555887631,-0.3190209945287581,-5.173415876556852,6.341836415995591,-6.415503850789371,6.543207686733293,1.9091213777382094,4.488349535834114,4.187381935568675,-2.97425127606693,1.3879567170074676,3.9119100040177184,9.396464463750497,5.861148984043936,7.616722005487166,7.749054966719193,-3.1432038955053514,0.8763512775075828,5.530307665593483,-3.8240892809945715,-8.695822720270856,-4.809832009901918,-9.947792089929486,2.0248474432567765
3.258770648639411,-0.7659611110494886,-8.361090576368625,7.78552803674895,-0.306028787762747,-6.417331370420958,3.5077898890263093,-8.478208488325013,-5.822566489050011,7.507983463890259,5.339472616103851,9.94523779926562,-0.5652652342343991,-9.273073564693439,8.498341164777607,3.603486245522298,2.5313693980853778,-7.490340531182412,-3.251185739702594,8.790020206173335,7.57291625530355,-3.2776879387492404,-8.461730200144403,-8.539435345584836,6.344200460018861,-2.0325443172931816,-0.2064787067255196,1.1703950817734388,-2.233654143442707,-0.6257278782815874,-2.529447625856185,0.03385610266968797
6.491282393923164,9.740471009695813,-5.825562850642909,2.720578474223224,6.5120029855578565,7.7330498022138485,-9.993274994979389,-0.29964618046761693,-8.413712464487247,-6.956074382884516,1.6604792021300856,-3.7803504973619066,1.2802639793054116,-4.174239513475397,1.853686887332957,-0.274631146871533,4.181263303132949,5.625981372532545,-4.867814562561228,-9.53295985843339,-2.8740826183154073,-4.4769162099709,7.388142345990836,-5.063580289619369,4.309688755543046,5.779051664221367,-1.5444307024108177,2.217854019345822,1.4344789642290419,9.140538852839036,-6.52905422688856,4.483251196956777
-9.519146312269584,-0.5882123635948986,-4.932474029684899,8.142821336659658,-3.878655705425162,-8.721809741014104,7.261477750175775,6.718001412855184,4.081960456278971,-8.813235821036402,-9.617099199477224,7.503365953368853,-0.48942724137831206,-2.19200795779968,-5.964943084830288,2.0046497982382974,5.2049803427400025,7.73640957545139,4.155151259820325,-3.9794476281051683,-7.001590794053529,-3.344905765085442,8.088658316830752,6.168397317483407,-9.195480512353885,4.531599791894184,3.793220269224488,2.1531640002664822,-6.190924790269204,7.835724885129231,-9.775227738836584,-1.490941785933904
-8.272270456228991,-5.930602442290671,-4.931700834833537,7.183790047141056,-8.381464413957794,2.1042751415388654,2.4593013202389002,3.0819075124221023,-5.654434261582882,2.030239011415576,-7.208876438105576,-8.896191696607952,-1.0640143113209373,-0.768523763500939,-7.745027066737878,-5.98316817361777,5.876295588306268,6.172417500485665,-5.252100066597181,1.1162516964381801,-8.169974014865796,0.8616907894217576,8.754355171743516,1.4229780373618297,1.9767074374109086,4.795786482621018,5.984048909553408,5.866955658880107,-1.7616064586707676,-3.4224211715918322,-4.024144680767126,4.89593989759134
9.913816882048994,4.0508127236378755,9.155159693437781,7.884297663355785,-9.178266187310104,-3.429129925760619,2.840026030413938,7.821290430465716,-4.546728553790162,-3.244688712076411,-0.9148834334088889,6.308562939830754,2.003322776535178,4.206667274132226,-7.907156001238569,-7.818337758125784,-0.5783548485190657,1.7590268501451156,3.073727577917321,-5.856449279780859,6.05740963816589,-2.5733230489866665,9.017414409452876,-0.24038316284333305,5.960799974019217,9.54241320585983,-9.168036692849155,-2.085123368136916,-1.743653490534955,-3.0123075911980095,-9.682881091849866,-0.6213387522959337
-3.837891967529905,-5.767618298301695,2.111768020018408,1.4385746642771693,-3.6689092128073835,8.060361642539576,2.2786781189970107,-5.896554841292938,1.4961326571802225,-7.610860696172674,-6.960873537924646,-6.232212392061262,-5.816758425134596,-6.960226130658822,-0.3515140649302282,2.9819793363576004,7.19850045485877,-6.0478864620824435,-6.7260839245822,6.373613415443089,9.136619847668822,7.124944684289996,-6.183667789558253,8.561349730623952,-0.6517374853089759,-7.94710672237203,-2.700214371497813,9.067189142359847,5.169372174645449,1.1906057310441618,6.2398809230834935,1.3852172590928902
8.58801729727218,6.188923930504384,-9.204017355896523,5.035427841989295,-4.578582775810533,7.4289627472395345,-0.6600835879707034,-5.464143139735875,0.8270880145444881,9.927203602504768,7.167400425522658,-7.511598905594477,-8.173138861206684,6.622350968882252,-9.737560353554958,-9.015515485576866,5.403208370695918,9.236085180624855,1.7584742882013256,-1.213185759060691,-7.711046331111198,-3.740056432527581,5.3014277552876585,-5.4696406625736405,9.984725096578227,-1.0595245479229334,3.71351953789517,-9.395542313444533,8.473784846262205,0.7623693603989938,4.574400907495885,8.046951456503312
-3.777792916326903,5.427572122832643,-9.358717727783237,-3.8134183584351895,2.0671558410715463,5.296926213971943,-7.245342989568462,-8.316969524456063,-4.319067455719285,-4.695763553448444,7.704152863028021,7.773768318216611,-0.16802036195528913,-3.6093310115846178,0.9809043448213828,8.698585792022456,-8.842745674827846,-1.1928682850742884,1.3287377500088233,9.82201218517864,8.609515837780116,-7.938314876754906,-6.977819635818241,-5.083409195548381,8.182214507506814,4.645358985519959,4.828741594211168,-8.125386623137627,-4.7075881740934555,-7.040360084545605,8.763739652503752,9.12878206890134
6.737982105178141,-2.293644959433843,6.307192942436004,8.898211930532732,-7.8832731814964285,1.154420599614971,-5.7758957799727035,7.250942528096658,-9.96865011096477,3.7384556990049216,7.237586850388183,3.7795630115003576,1.3102903932747179,-9.000656567336847,-9.073331736752248,7.046983246184549,-6.047213126545284,9.929058666706723,-4.697405856922732,-3.1505460993960916,-2.843261917109907,5.614901196079192,0.3790896062137872,-8.485298454407996,-0.06578551258163401,-8.673531476381786,-7.125122400427175,9.193947860249384,-9.532206959196944,8.606342953658142,-6.1959232633170185,6.56392067438561
-3.48914517149165,0.37181840393367693,-2.9607393931459525,-4.599271470553581,4.8980235147663365,4.420900482192868,2.9383026098520197,-3.1034790599948696,-7.269738593556047,2.280042299397971,1.9351752242893472,-3.47130002032753,-9.179954146037154,6.236379263693092,-4.284784212067281,9.330612839403376,-3.2639523813804905,-6.667428331798968,2.61888541924354,1.9553678682357756,4.56761663688982,-2.56973145256731,0.7430162113427112,-4.680240963662365,2.859912877461202,5.593598517021579,8.292783286341749,8.380836210226683,3.8868111311474696,1.3784730056288552,-9.439210153664119,-2.2451129155079403
5.6589388291977265,-4.0819322774708215,3.574809515851044,-8.384940315673404,2.879976451764776,5.608544634121188,9.15432106072226,6.0002894026864375,5.214321722391713,-4.276818295891811,-6.760789584865929,5.707630766968935,2.335578738216544,3.1712384150759974,-9.392702764268995,4.363073593796091,4.69910093102968,-5.050084484509254,5.348919374705865,2.1579242853152376,-2.0858686731000358,7.489546353212088,-9.188831920349125,7.986823340485884,-4.972662041604636,0.8572419788405625,9.633632584378532,7.5389410876811915,-0.16210632433073258,8.61359463250896,5.7729390421915205,4.682037219494417
6.544104600009895,6.630671348154408,6.727690273644601,5.296770764375205,-2.0662024058717066,-4.773764170619142,-1.2113147620469604,7.226282818452173,5.877873528308392,7.611627704264517,-2.256616415320276,-8.773772432989224,3.251549831540787,6.494233784272172,-1.8079265706949244,4.840488975201577,9.041727757271342,-3.1748915489388807,4.645169776475058,0.5853335454683251,-0.13629228467013732,3.430456677343436,8.34279004554245,-7.608533888786728,9.439009655549935,9.184668701308894,-2.050469664021122,8.291574978279076,6.341228702775638,9.80529222849652,6.500148376986068,8.055782425975032
0.08968216164422493,8.685756993274278,-4.086355873213396,-5.387184609618469,-4.581200131853985,-1.9714530153110204,-4.251193907415232,-7.72836282127245,5.158865424909422,-8.18073868114584,7.375542114453722,-8.064641043642506,0.3825261263975932,-2.98334236118108,3.0870574421594092,-5.203532125684751,7.788219012856175,5.562429354093865,2.700538354435958,9.585836777243024,7.297621294632215,-1.1870834841638356,-0.3770946993988247,8.012146216698874,0.7666316843223484,9.657612134701676,-6.354784239377496,8.80938195500558,-9.473272671468386,-5.522512944552256,-9.853855633332863,6.599900283915684
0.10557429432924259,6.637813375499071,-2.7846992316708308,4.338253621246984,3.942883151134337,0.2813564695675197,4.593176244453245,-9.763707690044864,6.514392063403992,-5.213955113371287,8.32100006189885,-4.433803465632831,7.766532440674862,-9.538344372264763,-6.3562589363217175,8.395101389780557,3.37292336656564,2.1319531686210436,4.498405985844451,5.721082026351711,-9.71434956752898,-8.520221432448825,-1.9346725344786009,9.065637598699844,-2.832664532362836,-2.7591210996772393,7.108928759076324,6.797791537784626,-4.168186677415364,3.5186806458674518,-1.7753523812075684,3.560355301622957
-1.2892513616836396,8.17044016576012,4.566517289313637,6.829131275473156,6.668677761013573,-5.637180676260291,-6.548638018659587,-0.22564876432467962,6.474535186058461,5.148208571837522,9.772560181451176,9.503117433426173,-7.9312602764504465,7.095305731740044,5.702472672624484,1.3880997039581633,-5.500145118481754,1.654796844922613,-5.303179627201711,2.3940497446348807,-0.4320498512317741,-4.502794018256888,9.83935753922701,-2.127313495507906,4.167446657903522,6.494966457632771,-9.800463244963236,-5.042940867824286,-7.978127289912287,-5.760605730254049,-2.5446896948248128,-2.648077483295534
2.4843768568367857,0.7143179741200747,0.885938657795089,-6.581020119189596,-4.936479791727903,-6.213739964135295,-9.99267278650551,-3.1752295303666545,0.7499126897208939,5.435837146760768,4.923433277006611,-8.575740639639779,-2.1609382402886173,-8.451205658340921,-2.7854743361119727,-8.209340993529977,1.0363200267783448,8.927043348945304,-8.34981715186317,-9.442188278017529,-3.885181419524111,8.764561473722281,9.98366148929906,-0.0458016085487678,-0.19821816158720473,4.734389808444215,4.206359950128684,7.1293817930248125,-6.5475857977466445,9.843673255026985,-3.502271512485489,0.707544681367839
1.466241055851265,-2.0297451276340395,-4.405068907932826,6.026882590391576,-1.7324632792165122,-5.497454371180108,9.171177129283254,7.537231561618128,-8.69627966725061,-3.9319057122930845,-9.209732655275243,3.9693438945291746,-9.867418339718716,-5.219852914066532,2.73063016841801,5.497825337448237,7.190454143086551,-5.07601689323838,-5.230417675444457,9.344698742341585,5.507680112859738,-4.369877485328777,5.009035850222745,-5.755627446061453,-5.857747902536927,4.352449113545731,-4.294188053844534,-3.7266908353292205,-4.305755792462858,-4.187843968322406,-4.992892413508825,-9.908021178388879
4.551435581567363,9.615401714996803,3.588334204607227,8.317643267772418,8.22861264132197,2.9776865442918226,-3.5543190928083668,7.6375088725132585,3.7094230146012244,1.9701445578196193,0.5789893198875067,-2.597056597336584,-6.211496474803013,9.995810128269454,9.708862608619484,6.049492890746539,8.783728573914566,-5.018554543386267,-9.486892081620958,-4.315588129541967,-9.21364440789244,1.28429113536615,4.127237635230541,-4.306393581152374,-5.717868013934442,5.800697574981008,-9.724605641596963,7.116752645788342,5.201122093922031,3.9135215250755895,-0.2495984314875237,4.6194803449396655
0.56735010161111,4.990260564800337,3.057007277785825,9.173759414175098,-9.877698477377834,-7.963963670239796,4.041064449035719,-3.360842813776628,5.954800644409502,-5.650803159376738,7.714037243192529,-0.8684183835275245,9.536293045922715,2.73386370016539,-7.754301818852857,0.6433400292358975,0.044327981085325874,-2.752798960005565,-2.897480304173488,3.6618607891850914,-6.446332145231128,3.4716364438614775,-0.14104050529024192,-0.37169844896542514,-1.0706358004122194,-7.341183499806938,1.9023901045659581,-2.1806634640962326,0.3664241130924122,-9.066317823168538,-8.358254426245285,-1.8314195955860129
0.6979508616095522,0.9101626997576417,-6.751876252127998,-1.5715331447022045,4.572227882861055,2.444272239158817,3.9469083801959073,-0.3501106255714337,-1.545935679903982,-8.230491406569376,-6.91126265558591,6.283099277754779,-5.190409411701255,5.341409596798691,-4.265590833609396,3.3318127100162105,6.166709804145931,0.39458480439316546,9.23205961951195,-6.3580133319305805,-3.1596397630472595,-9.074356444931679,-9.819618435982225,-6.2714338326261965,-4.639836624295417,8.704958462235005,9.416048916976447,-8.343730150859038,-7.361449664858501,0.7616673967408776,-0.07605502716102563,4.665201970959561
-3.6784519389366066,-506.7550487740397,6.070049930028947,5.238221307939693,-6.8426964609173835,5.749766485181546,9.498820077402485,0.10525066579600306,-2.0474548117606384,0.800087322628741,-1.1513958598772547,-3.6558449366957664,-5.275033049231112,-7.857283455261195,0.6368276375404243,-8.588933028852985,4.873509539054604,3.161326377836337,-6.841349814873523,5.746320795863509,-5.109900246994745,-6.663202308520592,6.173883279611939,1.712354259095342,0.11073363822954008,1.5576982302980227,9.75347497483553,-9.460913762417633,5.331341602933946,2.5429810552082053,-2.9264912035021196,-5.11156998494527
-4.130742139998899,-7.044805776484915,4.8877982021865165,-5.130034004492668,-8.937970268187838,-8.698838663795181,1.916677338071505,7.343447185671323,-6.038986734956094,-4.491603322267559,3.901350349177541,5.1555525831303335,-2.1223829864056842,7.434632888806373,8.182064554566413,-2.765210351865905,9.388691616937347,9.144830836395396,-3.412177394521507,2.609553536925553,2.9988693273359264,-8.631956168417945,-4.15699067191003,-4.475288091971931,8.146802051840957,-7.128113823154541,-5.348979890106373,1.6445092942395014,-3.0447314406789534,-7.997865432851818,7.777277215990502,-2.8501282065705684
-339.02233945549057,-503.64107304264627,-121.09901078158789,-15.95259168999695,-12.243192665502754,-6.344119819289751,9.85923533309884,-9.34175450168058,-5.1437046293643,6.083772926711518,-14.680822721942224,-3.6174755327737795,-507.6505038541322,-12.893243432492472,-9.193941184616328,-500.30192155925613,-2.797277118236387,-250.85572173662965,-5.638078048764104,1.2898574066737147,-13.619197406026133,-485.4578018521911,-13.819416699064268,1.4145196667971258,-349.9939166463758,-0.24508150966025433,-308.8023040832473,9.802184068292066,5.523495461376363,-33.872081512262646,-6.4479528381679945,-8.73890735957132
-1.7430388546853681,6.156563027143008,6.01883277889598,-1.9421843299148698,-1.5627785222585722,1.5936346246628688,5.735639085917031,9.829140640038673,-3.6307977897251824,5.897116391933583,-9.465917752362337,4.675217158573304,-2.5284027711270856,-7.929843840858604,3.8247580524665192,1.5964324492738502,3.1994666574214587,-8.495434111993546,1.5342867857890425,1.763782278619491,3.448432106864363,0.17739229624954334,-0.8766452903064952,-9.710782500487497,5.30338047106639,5.433504616640281,-7.0638195953533085,-8.822148967825143,-8.852480000238913,8.025066121747795,5.354918979750462,-7.274168993236292
-339.60970552738894,-506.8673181764308,-120.3958327629006,-19.91208787728069,-0.17059604154213526,-9.937754376473837,5.204879605092749,-5.810066896875439,2.444188945043569,6.422034535561341,-12.85986789710092,-6.2972615514646275,-506.25361313983956,-11.880274587517631,2.863588344912273,-500.7347522675466,1.145307482451667,-248.29475209726542,-5.814160084962252,3.097336095017422,-3.257645236905084,-474.47860085839096,-2.739111595017919,0.2521133030409747,-342.62190940847705,-1.03130056071973,-316.0542939078473,-2.1452317651483024,2.7360370457688252,-28.478689973576827,7.12399650677475,-2.2192450539100017
-8.637942601373336,0.2254836699592211,-0.5069802331971687,2.536679007929287,0.8501612007205122,2.363660803542979,-4.10116177123027,9.393684463594042,-0.8918497828757985,8.13703128468245,9.995899088100483,-4.449321337064649,-1.6813789359663112,-7.4323206868881915,2.7359759346196952,-7.665514620250917,5.203613848402895,-2.747442811357674,9.49847517690176,-5.2023094656787965,8.538006349814609,0.7202684648145752,-2.4918358983909705,-4.014454708016375,1.2483363164935746,0.23718648877700588,0.8299334175854014,-7.745980903013421,-9.289859906844452,0.8450707122882566,-9.552273975869737,1.8769697426891963
7.045970350528578,-495.642461066936,-5.808340634848976,-9.640754903039987,-2.909622473863934,-2.659041848944952,18.31380199228798,-8.438540558333226,12.453892343526029,11.00467082389629,-12.89310427660731,-0.06694765917095502,-8.4065792092309,-3.5192248011545413,4.167694581207666,12.623776737115591,-5.073675983153976,17.357328149606328,2.769218003668275,-0.7956593524789355,-3.1477763892730906,17.011611737236905,-1.5910270424169095,-5.844579768674478,7.370519241227235,-3.165594111621477,6.688414580806704,-3.834922254463763,1.397132297961321,-31.79829382585729,3.31749157774272,9.09612682494236
-2.394425932572184,-7.656217044908207,7.594776208809609,5.922820353594156,8.525624394156605,0.08430557109307202,3.4807402243647942,-6.390525832553935,1.5595987578606962,-6.266494966228273,-0.9206709357027059,-5.508220028621398,-8.178456182820648,4.137648327884747,-4.053555452152635,7.7669222428825755,-6.262710378634216,-7.763625445845408,-1.7674574639890128,-6.963073630737478,4.996173959663226,-0.39362282958934003,-0.6848775122050021,2.7764644295621093,2.646393075060532,5.113638691539331,1.125791397793387,8.031995780463884,-9.253359050067665,2.1189887592053793,3.8310049099943804,1.2399768848005017
3.5723864527865876,-509.28388526982627,-2.784746536250779,-4.009626058941201,-10.675312314038312,-5.403980734836981,-2.695079704576912,-6.235889265413896,-6.156621379011575,-8.761498366675028,-16.54985825811087,-4.720061105100875,2.0261417962588375,5.545923312747764,-8.487119372420064,-1.797165942485738,5.863292946923975,3.6951800317066033,5.721923365314176,-7.198892222366317,-8.528337650421303,17.23388630508937,3.000996423299463,0.8440973097747209,2.65721055716244,3.1013222823057767,9.86494655981081,8.63738056410035,3.6021380070377216,-17.342075213465385,-6.437547352251777,6.9155183021730515
-0.6313192996996815,3.778449810976923,-1.7658321538886828,-5.129666539993957,-6.997115246813932,-0.5295571627979445,-4.76110138965937,4.369394252042984,7.682763112742986,-9.301740242631409,-0.6715638028909225,-5.594829580668446,2.0015675060941636,-2.42491052864313,0.07214137188128689,-5.483284914627681,9.962603914673451,0.37989935127776064,-0.6258354294514579,-6.570070157020198,-6.950770617615376,4.022786968742553,-4.332124639938986,-3.143523137811872,9.828624281939767,1.1419821230687042,-6.572479147564099,5.050747089597154,-8.548404198840437,2.885777637359478,3.4370881750156066,-8.150044244240194
-0.8076715809326167,7.7094284828959445,-3.1324546229650307,-0.40560776000368115,7.290029853842029,-4.895954560125544,-1.36503269421652,8.522519815408142,3.1534128278076174,-7.914517790288791,2.3737567817678276,-7.80070297547894,-6.018048922351178,-7.259846949893676,-5.833074821935115,5.564321465012625,7.90300271144973,-7.239135680709012,-9.558096392556173,-8.488928109801748,-1.0412647012458915,6.414334652817246,-1.2416263309293196,-4.455244170450712,-5.310486169716498,-7.416508933458966,3.6331949757454822,3.5570266458243527,-4.4689426404941575,7.411884217555993,1.2682263307160628,-1.707067040379414
-3.490814953020007,-2.0831811387325994,0.3952714822962662,-8.238383389921836,7.546765716399413,-3.38821869802028,-1.67788800099361,-2.633036594156377,1.0399182789739392,-5.343951075897799,7.130506203052946,-0.454053059519568,7.771981175282104,-6.12584931216108,-1.0050582289394132,-6.742979644418822,-3.5570980213088603,3.078478831711921,-7.582155706141613,-6.745889853574141,-9.115910724002083,8.428646097509297,0.6083022947720789,-7.832925063770748,-2.723882292771684,9.392348715959177,-2.8520552771016083,-9.149907447309968,6.260385646816989,6.776585252888875,5.461724152225294,5.239132200658309
-3.3509651982001376,2.2354673197512938,-2.951185432600014,-8.750660237178106,-7.975013806976399,6.6311810350388924,-9.64695802963124,7.781602991337728,4.898450315551319,-8.375877023629474,-4.797380227138004,5.532873384259494,-2.498421326480007,7.224165691770175,-2.185344162113278,-3.6281439521912624,7.878117654702706,-2.252780235096594,2.6115397183908264,0.9949318634024511,7.560466770477813,4.75095397848504,1.6209135212574832,-5.173653367079569,-4.5423400790500885,-6.208105649503121,1.9002108813471672,-3.8241620024268457,8.250746690407937,-5.087637759322665,-1.1471033458961148,5.466394667494324
-2.9525967592507314,-4.754613296704068,-8.21605418276061,4.090784229567198,-8.802998009890553,5.175052763464436,7.7581245999003485,6.095779294962217,-6.576850199041719,-4.645449556830641,1.6410559434297376,-7.020671824688936,3.0873020299844196,-0.40486591440984476,4.500333581343778,7.052050200313978,-0.6613716600801851,-1.02440391286226,-1.0510167478757033,9.946065042289106,3.631042151885932,-8.852048368560798,6.900667518713881,-5.539293733356898,-7.394785144750453,-2.396747271417194,-7.227219938943277,-6.9712090319726805,7.133767342700523,6.945496021072358,-2.726405558103271,8.808829659479674
8.75942209641288,-3.9432192299502544,1.5747095746588364,0.5504729729319813,8.35399968516851,6.573548889373857,0.3149256147770547,-6.7777143618200375,2.5557554789920562,1.9739007605946473,-4.660030516191869,5.785426604718706,-2.1762470495464488,-9.541765438250028,-7.784557697441292,7.917194936217985,-0.9606276955906701,-2.6887475682657787,0.2608162746609928,1.8082995329479132,-2.361344468239812,-2.772400013203593,7.153190648208078,-3.397865608696038,2.6372622942631363,-8.384390777685496,0.304239365535107,2.9045500813236025,-2.566760498466092,-4.914551235114049,-3.83227400733392,4.757170576387978
6.336670911298107,2.0776092956482124,-0.6085423467611388,1.13447013018747,8.8713318933778,-2.702350821593063,-0.4236420848258433,-5.57679835733677,6.945096076356908,4.991483306396793,-6.401680231545535,2.463321400940746,0.1537215855449432,2.534802055825695,-1.646795591680192,5.241217900672607,-8.133257689962646,-4.245864616690249,-0.35959928529025476,-9.16191251542138,-4.060387521891842,-5.056171312285125,4.494763093823957,-6.957570721213409,-1.5750110338177077,-2.0202521339451724,3.0508042735230134,-1.4366037151564264,9.280040379879043,-4.16418397766301,8.713069661741674,-4.462513852585137
7.814806909086535,-1.3313897253632483,-9.11299442355128,0.6700963953759,5.4654906892351285,1.8427147660266883,-6.425637084991889,9.06203310290573,5.977118592588649,-9.468924167898088,5.439736788542859,-7.198749633757576,-4.762703799553627,5.381560244659699,6.037944700999617,-0.46645536158656675,-7.263580891820229,-0.8709564615050311,0.960224894788988,-6.410833945598302,4.6772910674601995,-1.1144180445525151,6.004702739333343,-7.76863438501471,-0.7730722042614424,-1.7653076915446508,5.051432396450245,5.83005936290478,5.592832662872851,-6.8529950867579785,-7.4892267105408905,-6.247715074938524
7.549081907479803,7.48854893769596,4.321209377176899,-5.443084566189674,2.7976525524330427,-1.765512359291744,-1.3944704317665568,1.547636063458235,9.078744390373085,9.118118203449992,-7.774438965837501,8.232282206131185,-8.797653211916248,-3.8702669872075006,-8.218185620965544,-4.903313587653148,-6.098739085775047,-5.481051848041667,-8.06061289036479,0.32369779620733574,-9.237999772922443,6.610191936245602,-0.12215067042700767,-6.644565149611699,-5.08994706883975,2.302632959899997,9.141969420121306,-5.55680470662864,5.874912691543653,2.0906485136882313,7.178865079233269,-2.5587816536865082
7.22417506079973,-8.4477276994601,-4.036848165514044,-2.1079554509038445,-2.4300418880324077,-4.436657770930042,1.1474030516341216,9.121953854888027,-6.936742567201019,-6.02864755726827,-5.200166796726293,8.184874497026907,2.0401341282046523,9.906573446925158,2.68536436149385,2.654562488129139,0.693706951796031,-8.157837005974029,8.066234371038206,-1.063300050160123,-6.263443893569569,-1.925188333094761,7.244964311139874,-6.549405180747132,8.961324526102945,-3.6767181881820443,-4.998240540962067,7.438747104007138,-8.162354759997314,2.1082975685157184,3.012020945843439,3.5807261522593485
0.8798148097472023,-9.523106358545697,9.662127018869725,-1.4991447970121907,-3.9092894806806022,3.6477564866507137,-8.015527845624646,-0.5523748583780801,5.35874655779412,-9.895637253442768,1.0159508529452737,8.604415715643825,-0.5904919383865685,3.729832288103923,-1.830272575743269,7.630031750626998,-4.739732150709585,7.764250593829956,6.624151147877452,-9.229196391099334,-1.2618389079098122,-0.337632639921404,9.604602429935738,7.052618399989125,-7.298897222928586,3.773337397031966,-6.086239119270398,-5.579751463398479,7.428882228221326,-9.240541972083463,5.350335587547587,7.004589690317079
-6.840184214890623,9.11569549001705,-7.024805980328999,-7.763658058316462,-7.061506380979865,-2.1296447617942116,4.1847968042387365,-4.339839441418995,0.7444146224820347,4.077710187066357,-6.325834032414194,-0.9653933797317471,7.208960930194458,-3.763879823029905,-2.996068054290091,8.041985584734903,4.892756714949055,5.526194946685376,1.7012930514232565,0.3039324862888382,8.008717178228121,7.504061719314631,9.631589227390307,8.428853025088323,-7.224827846008727,4.951824751362251,3.7299483731111582,3.1834959847553197,5.378749259858765,-1.2515312799803908,3.542834466080233,2.500629568037585
7.08821750775417,-8.029210840530139,-2.37439330156179,7.0502445357109025,9.05251899432038,7.734401768274569,-7.260911593439639,8.811100434747999,1.8237463402923666,5.6849507084498825,-5.973588090151479,-3.147867901811024,7.414749422912774,-0.49006787725344125,7.906217397094615,2.3481657324365752,2.9060428047357956,4.9442030563703465,4.78079155171201,9.86572914952595,-8.797470367145856,-8.9788694530444,1.1596422481470707,-0.18980016686437118,-5.8680486879970495,8.954348697847173,1.6627284950840586,4.359274129949618,-5.164539218921476,-3.1690870673727396,7.1937738401928115,-5.713849248568139
-7.133535576769264,8.591884128035709,-3.5292041974137067,-4.513212046172095,7.9725315779983,-0.8950094184294812,6.297426466382628,-6.744772632899469,-3.670870753907942,-4.902825374881505,-8.110604455780344,-3.12210026857276,-0.6145152071425048,-7.220504015723455,-1.276888024081975,-8.020528378005022,-1.5206734945570677,-8.293013299233557,3.3291239358995632,7.033266158713769,8.536945957852183,4.426259675026007,0.9972661601899304,9.819069811922102,4.777062284895827,4.2831316399310975,-1.6710294401099866,7.843862334154036,-3.6482838085474096,7.2411571534142105,7.21447165441521,4.335812267199994
0.45116733397798825,-1.7932954409039716,-5.356257521294703,9.798272328843293,-2.5596299618286604,-6.804720176638033,9.340340923596116,-6.984351980383647,0.9491200546539105,-1.6723214657933045,3.391895559533328,6.9960826057169925,1.1726299715439659,-9.390267727306865,-9.337771345198249,-7.8131881430307715,6.31542132075165,9.083687096521789,-3.486999789710346,-5.523435111370798,0.6395137909923889,-8.686304323900647,-9.830625851285415,2.490796880471306,0.6099386239398541,-9.053843380495712,2.192918198381273,-8.867614667436367,-0.09250827905189851,9.32144224037274,2.845352270058793,7.3457043347586435
-8.783152961997782,8.827822401257254,9.942057844310902,1.5076344985829042,-1.9854616888166632,5.432644846953538,6.776944338279197,-1.2384791371628872,-8.738651358572309,-1.4148919675358407,-9.137345975189925,-3.041120095321464,2.2679957075927053,7.505657799091715,5.446306394708245,8.281536023790416,-0.139356988311647,6.753514153606211,6.239146103804966,7.176436872966896,6.279375271520976,-6.44938272895025,2.965845862834186,6.979203546876747,-5.619920767845055,3.828799946689861,6.236485652803605,-0.6356601227443281,-9.425943662288939,5.251000627731607,-0.5489052783445363,0.18980734403376154
-0.3405617452804499,-8.058248652419302,7.52634411091827,1.5233300591009442,-2.9083447475959474,-0.9095357142265588,4.646761286851252,6.227388803270266,0.9215581484876179,1.2309228620405186,0.7695493518633576,-0.01682300679122406,0.918729433744339,-5.597804090905639,9.208974551060574,2.631838025969886,-3.818806227061085,4.500619605519242,-9.815123662659568,7.7908755701705275,2.384938380510558,-2.5419364731588416,-9.515779764713502,1.0551587378485436,-4.882633349224759,4.959979374923426,-7.843538832569308,4.136168867084116,8.183844530506711,5.418187836699179,5.13273327686435,-4.126664323811062
-307.3414730360469,8.43787863071515,-69.60959281718007,-9.0104706755029,-7.49993653281142,-3.0651454735389816,-2.1847003402357696,7.428312920086292,-3.4925859696692303,-6.361608018469875,-5.584525105711638,-4.541788590181445,-428.3856629120004,-17.269745712486593,-8.680494556554375,-492.9768870792493,-4.258395945536795,-217.91052628376093,9.075061792867526,5.596411203110838,-1.0230084704659284,-492.33651495628084,-1.5383924127261714,9.716679449820425,-277.4497827161703,7.653824523929536,-303.2832301945436,5.191186228258829,2.6318988612421492,8.062437640689822,-497.9742239078926,-1.7059147434841258
7.24319312257569,1.9032743724188723,8.560526623026494,-4.866561354094696,-1.5135521895411586,2.184928665145465,-4.01735501612825,0.671645528252407,8.725422188802348,-8.194587457572336,3.402819070981778,9.364079146192562,-9.652163496200716,7.514015735108657,3.9456686390118545,-3.372048633419471,3.8304506467002284,6.333993331769495,3.932220983843976,1.3762189942439598,0.4221148045119367,8.53307431088065,7.370271082112794,6.285347810202403,7.962088309134121,0.1989012281713638,5.610622487425891,-9.14483572857234,-2.6549594599122557,-3.2405930918459314,-4.2859620233341715,0.19489836560300589
-486.9139986366504,-506.3853480849381,-121.87762626006014,0.23523136841336623,-8.54402799087232,6.393483736814691,14.281066547771752,5.364274957665603,1.5226599789163995,5.263647907863213,-1.6380683678867793,0.953349373557689,-490.23510812998586,-12.73756574184314,-3.785125832372036,-494.1126417605924,-6.123047182603887,-348.4514371992717,-7.394860932647866,1.192457467152666,5.1589169976886975,-498.209788052704,-1.880186502766354,0.8958845476128567,-446.0934982894593,3.515685383413686,-462.8073843742872,-4.642749006001488,-6.156249463351874,-9.451419462998768,-489.0813062147525,-1.546014629778945
9.596042805213589,0.7442001220554832,-6.161929511431978,6.449518616098281,9.263872783182219,-1.11471048151901,1.1240343745534513,-8.538786837589123,7.329973088721637,7.057780552617878,-0.7945513470116481,8.968694011535487,-0.06158523366595148,7.264137530941895,-3.865459862836717,5.255400645782677,6.081135897484966,-5.172950592144585,-0.0834925808761362,1.5318329321130193,2.003169908117041,4.955924149070853,0.030032923296088754,-4.310947818244832,0.009714765299584371,-7.22156453875675,0.45746254951468046,6.281260543173374,-6.445785104737666,3.1133757210704367,-2.560820476771644,-0.5146194239855788
-487.16490800244384,-502.6487542492188,-444.141128225053,-24.080021601487015,-11.417155307896719,-2.5097428338819494,-481.51647007841234,-1.9765989844164302,5.6327370368038885,-499.91547655486676,-25.376874085735306,-6.074223497427038,-505.8842001199484,-39.51518593139868,-3.7898497934951454,-483.24416408238886,4.844409796550714,-486.042327457676,-0.4108275412534734,-9.132894096910748,-9.188437300552962,-483.1110633447067,-12.628397919602358,9.173051085264557,-490.26590863907893,9.074981327859241,-481.53614101879396,0.05297755957996808,1.5053393997820455,-526.9141467184979,-493.00496245995754,-8.416254142337563
3.7709672742978366,5.527422445909913,-3.7531057902912153,-7.968840773185423,6.922279413320187,1.8540584411094336,-1.5938420970188787,0.22307492790389638,9.515800229512461,6.333508121982735,-9.401965584095052,-4.647468151855372,-4.982723953336214,-4.376061467777825,-8.08696597546637,0.2706886225886542,2.789026259843597,-8.183693933213354,-5.1261370318890425,-5.175915911862489,3.2651414774446117,-3.8003113472064864,-6.58891502617627,-4.3732529177993325,-0.030963911703006275,2.6828770994617095,2.312766282389518,7.87789121628397,6.053150098665483,-9.777366556379658,3.2325704657323744,-6.605907338522277
-480.5428488085393,-473.15140251342484,-502.58900217705275,-19.693705753908596,-8.40564032917732,-508.6053650620029,-485.75062929045595,-11.951255429166732,-22.233610663104713,-496.18429604127044,6.8481896246332665,8.70996684351435,-510.45750905466963,-73.91705891432004,-5.155633995516153,-493.3671182960468,3.7904062634668385,-478.0688144593016,-2.7162337581751794,-1.526693380267429,7.2815231876537965,-475.2794575568879,-0.9458375579455343,-3.9723022346467083,-492.086378302227,8.75970095226861,-490.1597100788911,4.299727044029697,5.987510164699216,-432.95933306242586,-494.24391124371016,-2.2733060141251205
-1.36721958060323,-3.85830519536706,-0.10875557929614388,1.4598099165838985,1.5038406053079623,-2.3109540887429176,-8.48487579977834,2.8275808411810956,3.0985522354366335,1.852615269164911,0.5952087521764042,-4.270382163541491,7.952257505426854,0.9682721896580269,-1.0127815832610416,-3.7931874431408446,-8.999227176387858,4.978617428070635,-8.334193223977632,-8.70353609342648,2.7502555786954694,0.28734922360006365,6.307729962925865,-1.850978332996224,-3.6472138228010564,-1.048203729505694,8.62152040900407,-1.2017218351868326,1.3917497754808554,9.939660400622145,-9.996915243984361,0.6612039673762826
-481.2824154307038,-431.97264770326586,-502.2190337859583,-9.746127322494395,0.29458857079706524,-505.55117432324965,-486.90770414895803,-8.51342785685755,-19.705547994793868,-486.00335106575886,-4.010443830234121,-5.424694959670488,-510.26031990937986,-86.85551553230277,-8.190917195086591,-485.0304755944407,2.923065123378345,-478.76619782015655,-5.71465213788973,3.8551657013448297,1.6573372700463627,-481.05188378391824,3.7243247704706217,-12.179833679701643,-504.8769772746366,1.4925741944166973,-495.03407752219834,10.679515451670397,-5.332173581137852,177.48883889813177,-0.2929295711371793,-8.01373154893538
-5.538353302687849,-2.97297609891533,1.4634588971671043,-4.976093486071309,-0.4627223696190885,4.514499192128042,-8.748182857533761,-5.245073931601314,-1.429258405000752,3.400515928838587,-4.001369482459552,-3.387810864499383,9.84755478362538,1.9484289924215137,5.293774074483668,5.839900145099223,-1.9560249071063893,4.9731832992166165,-4.23160091406682,8.224877104960637,3.7518965287582073,8.775142034154278,-2.2509635197174056,2.0390787613730055,8.667923655938317,1.9979944427982375,4.74684425875841,3.289212573636588,3.139397445230202,-2.6944120742651556,6.047968592643905,-8.31327793264036
-471.2142251996438,-491.0550966469035,-500.4168238435795,-16.255356570846907,-5.172938874174996,-505.86599478153266,-502.4674378455888,-12.008456594774517,-28.598277813084795,-492.1598054746883,-3.615367598336725,-1.379513968211973,-494.23730397478874,-42.680021203544314,9.012102458891828,-479.3501249223597,8.54153496315229,-475.9812483793937,-10.636570091445435,-16.124674831869218,-9.001251002359114,-482.748561208224,-0.8056134284809158,-11.99014745830727,-494.68710246052666,-3.6579309422820083,-480.33940432302376,-11.27455689630657,-0.4011075245867626,-11.678339399810138,4.408342230436017,-2.033755514661717
-3.0381993740904907,-3.810482893840719,-8.177487893070392,2.5222866940569926,-9.997626967249264,-3.286791251904675,-2.0183707133693414,3.3581779272751984,1.5970376280735472,0.31444903829495985,-1.3382319773409552,4.260251394030906,-8.294866924753357,0.24498632321881253,7.839157936129855,-1.0599049834108953,7.594136302901461,0.17681066061337525,-8.227563752702254,6.3590784315820095,-0.5904248287251548,0.6333147939358206,2.5855779746449414,-1.2548895411930854,-4.553015770172433,-7.510345797054678,6.7586179650468665,0.2860802502697162,0.08669732478555403,-0.1166060031057814,1.3030938236934126,-6.645595669739375
-488.7899246461524,4.7225112137515985,-204.41362947371556,-15.192539969416083,-17.027937834393263,-1.867435986999702,-509.102603643824,-7.706702046772163,-21.707138031697866,-500.05883076622683,2.494317568622165,-0.6479496236988709,-493.4213104669534,-29.70271822300976,-0.6588147418436741,-479.54157529253445,-2.7721593068482324,-471.5363337224953,-3.8922289258428977,-23.918552617332,-5.157586822882978,-506.9085480884906,-8.675256701575302,-4.466199295657791,-477.1531245896106,8.94432915680196,-503.1175982380329,-17.242117378828453,6.47733456295088,23.42073802418605,2.0417503688228593,6.142157812769511
-7.873939738638242,-2.324802539879407,0.8367462144767401,-6.3047647597923895,9.966994182283873,2.0647963941584724,-6.544408759592335,-0.7188472250226692,2.7076803898800765,-9.011746046953226,6.207164549532681,-8.986428495942274,-2.5592956110349796,9.40009448331357,-8.783913467109512,5.961690990876296,0.24466517313838665,-1.2520580519901454,6.89912586936866,7.121210402143042,-8.277411483627088,-4.334749428363908,8.680189121430843,-3.1333934125965897,-0.2028480910314805,-9.722134843837386,-1.8318626356106051,4.819644818671851,-2.6845181308522044,-8.609532769107176,0.4204593178968441,-4.624092454430835
-11.36500608094909,-0.8469218634717901,42.902570164710966,-24.28739424807181,-1.7788676689518788,5.175779624332009,-493.5367963129675,-12.680902589722685,-5.8844830282765646,-0.3104605530883626,8.299738738323047,5.439765145311629,-73.511995920584,-11.347137206830922,-2.84094587062447,-114.3110369024057,5.122573350268155,-49.21071303024095,3.3284632644938266,2.3956908881251193,3.447100832212525,-216.64939943222555,-3.0709645376587247,-0.3862057647817281,-28.704450866178725,2.4098986200321786,-124.2192804126413,-18.913133479541877,4.20252743425589,14.18373506678114,-2.9464092848736834,-1.7021353767734375
4.611618020367709,-9.953384421084404,4.0496011928600755,-0.7656319500217119,-6.767405433413234,-7.474154198006204,-8.53148368263511,-5.211339851600572,9.174924244457493,-3.0254385427073753,-3.024740634031689,2.7905730883718416,-9.271723363012397,-1.0852829325148239,3.5115995795753374,-0.001233017532246805,3.3370714886115103,-3.4859826063009063,2.4716743688996523,-2.5280250520829384,1.8908257809565967,-6.194182872026324,-2.7081509752551476,-4.511882322336572,6.942112582173877,-3.0567068503045185,6.308972679085571,-8.36691304147206,3.7829536085158892,0.17863149717804205,9.452681244883006,-6.77157172812616
22.274188589035617,-0.026571600493708658,8.984402166112059,-23.828589909403505,-7.096397408891104,4.807464351023336,-501.80632029246595,-14.664856756136231,-13.969795579203547,9.71617498373628,9.864864926878386,6.506784288162105,18.708003314772096,-5.785410563437418,8.537024815646276,9.201497668688654,-9.639806838952268,8.796947348010278,3.0325877759355193,5.957337224668989,-10.316428421512994,5.116071603343359,3.968926082094093,-2.0888185839736746,22.39151992015593,-8.021733496292661,1.9426296200206963,-7.20391260643353,7.570922639266765,11.858722326812904,3.4383933817027983,-6.78474228440569
8.248235872789017,-7.977307513159381,-6.5660339608228036,5.232795794631311,6.6102899604252805,4.0417807186494485,-8.081769993364237,-8.647575763194222,4.763862195284771,2.5232256257419987,9.423164285825887,-4.739621488644952,8.570906940739235,6.614360712061693,8.162368368309217,-3.3601795967930332,3.9021400374156414,-3.8231686573235413,-5.332024473489067,4.893015791363926,-7.176367778113235,-1.3630213493498147,8.27646261572739,3.9004771794335085,9.032674952501182,-2.5968042639463924,7.698765796906489,-9.357518687562433,5.32941646683334,-2.0745068023869724,9.627311039627248,6.4665809969222074
7.018091968108841,-0.9163813545160098,2.799686006031468,-12.558180262526372,-5.805470865797412,0.6985327102794177,-5.294131261998749,-2.2323747718184688,-2.226654526052502,6.597901246326215,-6.853967095308374,-6.736045678567177,1.2420473966689602,1.928253186340676,2.901616067284184,9.640805065277771,-2.8658986678866256,6.945568796442132,5.175994981363521,2.134453412459933,-4.980909002024462,-4.344374288674637,0.522388240719696,-1.2819048669986834,14.528815638614072,-7.1427381092011455,4.404067542436934,-0.1252267092995023,4.7019909176846255,7.232887413977256,-10.96914990107328,-9.302277702787041
-7.293601984697233,5.325098547860046,-0.7399237165833448,-5.532330677738429,8.809642694883369,-8.921099085343624,-8.712428022867321,-0.45761332060748394,7.433640068329435,-6.384186711687329,2.7938553399910244,-2.1863601467456606,-1.4854518707206879,-5.153524800709947,-0.6846005425764332,6.568361454679245,0.3357336267546174,-1.414981635493504,7.916218979213337,7.844486742319841,-9.944815795627672,4.944849594466628,2.1238223104556546,8.05823370666576,8.076375654088917,9.251673158316006,0.9690976908403677,3.8870382651716184,2.2345822599098746,-3.2801347278076864,8.350286765651369,9.839995700548844
8.849492909492263,8.788022355752052,5.92517733444253,9.757070045909867,-1.1974506783204593,-1.2305396622433271,-8.667713104666001,1.2804120115349775,-4.366592256960842,5.804065188686804,-6.429169604655027,4.118992834596382,3.591264038185347,-6.169870819611207,-6.500085653462935,0.18770935391323285,7.450491696691458,-8.129313911490133,-6.598155318331478,6.954549240931065,4.539293697442282,-5.595689635693127,8.342933752943523,-9.29348048773335,-2.9096915627786,-2.1028116550519815,5.349990282063516,-3.24334297166212,0.3868403568932681,6.2804940911652665,3.6767652581980492,-6.769048853135205
0.8550823811995585,9.187248949990288,9.52013042329527,-2.2565483648589746,1.1495351557943874,-3.2678936375298884,6.1271099144670735,6.282332664668331,6.184852701756075,-4.894122515960435,6.303695654934934,7.317388257982497,-3.36225735852212,0.9756101978691252,0.004571016502460168,-6.168909625292686,-1.963859668736161,2.146012401193918,-8.341986696520053,4.654213160376408,7.7989314761651904,3.950893541539511,4.740475100413402,-4.040500329356429,-6.8623557743571,0.6277769197069301,5.82038464921656,-0.29944017823104296,3.875838061181316,8.1860109754911,-8.973292439720455,3.0647837789784376
2.4524367577634614,-8.381952039918518,2.121295034205769,-5.204106017502528,-7.067897950032476,6.480230560359374,-9.610819972379412,-1.064448352750098,-4.2288571393893974,-5.1391874020856365,-5.230447147732953,8.706212362835469,-2.843976527879086,8.53306087004422,7.80476863505357,-0.45555755204576087,9.178986330976699,-0.5925396554215858,7.774721797372582,-1.224290696466337,-5.666992395273056,-0.9577879546341741,-2.633519805492721,-7.89274385091256,-2.5061728680124196,8.824410753934124,0.5306902623075409,-1.2680814656833856,-9.677627437014337,8.65726456537346,-8.56255783173097,-4.144681892739994
-5.6962150444979525,4.028403435748347,-1.100812198358284,-7.45014214697499,-7.699690697340422,-5.409564110760481,-1.1564096165018416,1.7852118628287332,4.812412089974094,-9.325091530042693,1.4532368897592924,-7.451214559237426,6.120796971706884,0.21156968912083585,9.25293369890743,8.260573623697077,-3.664559105678034,-6.699735586815403,-0.2788708492923355,-4.495566488377259,-2.828915037188793,0.12565725328750688,1.3087933823259554,7.890405944582742,-2.3797905200259084,-0.31796353152800094,4.059546355992103,3.2737160486830383,3.981423194667993,-4.550654489063661,9.952114897272434,9.786659841563615
-7.388289998648208,5.235718585079216,1.562217719787176,3.599599072496698,3.56110650876057,6.151231324421033,-0.9817091089566112,-9.636676271474144,-3.287015554286807,-0.72429693720232,-8.607623654373267,-1.6420051352206855,-8.131947070532101,-8.983044426327371,4.08001401424734,1.4037667105953062,0.14045550908661752,2.176830903749627,2.9265867042856932,-5.636201919449421,3.9866226795797424,-0.0984625484888646,-3.8042603821001952,5.035274682710632,4.088350219669405,5.649920876596767,-9.210977269880626,-1.714297606918807,5.409480923366456,9.199356363141401,-5.107446295959668,5.434015111926989
-0.7231246734514656,-6.908554678152283,-9.981332473624057,-9.87114663793645,3.3362140596528196,-6.576007754759196,8.088127680131318,0.800373427009065,3.071556407887716,1.360183291507635,-0.2460531209120269,0.08463653275292238,1.3495915241640084,-4.731980444316701,4.921658414832304,2.782741244557929,3.2826456089499096,-0.4389655822003373,3.6611160029069527,6.9756303219641325,-2.4596353270987077,-0.13697106730903919,1.5138076626172943,-5.440150214917992,-9.721607362579066,-6.092999339294312,-2.278040801884986,-9.04318220977304,-3.671534880286435,-2.7333727964462406,-1.1352088079064355,-8.338135847086544
-155.93971861403475,5.755577071825904,-35.88973376303562,-8.68479431792955,-9.985652190653205,-5.860201025174014,4.394501294372207,7.567034451759529,0.3423381694623888,5.833994178879575,-3.0802136561892057,-0.5925428026338544,-218.306206878762,-3.199148151051898,-5.831220514599986,-369.077180265248,3.9413713245297046,-102.18636160185588,4.333212580694719,4.007432346727654,-2.1762169887629357,-289.2368222404475,-8.448594210882677,-9.575323447527895,-136.68319022347785,-9.681432818456857,-149.75381704724225,8.568129609288246,-7.881190146637302,-6.781631550507208,-501.8288023967052,9.462546003112301
-6.2055946187829765,-9.623830517690191,-0.18811231570140308,-3.7758978256799285,-4.563039153649784,-6.903774409283652,5.693087715043166,5.913679960681497,-5.071557685065513,-1.5699727856977574,8.458070254888664,1.0607588538457016,7.420351546234588,-6.387198900737534,-6.733778470376004,-7.710866943432448,0.4867425861174386,-5.608787277937286,-7.06616734687469,3.488435420455964,-7.669923195590163,5.947509865613508,4.8480464947709905,-5.605521883095559,-2.5346101933126874,-6.163977215815207,-9.269683085789124,-5.981104592534137,-9.15168291201941,4.071587917008907,-2.3765271882050136,2.301748981510219
-298.81666446876596,9.83860610804691,-63.24906773080404,5.357836460370935,-7.461521021516737,-5.446533412360958,5.495562408033665,-4.899633573668087,3.426613118780651,3.216525359866191,-2.647617391262987,-1.5360457767341913,-416.4726427589734,-16.008282003034047,-12.143554499999784,-509.9170292615226,3.4924291596894257,-220.97661922718694,-1.4399145634556039,3.000360231574886,-0.645771717668314,-492.5956297379118,-4.923484349085465,7.41894560542654,-274.69664144238305,7.597382428228315,-287.60941911273335,8.132555594994159,-3.2652041890314454,-6.953893043918016,-509.17738861473754,-7.353379235157618
-1.9400566844868798,-0.9587097427931273,7.261340342111154,-9.608678013446834,-8.288873982047917,4.979656676305719,1.6488623488540544,-4.021378138164435,9.038143977791549,-7.4793872857430195,-2.2569129467239897,6.05517043928263,3.503026390389115,7.102837705996961,8.10662607093781,9.562877049463182,-1.5378096137932378,-5.051027027868587,5.030951425504508,-5.190703515768577,6.709412591993377,8.181830128410052,-6.393037642401415,2.267580740444803,0.19391012395623797,-0.6666573475312916,-4.855026617282869,-2.2450211042058266,-6.143380774329492,2.2780731373530916,-6.623665975234698,-4.4729031715441
-474.89472992307554,-507.95168513640965,-366.2461321404277,-23.82828955249742,-0.9957998972188826,-0.8019961937539648,-490.51846146920695,-5.976926965289481,8.424100681611716,-506.67836226043136,-23.499739552296763,-11.367924166986569,-498.32679587546073,-63.47001940162535,-13.618790382293827,-483.0521469744084,3.420784335937853,-478.64475187566205,2.364309180626421,-5.371728333732058,-6.326507768407659,-481.8209380586866,-2.7759450558292986,14.860934601147273,-489.1535724190405,0.3487001253632336,-492.5496091695073,-15.577991490139175,-9.602423301411088,-15.254329217505354,-492.5795026039402,-5.160913276431012
5.1903103348824295,-6.067496299753388,5.24909139326493,6.510898286865874,4.112141793433741,-0.2663013748116789,7.954818919237475,-4.025332123890739,7.637181025066905,-6.987969565672221,-7.153462689795194,9.628749748552487,6.517902178269171,-6.346311820476336,7.955985510654354,-3.650028297160852,6.910824255133509,-3.7539876753267816,1.3116742865659266,-5.721080567162982,-7.681490178658324,-3.6420242171912554,-4.8805067248895355,-3.3565380807996803,-8.069533561726557,-7.730039182091739,-0.5576284110417085,-3.457381677483804,8.243322411649764,-7.240003314360617,-3.181117216508551,6.025491842625957
-473.2510464011411,-499.64010392320426,-499.93201962902157,-11.421686928551566,-14.73750051585067,-500.1147177410336,-497.29624173410554,-6.804389523003916,2.506992155773661,-509.0712643436947,-44.09858056846573,-7.0609219808396375,-489.9100226950875,-84.93433015264584,-26.122865351917948,-480.37201185724587,-8.616666779019885,-473.5290520617623,-21.02548356691272,-24.504090666793505,3.7288692283411526,-478.38994926640885,-22.43177591687204,8.76522670170805,-489.96072169412673,-9.025499221873027,-484.70254719825397,-22.028855736392593,5.642830941520531,-524.4942047330289,-499.7982549572504,-4.337923370802093
2.2752918739809616,-6.2444522281210135,9.624867776378338,2.080711079176222,-6.753206368286855,-4.481122840662803,-9.09175463188067,6.6196319769706164,-2.335001867516744,8.529193250589827,5.276564583814764,-4.675164362386679,8.256379725115583,-5.30482843530385,-6.266195361617964,9.248496431294214,-0.5006816747003953,6.87264247905987,6.196041822009867,-9.256048609840857,7.469580221220355,-0.6662610734590597,-3.207581495677017,-4.073129050848889,6.526447386300628,0.48879712912957984,-6.079406609189446,7.214425192641258,4.606389213695746,8.404750299722515,-4.813746035534594,3.3856752896057873
-474.6508513566286,-466.4192355000756,-501.54216445150433,-19.75537484638709,-8.354110948350513,-490.52888919548684,-492.89941535911754,-6.57811447263566,-17.56852186968029,-488.2744489530682,-3.1007499827888996,-10.116315649743072,-504.0307150141948,-114.31891959285497,-30.24576331670874,-497.4014159371563,5.9332811218107135,-475.6841067250002,-10.623292605054417,7.726063415261718,-2.7715002167524925,-469.85042308173894,-8.862332475499555,6.308922499094491,-495.41122674216433,-1.5416370690004815,-483.0132861671939,9.426125402795595,6.879138578702911,-414.1885513108633,-488.37708721242916,1.2879192847417347
-3.0628380591343625,-9.690397445359704,-0.8782501241154943,9.580953649808059,0.1378882758369997,7.720185561905495,7.002063863158256,7.190407865552906,2.7399818283774557,1.008108070634023,-4.996210677987012,-6.127905524264889,2.053507730754564,0.664296184523284,-5.4065529753447965,-4.396630091882963,-7.938238182439763,-2.8575371207903766,-1.0153582566061914,8.52177292510462,9.679622785677761,1.996265543555026,-2.354147897771508,3.0873378724861666,-9.036958541505673,1.3605809348773583,-1.6644216717365552,0.3318993693259493,-7.094973430097038,9.849017597078621,-7.671183370786219,-0.6554883441986004
-486.2932457997882,-430.37465784214885,-490.040260497826,-17.134125294439134,-3.957623442625435,-508.58525162224475,-487.3816598490398,-6.724070488816118,-27.193736487946016,-483.7324208311571,6.70884463582525,4.076629052331972,-501.6619604056831,-121.97710789580347,-20.81259322654689,-484.06129015972346,7.515180709828186,-480.5759738817835,-12.778929009402187,6.469753606497408,3.971943498342948,-480.3771986059636,3.1784881087393355,-12.82407278541971,-499.6725962955499,0.5988319133930471,-491.66681609602057,14.158733099826648,-9.443078316946677,182.28463702221254,-488.26044503403415,5.943459693146027
-9.342453872888807,-5.7146162722937754,4.155078092300164,-6.319673054524737,-8.711514258973061,-0.5480637943825002,-2.91471678564964,3.694622465379423,7.966996184906222,-7.509108528786761,9.132857744463951,-7.415225550900651,3.260857072175213,-6.304340715419839,-5.733280138128796,1.9492838218897557,0.30416384309152633,-8.051519524994449,6.407134688797914,0.06342229650380204,5.9972040689912465,5.983107226880415,-1.0731010079424426,7.990660802555524,-9.148219640389073,4.302044354569048,5.1899784536338665,3.920392375193364,7.3165698956090175,-0.6446014686031454,5.087366548760972,-9.652724151351515
-454.6715342891495,-455.4462261587047,-496.64104720553,-19.702066606982285,-12.177430599660612,-493.6831558559122,-506.54979811060775,-23.88051607804597,-56.3211915572586,-501.67640326312636,-15.532992105382796,0.18456388388230038,-493.86847895442395,-109.29360207600389,-28.93206702151063,-465.1070189502875,-15.663511286762203,-475.7206784569432,-21.823414044661526,-39.10108500277102,-3.694870647993299,-489.47368122366737,-4.437001808768986,-26.218847910743055,-489.26652105000665,-491.1060894557528,-480.19697672105457,-16.10507924889439,-18.66287695179208,107.35491695509972,6.711812957620837,0.7334074689585091
-7.440439479295025,-0.5830484923207475,-4.497373145130479,-7.001549624032444,7.561904197174027,0.7594990175305494,5.95872242518082,6.048141601596381,-9.599024664255904,8.75117537701604,-3.4531082104460857,7.453966891777139,-2.4289134326420463,-9.426959716496391,-4.654004779595113,0.8280090620702669,6.967320764118611,0.03512165123821198,9.544694237135445,7.561727653952804,5.941095257500763,8.612951661128427,-8.86913110891371,0.7637535681672585,9.788368577506677,0.7919390420364554,7.9051480477320695,-0.19291729754121079,-0.32225298180105,0.4857346861362206,4.099647324497733,8.711441223296937
-482.4174812462488,-493.8838943189196,-497.28521539374566,-23.657521129127353,-23.032855997661112,-4.176873031328134,-503.03602005709473,-27.51308331612561,-39.18247721072578,-498.0186859756105,-0.038043316059010124,-11.79747539003456,-492.959753663415,-52.97327886141873,-16.5443615537457,-459.19349091650656,-9.246934358288065,-478.1128031997416,-15.824872424511206,-39.5767308582564,-6.276147718336984,-499.31668757137476,-1.8582439999394191,-5.750925174879804,-477.7230188560244,-499.37462967217465,-496.2558734099215,-13.359347918903236,-25.893643333982396,-252.14831471322026,-6.8489714743316314,-2.5091743198580874
6.730699707258783,2.532212241790166,-3.0463613904595714,7.002286986857907,9.036987935215159,-0.6688992386919868,-0.9479773363150592,7.851685298861774,9.102912684352177,1.613494439843187,-8.513076899758916,0.9100135548011234,8.314284683198437,9.245536617152364,4.7353275724679715,7.882466918719199,2.744243264457465,-8.44182715195017,-7.271363523965162,-1.938404083737133,1.0034961180136008,-5.5411403861187765,-9.970726279874766,9.91496554689331,3.5379201850263406,-0.7756174717036153,-0.5995122378611093,1.5592580926170196,0.3465970552427695,-1.071396884496016,-5.0926743654192315,5.840225866282223
-485.1165516122962,-503.84056656651177,-267.9101529150126,-10.258731381388241,-23.15050736032011,2.980291928373603,-494.7396732937282,-8.605217035786831,-5.557729697318601,-500.4040075892563,-10.29938202514859,-3.3849043320133365,-484.85307707866815,-11.278697444382564,-0.6392276337500746,-478.6654532573186,-2.7385235042538465,-355.634900814879,-1.5854703167341366,-15.787368668910712,-2.2455552316502674,-489.06542684389564,-16.62311010678369,10.317955309923667,-479.2971317143254,-495.11277631728365,-434.9080645043508,-30.909515535568545,-6.445731157775363,11.669569433762874,-11.088152655399295,0.6430704326550636
2.0414185558272653,-5.41998419673077,-3.8848140981075296,-5.150656606274,1.3679013387372159,-5.483739206431661,0.4153588049811887,7.659210090647537,-4.104280158428864,0.5115215680968319,-7.158068365416874,-3.854299608581657,-2.3377273183116065,-3.9254636162589795,3.3837353322215797,6.007303223510455,-7.635018700493519,-1.846894382693785,-6.709171525180326,9.870728856925762,-9.867402572871256,0.9733027483101218,-6.178841049939294,9.835184016184208,7.633337096679355,-6.182848482928289,-9.221163514148927,4.525508176696679,-1.690071389569571,-5.579677958481466,-7.097253924710822,4.643142977874824
22.366764895067654,-512.5793893612719,21.374886319964805,-26.0277140131715,-6.061617689780254,-4.382883621826186,-500.78025534002717,-14.770028245830709,2.868150804760066,4.718812837186775,-21.180259925213388,-5.190415011698098,18.753519903693125,2.9784947152891483,6.343204743940063,12.401085309595835,-0.6323345628307102,14.040115332609792,-8.92929167238811,-25.249889309828827,-12.219224433946104,7.781995189093802,-19.814868201557527,7.4259145324428335,25.416997849288265,-503.4211653136866,-0.012901451189895496,-34.606515678812386,-6.5577461100237695,12.625787569103673,8.160743062408503,1.9518369463410412
-3.831591014290283,-6.149728141432636,-6.885569128119706,2.50943070296894,4.000752080029175,5.311997444701555,9.643174700467288,4.277109161913511,6.505997105204262,7.091653700608514,-4.846800263759921,6.240916297137062,1.449613040208991,-2.683033649794149,-5.2212287469932335,-4.0633095376635815,-8.0667813479194,6.11485337867839,-8.084400898066278,-3.214600773185616,-9.137951907097301,0.639786915972909,-5.392929136326849,8.881814033580287,-1.7383537881931321,-1.7529859577146993,-6.604701290186174,-4.350048962504564,1.9942533413735717,9.830492685669082,0.885031130193358,6.86416513574904
6.463706304830227,-495.9906829785773,11.744586353267346,-16.505966533659624,-0.04442419227420835,-5.569019423253982,9.421937721102495,-11.117544605114665,-7.6004224510837775,8.690546346125364,-0.7576105490519485,3.7098486574554173,5.852556179091916,6.627247745812408,7.183094680413266,-0.08119409309393877,5.456847286085267,13.429242153191385,-0.050759206009438396,-7.553664625069887,4.447153542411335,-3.9731624212220424,-7.321147787340725,3.0320554131891058,14.423572590892713,-498.617237042665,3.165534905171249,3.0912684065011007,-6.318532747002843,-0.03219634028808027,-8.878211678078408,-9.87427251485476
-3.8402184137470075,4.401634459223944,-5.751048870273008,-0.3175839151428761,-2.7527922273352505,-4.077983670710388,4.028092807847157,-4.61873547765447,4.54809561989981,9.011648451225241,-6.312747516283023,-2.2878912892043495,2.1844078483714906,3.5222942890290625,-4.418023610200987,-7.031356321418551,-3.9084508274949954,6.601972719167851,-3.236480657869145,6.721858331160643,8.27586673998308,-4.590203106908701,5.023562769905148,9.706330209303747,-0.28400273268727716,-0.47592324791010654,4.562870704352747,-8.08572891233961,-8.997287388680942,-0.4761288603719116,-7.372364218876443,-7.454365449848385
