1.4547941762438237,-0.8290644617235312,1.2245782878398517,-1.1987505574764237,1.9277975088690602,-0.0014431317821124168,0.6108558022111157,-1.1270952540633812,-1.4317994229470838,1.480367611378825,-1.4718819533747785,1.1627821826898526,-1.0080752194286693,-1.9955168052402792,1.343526982299411,1.1072315106842385
0.8094094231708473,0.8740511713559789,-1.645656608892443,1.3124655469648818,-0.9147402231282413,-1.5345661296394075,0.018865093662382204,0.43456561889677037,-0.061140733457439644,0.5696726631014668,1.655960416013618,1.195413600487886,0.4685754212673747,1.210972528075128,-1.7866769659460644,0.2635804372987822
1.4469751831709416,-1.672553071487068,0.7638274916109067,0.9123378985117263,1.647518237458931,0.40612733490975295,-1.2597583575219558,-0.5186663920691927,-1.3436443080887548,-0.4830095467162745,-0.40777396846068337,-1.4019557533719058,0.22866412552745707,1.7322898590607032,-1.1138143247329406,1.9279506683210283
1.699725260013715,-1.955631926250243,-1.1809808371775041,1.7501825529298154,1.6204395738824626,-0.6093506812255622,1.0679834679429598,0.8120718367731636,0.7518037018430919,-0.091315199202882,1.0386370718800229,-0.6256894729122897,1.5121725359540243,1.2711616324581656,1.689464093576451,1.8762278437381745
-1.848197835763687,0.7039445852236117,-0.2671924633555478,-0.6704529018474328,-1.8659231983283027,-0.33203560399862475,1.628155936250705,-0.664538704918169,-1.9183245344391158,-0.7232486134237224,1.4309280553192165,-1.6905647218067075,-1.8134832345075669,0.3752734468048988,0.10828064276118843,-1.7005553442690755
-1.3094770758022913,-1.298735318236794,1.7723617001813263,-1.8967386698593707,-1.3976403141978113,0.22500419192796794,0.730544512853232,0.30019655721409233,0.9816661468570582,0.25873722643053343,-0.7433990166494735,1.2992610176616202,-0.6488046738940589,0.9294618983632703,-1.3368451829097872,1.4059865726510976
-0.8626250800607611,1.2370232952843825,0.44603427555391173,-1.9460766619574024,0.975505681939318,1.7016911644062094,-1.216312722708981,-0.4092279070726077,-0.751660313341282,0.5270209413924372,-1.3183742258801945,-1.7380792121732092,1.80461088638305,1.1575737998616176,-0.5360048004382114,-0.8036675469961043
-1.1219267066933072,1.2900508379519127,-1.0195808207525259,-1.7403062287807098,-0.03653742134410498,-1.924479647317738,-0.6672630530052133,0.3717158064326824,1.3932082180343746,-0.3540014759253607,-1.946345484421422,0.7102898659281465,-0.7898132742594424,0.5451796578189052,1.3374904856936558,0.3392565695172034
1.2961054740572946,0.29367379091364487,-1.8755625932412339,-0.511094847166881,0.29120786787412234,-1.7057387290499815,0.3417734048421459,1.1631779205173998,-0.5852669407354956,0.6859609643687974,1.4065104615730348,1.383413229073153,0.33481156197764506,-1.5879118892334052,0.6353040292393448,-0.3255684776430061
0.9379307395084386,-1.5743126020280038,-1.0802089803967116,0.7368583461567413,1.8930887224168473,-0.5679475040852204,-0.8112971148692645,1.4001476997395534,-1.3454885102646448,-1.620537528572548,-1.9535676246127265,-0.5129251318077745,-0.32737388878611595,-1.5946601387993282,-0.14110657039763952,-1.5628736088297122
-0.04976304684146404,1.594460307409023,1.4591900214972875,1.9327889117060395,-0.8398430535093397,-0.064283520870557,-1.6826564838819777,1.1661807745108739,-1.8663520954698032,-1.3402014311228236,1.3541287731235783,-1.1980567345162125,-1.681216687015112,-1.3346856843232455,1.5241430708684245,-1.4198652535802392
1.8032804421443016,-0.024977603871925158,1.7618496255578426,-1.6341077692904045,-0.8029839338125497,1.684258889009178,1.4583616746705,1.9788898273952626,0.1748039444566345,1.2069698430929408,-1.0615188958616515,-0.07655792940326034,1.8593352968151602,-0.38934066513116594,0.8381259668767322,1.854941688579712
1.445780754723954,-1.5240232895738663,-1.0825324058695767,-0.5868377551502526,-1.971520433897766,0.9446309321805191,-0.2000451233879712,1.7244812087728292,0.03766177502151846,-0.2588695350012138,-0.4321369595503137,0.45668737882519705,-1.5981989468659732,1.9161277669181094,-0.7816934763680039,0.4014305194008583
1.6368693385659312,-0.7965288975796505,-0.7137170961787263,0.2824037196050586,0.6989226294957755,1.3422484004050586,-0.8432386294237433,0.06872856243565817,-1.9393940279982966,1.0733082277679573,1.9199371220230192,0.6547228396843949,-1.0853991163105774,1.8756596627638813,0.5149965188629921,1.129098015115019
0.900627456603726,-0.327281589355668,1.236922457382609,-0.01799199349447278,1.8767027274912516,0.625858453037933,0.7411850199563634,1.0024367303373256,1.249829422474769,1.301904966068681,0.24989326476848017,1.5724542361759126,0.36727691928683326,-0.10874790302779269,-0.08940269693096736,-1.1745782068902617
-0.40236814778592445,1.5140698218615594,1.0816151706350081,-1.1505006961734767,-0.22982601121452717,-0.579911996560392,-1.0477993566289978,1.2017426976817065,-0.5936647668691566,0.7645201877165713,1.103107440191963,1.713827534147141,-1.6808454380052686,1.202906438463002,-0.49219588527880687,1.1028769606532354
-1.7366127697385267,-1.854088990741309,0.09269617728826285,-1.341823889723226,0.32093855954301187,1.8289529399942666,-1.6522550135016467,-1.2245467690542888,-1.8310015752164772,-1.4159532850273608,-1.4251516943978677,-1.3970074293346304,-1.4385149487821147,0.6889847512230749,-0.3528464979353565,-0.6040420776940127
0.6159894793929892,0.25584723094891304,-0.4417774346879688,-0.8726934395268171,1.7294110528682198,-0.26635459692749475,0.29488445630123117,-1.0484488680988848,1.2624072736624616,-1.7375724269302917,-1.1937194619333442,0.9261025862327634,-0.1244775981994457,-0.9909764602625706,-1.3840041097797018,1.2895777093528529
-0.19582196623621373,1.717683664964528,-0.5326004783589364,-1.5253592691534572,0.6705268123265236,-0.4341665942132269,-1.6827417688821407,-0.5498338515894634,-0.22240191974964718,-0.7027735559048067,0.33897072446748666,1.076683880731533,-1.2489384678141655,1.8334520772996576,-0.7866621570831303,-0.03189575767871
0.6455463628901046,-1.9077089599125925,1.8797407925694665,-1.7935092403711064,-0.7288411301364177,0.772709042939407,0.8975631000434969,-1.7878840061956836,1.4291435259807295,-0.3137753942140531,-1.8887755803303303,-0.5628634834491346,-0.8106280126796808,1.1442983758127943,-0.19993681527774942,0.08627405132946953
0.5459774844580818,-1.8484462692592971,0.051397312830209874,0.6322719553636693,0.7346903869575572,0.6816411753204594,-0.08289243186174433,0.5908618377640615,-0.7467529428357556,1.8799946090189628,-0.10041156807119656,1.1335985233870187,0.8370464759240712,0.26201076744195273,0.7604786277743214,-0.6442795681957199
1.9891777981627476,-1.2702026551359418,0.07816644289084484,0.013997183051290829,-1.518003005552678,-0.1827119027273123,-0.29176783659868466,-0.21197366267780504,0.1280467762047337,-0.7212014908048712,-0.619229325065378,-0.17101161158879075,1.189096351480318,0.055942315440865364,1.759663699113669,-1.2336442213201764
-0.24351221311089066,0.8529791560556537,1.7268469654547278,0.6526798017024267,-1.022350205846461,1.468154884157281,0.05716055695940314,0.3627558474679615,1.648467837613408,-0.6396829280879599,0.1824261822593427,1.5907589968386202,0.5394615657790571,0.2763639899394206,0.7124193916424746,0.7953898577100209
0.03709156008403269,1.2936915247372331,1.4567110841115762,1.8597575905757506,1.2981158026382484,-1.9528062575187448,0.48035617960574317,-1.128459099001622,-1.2591743715935526,-0.48804348786289253,0.2957825617059462,-1.779100244978117,-0.714147502993991,-0.7288338559522383,-0.30158196083004096,1.8773317184572336
0.7003950991810828,1.4480901625439353,0.5408759698672783,-1.245462732213523,0.6369014819802712,-1.0523136628892322,-1.7691490721521133,0.1330292814465861,1.4718397865322386,1.669467533922711,1.3207371206757057,0.22014967702782196,1.986767134481552,1.593455373128163,-0.8801622254816053,1.420640585724871
1.646543645785179,1.6395464364865915,-1.7144241970437575,-0.1548998790799696,1.9120322562635943,-0.6853132744901504,-0.9207187208035283,0.8598118811257143,1.560545059652581,-1.4011651078194607,-0.8224367169739661,-0.9929215981270065,1.2436962439366002,1.036377393899476,-1.8508320582246687,-1.669704547148549
-1.7819806679245782,-0.2944265971340565,1.7892212014807587,-1.007080595383652,1.35882933303624,-0.5099335627209869,0.8587877832125881,0.4128273652452137,-1.3456430108112283,-1.543107465512191,-1.2004847121486346,-1.1280916437420019,-1.0883894137394226,-1.720971909241353,0.8795125129891401,-1.651633451131246
-1.7931542496436492,-0.9621169783951622,-0.9268198096031321,-0.15925353651566887,-1.4181021410333323,0.24100550164550283,0.687552659966578,-1.0552951459079156,1.4186409935878843,0.13235267610606805,0.054692918897438325,1.0846968018311869,0.27988622145496045,0.5609711849482863,-0.84978136344386,-0.11229804241972063
-0.6740365315239085,-0.7853234905684392,-1.319910178580621,-0.05763877708684273,-0.2549443947226395,-0.11753918778992567,0.5471673872664251,1.7839860158508212,-0.7134656821368628,1.8886583642285721,-1.1334480719377393,0.3461415999280688,-0.8379726046209179,-0.8054164476411576,-1.2828714015964366,-0.5383311955886549
0.059178372994341366,-1.7962300903066146,1.8608219228000626,0.7188252103171284,-0.5192557918436012,-0.4833595793372809,-0.9145948400346118,1.732272414411609,1.890034584519804,1.4199590021800765,-1.190504375135744,1.8065934638812475,1.1423299962957243,0.3278307568952017,0.3985105911984985,0.502080264823598
-0.5040676515573215,-0.973222512686017,0.1769132617014031,-1.5674181210484277,0.2179609322469891,0.10399200176009904,-0.7700931710804744,0.25991903429834906,1.7439062808913657,1.3233402698405135,-1.9753378044153593,-1.3272627633349536,-0.0918251982699223,0.45201108291490844,-0.5052777629026282,-0.4914067684145351
-0.5869892517999018,-0.06350996240342566,-0.24092228975065932,-0.3073934899538848,-0.3128920911102333,0.753333379505019,1.496756821582745,1.627113647816694,1.212462019713405,1.6721059608184312,-0.04772263962561718,1.0743191450478125,0.8863713172466494,0.3026929051550309,-1.1287332499870835,1.453024810074126
-1.9018630750297483,-0.48035798895325144,-1.1694049726522522,0.6677939989485138,-0.9688982574399008,1.3041233996782995,1.5517035897391622,-0.3270778274738304,1.7787799910688311,0.702837240123495,-0.979368911904857,0.832748845566909,1.2988580768795197,-0.24453078954944596,-0.24983233860451692,-0.9663793333324882
-0.4800518970758505,0.04902098474731309,0.9251116484317232,-1.9679496487319534,1.0983326724782794,0.12637880997984308,1.5961796833315613,1.3363449618092305,1.0386275324620926,1.011146472856816,-1.5273337054380738,-1.524033333186773,-0.893786772738749,1.4339506958935822,-1.312168936229055,1.6899061901680597
1.7732676567201602,0.5539385469898197,-1.1963244378412288,1.4742565460434691,-1.4550353757485137,-1.6153385171178796,-1.1712283811045712,-0.8857049238057795,-0.7979382660822729,-1.423442781945563,1.2283950391569505,0.644487913338724,0.48539017140174145,-0.10021487767667647,1.6261014441587616,0.9612530917975124
-1.244189973732829,-1.129738909178804,-0.022746227290062038,-1.4426987253950627,0.6711743645349477,-0.6147704570211849,-0.23100407448819604,-0.9026202658550129,-1.2232886610523623,-1.3312449177151349,-1.583457300879172,0.53490699874575,-0.1720042415000922,1.5899812578074108,0.8410442979154467,-1.7930341472428002
-0.15837091571863127,-0.14495429774020163,0.48307762934950293,1.5111537529918482,0.5550263230287142,1.8905462325060447,1.330536601175858,0.790885634509177,-0.050667555242494444,1.6530059630162182,-1.5099010481839201,0.25187307858733615,1.6489276205642431,-1.8310862946545785,0.5781717531439021,0.8880365941486024
-0.9102686600330046,1.9814290979357612,-1.9696429807747555,-1.5892978782115716,0.5707972193614252,0.910005217351431,-1.6649080724199639,1.7885555571130793,0.7598765409437997,-1.869297359319345,-1.0756050036648905,1.5308664494557491,1.5649282012012464,-1.053196722280811,1.964355380956715,0.1815871781424936
-1.2787353769390548,1.6791705247739452,-0.541211238278493,1.7704302599131236,1.302621031978588,-1.4329670008328934,0.3363215890613085,0.512192924319995,-0.01824147953225186,1.1480110264137942,-0.4625055860061159,-0.18025065832602227,0.7460301542658082,-0.7049438556598684,-1.3806909283459472,1.8355045218808064
-0.6505935027885106,-1.0829791859219697,0.06312313883856913,-1.4878652077495507,0.45088560602629224,-1.8705995035113476,1.2242923298030668,-1.8291595097112539,-0.27231903180778794,0.9665925593502904,0.11585357603452628,-1.1852762091352127,-0.6428035866547059,1.8840343394336942,0.4319086041120892,-0.452066721121688
-1.8657743354155718,1.707469503277486,-0.6083452680620449,-1.8922136537166763,1.6225619649560215,-0.36380488608065065,-0.8926834453630939,-0.6699113097542164,-0.12076638398282613,0.45099665430265024,-0.12229757101030758,-1.0954906881505515,0.30150846067851456,-0.8481535874018813,-0.5354664286053681,-0.6464193565806244
-0.3486992651283858,-1.2360444652022444,0.7036254460291804,0.3569448286751369,-0.30907531355695417,-0.5172341329860846,0.19640913001792182,-1.6061767102982967,-1.4863274938798874,-0.9565168492382186,-0.7209860629517739,-1.9572047290424242,-0.4181100050471094,-0.9980688962505857,0.41684454475677146,0.3776200157364249
1.2645013671623828,-0.43802761797014567,-1.3526923937808242,-0.0321753903516413,-0.9991408702740054,-0.08383587092084,-1.3016774240351805,-1.9248607344618636,1.5210998950593626,-0.35016130058004746,-1.3245332720081433,0.5336451233403663,0.6288145455684062,1.0456625465199751,-0.8647544437462371,0.5846912858684221
1.1767575166801776,0.23982796240538162,0.12698860125423517,0.7243596878234051,1.0731118590236006,1.3677691480552658,1.7114855568015037,-0.7483803578856172,-0.63312499919012,1.0972695128729346,1.2841762109433792,1.0880704227789528,-0.22471676321610756,-1.3420970071473444,-1.4031653071605255,1.7463253361676068
-0.29519733674312176,-1.3209334465632816,1.1772237655458069,-0.05457335223128945,-0.7312470247689435,-0.45918856276521725,-1.7847603332737365,-0.7348438500155199,-0.41172024743697566,0.9310228854273519,-0.8190488844311594,-0.9952619868626176,-0.5666697467148207,-0.06857104454518215,1.052575568400579,0.07073091329591641
-0.2594569055429723,1.6126869017595284,-0.7244531771763549,0.47232124143017096,-1.0359768388192498,0.19669484217686062,-1.9790358533144579,0.19115384672966806,-1.9937069289330709,-0.10976758081545412,0.4220717040597455,0.18190471948915787,-1.9617268086589172,1.5086296878432268,-1.3765182397818165,-1.3163794113869485
0.21577951723634303,-0.3025145823602817,-0.7934559146450422,1.1837653457589008,0.5763840270957115,-1.743450623273198,0.5668763609960235,0.49314247017827073,1.05674764527872,-0.36531525250168695,-1.1171793238825458,-1.8934439646875085,1.5056170425380513,0.7325418555994014,-0.9546250854354765,-0.7782226669572272
0.9320424588131679,0.10782886154894333,-1.7971446681687584,-0.9502065269074356,1.4698874281489318,1.4014250654911846,1.0079243174892292,0.7275676987391679,-1.8417782748807405,1.4408945636672366,1.0062120866287807,-1.5072317391994892,-1.5955746025275803,-0.7581887189156631,-0.6608247965869998,0.7804791462883718
1.358832514142415,0.1834045233400743,-1.7877672488952676,1.2160923696554118,-1.0248487394930597,1.8464151934064992,1.2362944388947978,-1.5185808380587944,0.5301183928657829,0.9580537377117087,1.8124346276085919,0.024184374708063228,1.3284575143924187,-0.238803124750536,1.4739305448171347,-0.20703549398744325
-1.103294192295892,0.23366236610586943,-1.2159333828194026,1.768694862610067,1.9523992685600642,-0.13570443346604977,-1.8244350495643253,-1.1833628281241735,-1.976331971232177,0.7633527410780019,-0.1794480719204068,0.5403094563652715,-0.6748458951503311,-1.6951868097344494,1.5810446840000427,1.3916556347149824
0.9827503505259338,1.6154281148546392,1.6076783248160096,-1.907197631554474,1.6577331971974978,-1.046805196153779,-1.2679879630067359,-1.6387118619065553,-0.37196537180690825,0.10929975772126133,0.4139386198531372,1.142394259470013,-1.0510014163947696,-1.786429585838722,-1.6979913176915522,-1.1892506315674094
-0.1802550837459922,-1.9415025397511552,-0.19853217615440588,1.2170391330435146,1.673340085110676,-1.6573911905381618,-1.1199128507144063,-0.8032320125916628,-0.9710185379923737,-1.944409386876035,1.5839174567645395,-1.6139284135035306,0.9929798461509955,1.6708409858170308,0.697934207271306,1.9204934808961012
-1.7855160421506495,1.6891760809036542,-0.9252610100909711,-0.5745587357423334,1.7361319888201252,1.6640548727666222,-0.703089013537201,0.20321998929146812,0.9882152913161817,0.06404062823997592,0.7324494107015203,-0.5462327737980197,-0.6779730662776133,-1.4600962700376567,0.7842405968099784,1.2582044106020471
1.6998115985481386,-1.2446857044960096,-0.7992705125538802,-1.056696606418749,1.4492699926166517,-1.5149141131717938,1.9838881236947978,-0.4254201709584251,-1.6607896293847326,-1.2277437233628619,0.8760465352232885,0.6423573509069551,1.9400901414181688,-0.5152534490922078,-1.920059079735978,0.5451975064241221
-1.4590737078297087,0.3292840606946812,-1.3979631522489484,1.1782165323470442,0.705261447314586,0.496569756272887,-0.6135142489677579,1.7075234165985624,-0.30967114355175474,0.408394166041139,1.3023105889196258,-0.8332962305439162,-1.3325775051744646,1.7894488135744973,0.8754560425044864,-0.2142752219981401
0.5905473894158613,0.9561422820318151,0.1569839849393233,-0.722723576737768,-1.0832456436178526,-1.0384346782006997,0.46010633705923576,-0.9879226565620578,0.4252644673452286,-1.012878001105245,0.9689997595139879,1.8292984231338894,0.23501628919489503,-1.9150695913183151,-1.0487132215569734,0.7165898711524674
-0.7311358139754458,-1.5340245600487603,0.9830957613686868,0.6738557899890489,0.9510339797300746,-1.828009479050761,1.2152241277618003,-1.669900696651982,-0.44562811161631144,-1.544857439350177,1.3513113906451752,-0.9756499142486801,0.6771957262815449,-1.6430942121166066,1.445220944452231,-1.1884638146008517
-1.2767710757555841,1.5854074626620203,-0.08280892231381909,0.6832128318385027,1.007353886554502,-0.16993149750145609,-1.5516828395366207,1.8741501914314291,0.9234735715186355,-1.5837319524420903,-0.8255578443893175,-0.9581945904149416,0.33065664326089905,1.4034260099649014,-1.410441139264969,1.8905942722038742
-1.221816819999542,-1.9765233093433294,0.2629891661207422,-1.163616094651652,0.08333939423151948,-1.127066354477945,0.1679991851902436,-0.48447414837166347,-1.0901498687472149,-1.9397012867903958,-0.030544071125355288,1.1514986027535263,-1.5781373552948894,-0.5621652571748754,-1.848159166014911,1.0519724676337452
-1.673515475513351,-0.9846575863785372,-1.8611768675534535,0.22431809188815377,-1.8171845583944002,0.39705554650004204,0.3724016556444685,-1.4116616927137868,-1.968780935399732,-0.12632121703282229,0.2871226271511471,0.020824104221923267,-1.6000098592614251,-0.08299369232945475,0.6124424449832788,-0.11343577712879682
-1.1999058263928228,-1.9940720529414895,0.19375866784450801,-0.17253447735536342,0.08411420798855884,1.7193632308032818,-1.197099899395503,1.9933059082090256,-1.206804331660357,0.16206801035497298,-1.10555735149986,1.4232695201406522,-0.8731166483357087,-0.8034112595499208,-0.2400214199546986,-0.7837286391549672
-1.6869343689633065,-1.319395137816291,-0.227178751699062,-0.7663557525829625,1.388117025477336,-1.306673569536473,0.03549108944844992,-1.470852122707405,-0.07842822709657504,0.05088065919427409,-0.9028985243598897,-1.860278432190483,0.7242720916889813,-1.260806140822988,-0.5117998837860398,0.9259832136208712
-0.8763453943035047,0.3298713072932178,-1.5491383291452951,1.6529278123995863,-0.18722489757378247,-1.1235246563802206,-0.3255298810317804,1.2124455202921953,0.13718391634917948,-0.8983694076965367,-0.3649072781401417,0.17692285956079257,1.5606921655404382,0.03581572863798499,-1.618938736057172,1.2929469035418562
-1.3099651341919714,1.9434564537920491,-0.5730342647069007,0.9878801645607767,0.6010564434776025,1.9542309679743015,1.8813128143542786,0.11731826181550398,-0.18532445777279039,-0.4529253693109192,0.7497123044725358,1.3118102085513037,1.035478230303807,-1.1360821313548812,-1.674454054470134,1.9708447200164092
-1.815529063317841,-0.34962368425580115,-0.8118715645934254,0.08046573055407658,1.7184454496522092,1.2837872130750458,-0.6995979483735422,1.7271370249922624,1.4315850957400413,-0.4289781451861483,-1.7784692304774938,-1.9402562154933847,-0.887222411158965,0.5042142252874426,1.7325646347323245,1.4784725660581075
-1.2990781283973702,-1.487506910608277,-1.949342815581427,-0.6408101833863484,-0.4888032938882052,1.805725821824753,-0.25300952446741665,1.2152819054028625,-0.23386336971986044,1.5507762838393604,0.3566412036897213,-0.0008923394644115845,0.5829325540500716,-1.9308792510046322,-0.28734958922475995,-0.04850874999913435
-1.4553044245563478,0.6745157033120144,1.486036576721835,1.3159979903935608,1.6268220751786826,-0.6111959131715623,0.8373787622599166,-0.31465708320338726,-1.710812967029034,0.4035883718884561,0.7057772166343674,1.0727273789259906,1.0637391700564578,0.05000024359074695,-0.12213419825402422,1.4654143338296945
-0.5078424217707478,1.9155749593838265,0.14522544891370215,-1.2936756307180706,-1.1968025813049787,1.893298715301889,1.015583502781947,-0.5306800799328193,1.5240575885473744,-0.22332717463793772,1.7141293395777808,0.23088685483558313,1.2678225273131645,0.6821213714464682,0.9354473601458939,-1.875188272513817
-1.1862369291041066,0.4119120027254852,-1.0290125252858107,0.26490878194780576,1.1127103845116473,-0.09432793072621948,0.08545545103713476,-1.8128415670106417,0.7667342132985193,-0.9493204669626554,1.6048525076260516,-0.6292502431309819,0.13773674929747698,1.203936590215314,0.7699638070892793,-0.10389553293966358
-1.3464156607386353,-0.8701519287054467,-1.8285366146434576,0.8714447452737035,-0.5649882588240547,1.3455346660307557,-0.0695621175661536,-1.0044690430213534,-1.8391919127036664,1.0474515652137355,-1.9591686220479025,0.7444383045019825,0.39880867115311514,1.0833388162609352,-0.07323381038358123,0.02451867174813982
0.34680811714885795,1.7452486751445906,-1.0467947675574178,1.3903832011460273,0.48849326455893033,0.35471830901023216,-1.9184860874979304,1.4605139365586268,1.4133594265395923,-1.7500904719851378,-1.0261981001154101,1.2030687192461258,-1.1245640237752608,0.8615618421070916,-2.060147808373899,1.338517408826322
1.5180101263410042,0.4988553002594114,1.2818940669463768,-0.1649903380203166,0.5852931104494643,0.2631618540197187,0.4755612421092561,0.3111893269246586,0.42968632756860314,1.793656470229965,-1.8400690267308466,0.06693358583666154,1.499642443159889,-0.3484106990454072,-0.5849136698527122,-0.16243515281784804
-1.9472285290057192,-1.6659499967799385,1.4545868092746033,1.935208780060408,0.3874193819806505,-0.138314915390092,1.870880087935194,-1.5815178973808672,0.06011763870073672,-1.051965140007987,-1.0707446284512334,0.3563161003130597,1.8258821741462676,0.7143490599697353,0.34403835838903973,-0.3437275256737542
-1.313047572990485,-1.1107434730177488,0.6126321594540243,-0.8722747022448178,-1.579357384109613,-1.02736757773872,0.053287282477209263,-1.5691781245212924,0.06145382072828198,0.27323502044830894,-0.21538763753254653,1.3279371084334364,-1.0213581802347158,-1.2013813042296104,0.7856834770179653,-1.3411766783831527
-1.581183920097104,1.477768202294643,1.2627817340510226,-1.7221334378576834,0.17451298809368476,-1.504227284793204,1.5042242945703177,0.47735942789373587,-0.48961884769860387,0.23004126039939443,-0.10597211581771213,1.7897568097861645,0.6144862276208454,-0.4263954180369218,-1.4055523749829044,1.5753883446002326
-0.5500048374268243,-1.0496046584383838,-0.19973445663902778,1.5660199611170715,-0.04924610071028113,0.2870216639152092,0.9337483091844092,0.8703622807453746,-1.107191087961707,1.2985108061487924,-1.308486718070208,1.0851769617425382,-1.9081041796537415,1.6266290733556112,-1.4554743284311877,-0.2437373666543956
0.4463648821543935,-1.8094837866073465,-1.1857576384670363,-1.3319393020902104,-0.8556020896018783,-1.6887071457339657,1.3699821636366378,-1.6435140319245205,-1.4623780639380741,-1.8306878793269639,1.2108356140919248,-1.4423322316022569,0.8329146741682047,1.534019016924098,1.8200072693484652,-1.0151943823666092
-1.7864806282739303,1.5404534046926277,-1.985571583663635,-0.0464388800502733,-1.4274042768581028,1.9335739347723502,1.7037238238311292,-1.9427901502300098,-1.7318762591383496,0.8418171049666747,-1.5402351355012471,1.253414421828845,-0.7833663734156517,1.2270327621707406,1.9489630669436768,-0.4348842551678751
1.88133791369689,0.8757370997744407,1.8209022406370683,-0.6337869624363961,-1.7856272497757524,0.5518960408492997,-0.575123623519906,0.3413462731197052,0.6316611439002462,-0.2338417130094821,0.4684067931386422,-1.6499483110394548,-0.9201347312704029,0.6914566186363706,1.0854300649683637,0.8062445041139608
0.9593667988683725,-1.0882252297860067,-1.4624156913294102,-1.8512900992338945,1.8136058904205052,-1.1647231926769894,0.8004514004132832,1.4487671269363842,0.8260515109074067,1.9056919485032888,0.8263684952689729,-1.411512543799092,-1.14265662698427,-0.5425288900171292,-1.7418101927676277,-1.8183260175799525
-1.8829026999138678,1.6229988991732558,1.7368631942520691,-1.3384199367335805,-0.9336362839178292,-0.6969020481419173,-1.38717718495176,1.7823990794413378,-1.9267035090267246,0.4165807938700521,-0.16754794004674656,1.72082895032404,-1.6236420449683373,-0.14507233023127997,1.80922864028335,0.4528898735369631
-1.4487548845668727,-1.2371796160743593,-1.7723055082759092,-1.4875922095846663,1.1588296507389741,-1.2205052485440193,0.15420638877400883,-1.5693849673350502,0.21982762585274251,1.876415859362726,1.4035884327433816,0.5389695660697766,0.6189969821230235,0.8503374558675945,-1.4659101796162055,1.436670634968391
0.7247252236130648,0.01623457590429256,0.10038632167827055,0.5095168785468918,1.8384091414105606,1.1177926263038156,0.5406437022913959,-0.2373600960383535,-0.9190899260980414,-1.2682735773271143,1.2624618532266445,1.4678315133752182,-1.3087849100296793,1.851036921783082,-0.884362805929479,-0.3654864081094531
1.636331785940179,-0.7813120904008226,1.4316628935007634,1.0615069410545948,-1.0377782442309709,1.297539872128978,1.5242320900655524,-0.4538606211821059,-0.059070265871436156,-1.5797038990941745,-1.9758642893675606,-1.0759986318613723,0.6317048918096124,0.6393347001418754,-1.2849918745355726,-1.5301703785803902
-0.642345463898919,1.5627413484041748,-1.501285706897403,-1.2284833471476206,-0.8886437346412817,0.3099664411499523,1.798961651815692,-0.7656144284563937,-0.8008926643389396,1.1865436919631422,0.9189798891733512,1.1539383599230186,0.9753353252076891,-1.9690906182235328,-1.9087326926173014,1.9635744521063958
0.5721990836816468,-0.3461362380934143,-0.978284176610237,0.9609551891719574,1.8671375908143903,1.6650235919114036,-1.4205192904497292,-0.21899604793627603,0.9171503783748398,1.0868698686911982,1.4250906683691924,0.6804613323766882,1.9384122279583638,-0.22639431698414603,1.4862583223255892,1.360993633339925
-1.6323066275816656,0.22771010511825773,0.7197191710435997,-1.306693965799481,1.2062562974748166,-1.5201291737405067,1.9188920228376944,-0.2504271191283074,-0.5710975495336741,-0.11797477298482306,-1.9029234433015123,0.7130056952979409,-0.868594139724693,0.709233690903301,-1.5504316866025878,0.9143030633727416
-1.0259917604509612,-0.27489870884455225,0.4418787934456776,0.2944048764141627,1.5301987374034574,1.9614307776298658,-1.4149885125803658,1.2121266766194094,-0.8625990792663929,1.4833055299301043,1.3945138870000058,1.1592327734118713,0.676939933483482,1.2422056971222153,-1.1177082043562203,1.580861778959683
-0.43209519594274326,-0.15891473447640836,0.6989474147950006,-1.3387665369812325,0.07767972487112829,1.168892896227121,-1.4670581718247164,0.40394516966575367,1.7176045628390564,0.14370134713123406,-0.6926434019502854,-1.3047742502387845,-1.3824280222701746,0.04748754260128818,0.9788401848016322,-0.07243624853113095
1.0100099140853538,-1.5595992431412138,1.9885047772236897,-0.48561410806115424,0.7628463175379196,0.17110494260989872,-0.9359831387937683,1.668801882201767,-0.912773964818768,1.831464811171129,-1.9161490234778653,0.4658314920735638,1.9064243116196868,-1.8279542481192026,0.2142845981593462,-1.9656704852354898
-0.8047428853365743,-1.0394585942483427,1.4835416837356594,1.4596182256835006,-0.19750405839248447,-1.0689061577225134,-2.001328174148302,0.6057627175077833,-1.900097523814515,-0.38119848411266855,0.9858347341117883,1.9983621204319375,-0.7803528660298911,0.17928499648157192,1.4994250385427903,0.16219540995880966
1.2174861082375084,1.9664642525974227,0.09319547016106622,-0.7167239138628023,1.7491147907734494,0.4877290995173915,-1.0265887899636286,1.8195914608931432,-1.2354581903039459,0.7167067688779101,1.1457594504787054,-1.1715568973618473,1.7450044385414736,1.5667315416364467,0.30581486404795966,-1.5620477225063643
-0.7339725951460494,-0.7548055834991128,1.4706839860935146,0.07727983937562888,-0.426490916608863,-0.7444863592555091,-1.3702557513157863,-0.18322846083585542,1.735359988366337,-0.11307331183656233,-0.2445398873132471,-0.5574935630475832,-0.20849893811838444,-1.1909407409408335,-1.6073890042139345,1.3677844493920923
-0.9187577567172545,-0.6949485198975003,0.8161898255622781,-1.2527655263665571,0.4169922440091187,0.17736398374712614,-1.1572329990387837,-0.6873815830010948,0.7728636952151615,-0.6349806124305717,1.2145614266672218,-1.6416695776881465,1.5526322132360524,0.6393374648934529,0.6583386000083737,0.8073515029586193
0.669072523532197,-1.6432146634880231,-0.9167449236356375,1.8267764083399793,-2.0813583177082275,0.774996923232099,-1.2827457209674726,1.0345638205267855,1.9380410933873922,1.1291593801604352,-0.5596104190279432,0.0838638813584035,0.9581480717358153,-0.07584223114070027,-0.12840439050322114,-1.7318624928711213
-1.3830974793309907,-1.5325109822875826,-0.9986703801496692,-0.7431534769214183,-1.5617247293053391,-0.4700426510683453,0.880852119213186,-0.028074143915845173,1.902258842820134,0.20272740487524743,-1.8489829251499001,0.748103201030121,0.9892887543894675,0.19707579548299003,0.694867825723688,-0.08651062735493475
1.8969202841013488,1.8937525300155644,-1.9294131750090973,0.33365724809585107,0.25596460801986864,-0.8962175098871943,-0.4678604321775622,-1.5408164605837928,0.8399294190969115,-0.3776583024960082,0.8668713882121544,0.021874732295468602,1.029981777002464,-1.2730394045186229,-1.5926664584683259,-0.9886801137642718
0.6297171898991851,0.4861771793359546,-0.4062626770632849,-1.4308854646438407,-1.8587362767238877,-1.6837473281176925,-0.5013851479481755,0.21167638415735457,-1.9290043565859274,-0.9363646233540734,1.133243755428322,0.9546607342381486,1.5486625654579025,0.8440843073179676,1.460938007596595,-1.7383914143950747
-1.2551621592259874,-1.1396214922900985,1.2337708397585803,0.639752308559534,-0.335115753059942,1.471334806760888,-1.2059321627995734,-1.9451016858638757,-0.33294438655213554,-1.2394534288807773,-1.5507254967514514,1.5902581656589008,-1.6610876330440154,-1.7454517897733162,-2.3031411550082836,0.34454697641162824
-1.765494429901742,1.116213609872954,-1.8068809974008917,-1.65876076366871,-1.220859006695226,-1.796511154911205,1.9958685128365272,1.9523193966354149,0.4670204280888077,-1.941358030714516,-1.690380535150966,-1.2600699400776825,1.848274699454043,0.8789505337899617,0.3275880304787946,1.3059990073937948
1.5132696294675028,-1.8606236422634788,0.21556687845168154,0.05517639150447273,-1.479420375608988,0.8294829470733145,1.0374128990030407,0.933919918397232,-1.048856316386357,0.6837538109443901,0.8803244996264121,-2.0205471290339188,1.2798817020741333,-0.46142823938690203,0.5678793949227756,-0.5600864626108191
-1.0953787610496355,-1.8666976800200494,-1.6580228852156842,0.42776134266785437,-1.051680009788409,0.2852384519172415,1.1132169838934298,1.9095129574655099,0.10064809620573811,1.7062978374405278,-1.4625296476587395,-0.6749426378856849,-1.6818850305781923,0.9739072304887935,0.6658589950450029,0.9456801092560236
-0.15424407190789813,1.869421935752015,0.19394037597249092,-0.06686840529990823,-0.5749218684853344,-1.8828618792326384,1.2109015653109192,1.7720047216634387,0.277661031558869,-0.4213322998249218,0.20864957187270528,-1.2208922995247238,0.9031703302372287,-0.5926353983917756,0.9764196178085697,-1.409722742834341
0.6203592954670105,0.9259821396697423,-0.29530486380748844,0.4872691537382208,-1.1982014791551143,-0.4243550761581729,-1.8334656137840573,0.2908299155298888,1.8745796477654766,-0.7575655314258003,0.707947760527305,0.3528571166177694,1.641719358534877,-0.15342298929994458,-1.7239055618306915,-0.47223955944940377
1.1436216255876843,1.7520681281345158,0.7691938479173062,-0.9384579712962808,-1.9072932409235444,-1.5309705140527785,-0.6095506771836866,1.2448491862440099,-1.2968302242402712,-0.45590735370890645,-0.4109107219855901,1.4268987911215176,0.5895731708360601,-0.057577964267216064,0.14442271996774247,-1.4529060997715808
0.2430994611685473,-1.5011429647700556,-1.6609016973244999,-1.895814605423774,-1.4210984003632539,0.27793450636637607,-1.5541779140594922,1.3681458464129372,0.44079112919416197,-0.2184769436924121,-1.4755513546356678,0.3168487796164907,-1.9404792100515769,-0.8664750990540981,0.07699901200461534,-0.5306568593874359
1.8726025820714387,1.063885016249173,-0.75197187725079,-1.2129270763541933,0.4957684714440832,-1.1914937056053332,1.659928877934452,-0.6867782359937542,0.6058177860959644,-1.849004078479668,0.48549083620887445,1.2936012790522895,-0.9502927846203201,-0.6471752385501492,0.6926626741670745,0.8702369543725936
-1.5515371486180127,1.2519870875899515,1.312964869880401,1.5952028563498133,-0.924605512217771,-0.3588108890487054,-1.3262384412164128,-1.2405425394190717,1.0119757735502821,-1.064353712829226,0.5777649519071364,1.9986717518175734,1.7333391446893915,-0.19948594247399543,-0.9278973468216369,1.3917615552522133
1.3040610584339745,-0.044215302576564586,-1.6624221233268055,0.5742992913816871,0.8656218075033428,1.6501061648938142,1.7514397015670702,-1.7237761918182026,1.6352714160093011,-0.1442522143034215,-0.441002812265626,0.44546645615423497,-0.05343695705949525,-1.2155525013286557,-0.9457446630760593,-1.2074476794311857
1.0120228104587454,-0.7287078775778966,-1.0898605627686204,0.6678781618504717,1.0403150526958602,-1.8408753297109217,1.8076644014917806,-0.40311164327218174,1.9527639231647265,1.9937707444384136,-0.4098973852963672,1.2042059067490194,1.709387366861388,-0.5639162858801168,0.3041678247430708,0.9070302148659941
1.1080141213073915,-1.2419892057773176,-0.853500997174991,1.084667875800931,-1.4810972582648478,0.39345913558770595,-0.04843444586829104,0.5482738037401451,-1.9591044039520913,-0.06884704862433333,0.6333366255228801,1.0065858509698686,-1.6962959930682633,1.9035787085829505,0.9473522621157895,-0.7321283993458807
-1.9027836404238294,-0.1876871119510124,-1.270177097585489,-0.6580523809436265,0.410625087275831,-0.5255617613949122,-0.9644608961092365,1.1254358433357532,-1.8269041629777707,-1.920156924697141,-0.09691471729343215,-0.4752595302364693,1.6280730755633148,-1.1071850867160835,-0.2592420456811735,1.1867220302267696
-0.7367162434194121,-1.8719792229869952,1.0702048835956113,-0.46323509965220566,0.6435997134026903,-0.9842685873069783,-1.0455375275935523,0.34642256889384715,-0.809883261888257,0.4721455359697022,1.7503908891264444,0.959511184413397,1.0655890323975274,1.0807471903753476,-1.8181336087759932,0.5093833238558458
0.13898562766048306,1.6328836633652717,-0.6363982219747313,0.9786697514281957,0.1739760289171839,-0.03457609221747182,0.3081946307593699,1.5236066139958542,-0.5400810855655696,0.27884927041039065,1.9907418077640937,-1.0626250112593865,-0.18565861433405484,0.8901050977225866,-0.5135907641478292,-1.6768855260988462
-1.342666395567155,-0.9347728561553788,-1.7197468613886375,-0.0360866020626216,-0.9065466176517942,-0.04177831981356306,-0.3911349206738528,0.9099566760373738,-0.7790078910842286,0.17938589779482372,0.4344579213732698,-0.34232029185542245,-1.6638474098674356,0.82808587715569,-1.8896632142833463,-1.7783573260756604
-1.5719791636862936,1.422655456100617,0.2660707882739084,1.7904784109344818,0.28058914567469584,1.1594139570758366,0.08971391891469782,0.8493909805447033,-1.8209691879253045,1.1897296083134012,-0.8912652136110104,1.9177356546702078,-1.1049141004957526,0.7987356058919151,1.5487405882186849,1.9008186862075793
-0.3252884203550028,0.9054100855952223,1.448869022766829,-0.7998893687946387,1.16109272106319,0.2521632763327051,0.9648854322546221,1.9739714630530907,0.2561109583326511,0.7236558716451875,0.8806664222042855,-1.633199176587782,-0.6792592926171372,0.1316798492824045,-1.793067594416597,-0.5316774445842372
1.6408830888327488,1.1138025532422908,0.731790321619608,0.6089262603431709,1.7162390060102912,0.9561314785377601,1.984639090436814,-0.4663747108968579,-0.4372279934508514,-1.3755861683243609,1.6473811212525336,-1.674142499618823,0.4548345556053497,-0.2693606293147002,0.9445988760719124,-1.475553411252275
-0.10713784613293731,-1.1278293291129247,1.0731930120761008,-0.10089601915139967,1.4535080320264133,1.7341309151867557,0.2079090379459964,1.9530314509772082,0.5260344125054761,-0.29949298503067645,-0.35341908998644506,0.4063464239304846,-0.6801234226871654,-1.154679741465459,0.0402535530486027,0.8125793713159125
1.2364374568006267,0.11865328335983483,-0.8704495575421771,0.8369568470347089,-0.2150577193944847,0.8537744481250424,-1.059595666967573,-0.8210391351515005,1.84206422009132,1.9645096717535262,-1.7960333486328337,1.59192686606777,-1.2887896067985039,1.420924683871462,-1.4697769153701015,0.6086215260827097
-0.6377618804250744,1.5704631539854317,0.727184000621504,1.755294558296431,1.1462319132126155,-0.03327324402815535,-1.7595838478084356,-0.664239338356353,0.04324252371045301,1.2205194791708487,0.4671635119536031,1.6121601150962057,-2.4172339970385925,1.56256697993547,-1.5166616154185724,0.18844186928848466
1.7748868941757205,-0.4193724885240173,-1.6638360018066387,-0.8063444169420184,1.0439096482712613,-0.8533620599181981,-1.0293043414205072,-1.4188713906077428,-1.927489930035677,1.274131039917799,-1.0681865729041675,-0.6881132679202375,-0.3028479418187131,0.30201617602766095,0.7722041781712625,1.9974051178844983
1.4674225760974804,0.5827155303581629,1.4974407405950891,-0.21398412413700862,-2.086254457258078,0.31270131798964096,-0.834532513729391,1.7733052872562984,1.9376451305903326,1.3675786754158428,-2.6193641886086625,-0.19338030238713833,-0.25285462548156645,-1.6816183278353376,-0.9572990355422764,1.0610878440228109
0.8186893434853193,-0.5271903408854435,-0.1385640508837631,-1.6363003264360914,-1.6408677478049363,-1.658295103697177,1.9138985468970162,0.02698306797036265,1.0389505074897758,1.2685216006417033,-0.2535135799276329,1.9278198935634432,-0.7284180715366095,0.44496204449895194,-0.2033782868214402,-0.43290572597665866
0.9203868694728912,1.1427731752574397,1.8049514722463107,-0.9829996176410178,0.04966283292496311,1.8546265672743245,-1.2472789395395971,-1.1155700620356268,0.8968103860444196,-1.501357844907434,-0.9985685191481798,-2.0438969054266742,-0.7715337614331991,0.48929898245026665,-3.1950353884937317,0.5330978899988492
1.1651764292200935,-0.14412264533875785,-0.4282337299443668,-0.4149780106997354,-1.9225970777347223,-0.5077671113897853,0.9806101473322406,0.42474211348910274,-0.362508024687493,0.5024943412402747,-0.588124939733845,-1.0144881165273123,-1.279746174937305,0.5562067580055818,1.813407309455357,1.5347669614110524
1.0887812546916975,1.9583362203563963,-1.8589471199659238,-0.6536675774417793,0.2654736449784797,0.8887742962566224,-1.384690995150675,-1.6887041588882097,1.6255432354059165,-1.7015071167760574,-4.710643795789525,-0.7277762462105037,-3.711438990293431,0.6202287462698712,-2.6123579577610676,-0.11944780997664955
1.4462718698062784,1.7528192473583384,-0.6083559563252634,0.6309113245821703,0.22738440413823957,0.5013912676265324,-1.2549287245306089,-1.0293396264388206,1.1530391638184199,-1.0224632619362897,-1.9267053986433265,-1.6830090525613968,0.3608047501892502,1.200201715847915,1.4481388253084595,-1.0366081599717454
1.7901840418019193,-0.9611837403856871,1.1116957865534565,-0.356697426780729,-1.7281933499141644,-1.950871995162447,-2.8172485909761464,-0.4944770989495382,-1.451988114724899,-0.8070645581106295,-0.4164385921648192,-2.2520543616111004,-0.7681097971911298,1.022416738199821,-3.7745215049530145,-0.9099513760888871
-0.8960680059443997,-0.9765552914243685,1.6430401175303393,1.2644993862402458,0.03726314870252878,-0.08402918743420029,-0.04299095176065437,0.5054499032097968,-0.4806369074408021,-0.784776497407512,-1.8661282187564998,-0.5204780660729376,-0.15840828672892426,-0.9157140401079058,-1.1791958183228002,-1.1680380642509212
0.08631095205393174,-0.5415544597348477,1.9713379677263636,0.5547184181901268,0.7906971962209743,-1.1778116030080086,-1.7394173150753864,-1.130614116927247,1.0112000916127348,-1.1546121692021942,-2.4744720733409427,-0.02545968274236306,-0.7414625325137862,0.41673589614353157,0.9160701152326662,0.20300740806769113
-0.13764575839143012,1.7895946251498054,-1.4642409302337787,0.28945724847074894,0.016377125885400634,-0.7329445050912309,-1.7819129867486763,-1.5505277330415157,-0.5771789743685232,-0.22030691874471575,1.3687995402798165,1.4047784627926365,1.2258734948664003,0.8244056150323584,-0.4830950322226162,0.14198729552785405
0.9224711104988739,0.6075964501047552,-0.7793104974783424,1.0697849499656664,-0.9247397572938724,-0.5244764520608305,1.5953416359655246,0.2070011548964601,0.711524657579829,-1.7168402874281168,-1.9225751873388592,1.5721593587525282,0.8767540975158694,-0.04987898936102303,-1.3558916395693368,-0.9856117820828585
1.6289131824269885,-1.0812835913603394,-1.301532260912246,1.149383446718932,-1.5009306787895316,1.6336878095508451,0.5091033727231258,0.3361452213400229,-1.6135381291913853,-0.20218637344953017,0.8168897084488114,-0.3185539139129223,-0.10257582546998156,-0.9199758910438947,1.0708696387792536,-1.0079839840968874
-0.07072280753266469,0.24918897833318343,1.0995317543023,1.8594594600994099,0.768787768170683,1.4499896351572765,-2.0692804190640937,1.7885622626782527,1.2350159987539642,1.60993206520688,-0.9142688985425846,-1.970905718985712,-1.987812702121984,-0.1892601610531397,1.8956320932793211,1.68031267330905
-0.014500662452378243,-0.22767459994967743,1.568093080506427,-1.869266778342074,-0.2956345149502466,1.6002073114573871,-0.9415549061305133,1.195353788267667,-1.2665503315865334,0.18134627253932045,-0.42971421871050675,1.0696465723770512,0.8274243237497552,1.9837374404880035,-0.5833950635858427,0.4283820256909916
-1.2155677313189042,1.474895307105304,0.41548036323997367,-1.1896516711124878,0.20683676125519407,1.7956772331215087,-2.046982022580997,0.7947592483939578,-1.466559644773715,1.4002403610030543,0.31589305393378403,1.078661543010055,-0.4204342167993267,1.3992741518697334,0.29922092129481853,-0.1983510805670199
0.059314078790943636,0.9012855676656932,0.9618543350014539,1.8403557126650227,-0.07736092572809827,0.9234502389187047,-0.6854644675936523,-0.19860758694309855,1.9314652061877151,-0.5628036351782653,0.4757264767048244,0.2063247382042146,-0.9837124630595993,-1.6029602305997361,1.1605359989757726,0.8654889221276121
-1.7657522593177832,-0.6977209932459294,-0.7583024271331973,-1.713350412116922,1.829691907572355,-1.3272457333157295,1.1591956375207264,1.1688722191085006,-0.37204808965410985,0.34364045940064125,0.38932253901845826,1.2759394931914891,0.6731182558569548,-1.2578299799681463,-1.9803074023398368,-1.9564261928054147
-0.6006530582560758,-0.48998314975703616,0.3441166344023463,0.7342026837496558,-1.255787230710418,-0.11219574449441527,-1.9170357617259062,-1.844648000831428,-0.4213796563170953,1.5011855320485425,-1.2449485928652257,1.7896678793741465,0.15274826948223952,-1.8162216940847382,1.9564642353842037,-1.9476065745566635
-1.2249392353072146,1.8165731139188717,-1.8159697195901834,-0.7675666080861787,-0.3395919085439787,-1.2623207736300857,-1.9788191784862303,-0.9850808023790742,0.1210270230661381,-1.8068149696544245,1.3247421225875549,0.725824014588563,-1.6249817880044746,1.6315884547706538,1.0172001058668365,0.48261151635511945
-1.8069191833995677,1.3420193549309625,0.5794490329398636,0.8030815075355453,-1.2702767704400308,-0.9286715375021752,-0.1537273550922853,1.4245598919007052,-0.38019927628453676,0.1424272522703247,-0.6019640890052433,0.43452480204784116,0.16692128198833833,-1.4870687086421803,1.3261400283552418,-0.7438081628275413
-0.17578298473129994,1.112132215688347,-0.3417394792449122,0.9345395343420853,0.8573057238845943,-1.316160027127605,0.28441407580277955,1.399033575807592,0.4745298428438378,-0.7782617286800879,0.8293460946907287,0.8424782694598485,1.1080167837806405,-0.47956064753987615,1.761490333118152,0.281503411005529
-0.6689742671243644,-0.3945316578499023,-1.0844718609668917,-0.09051841391440574,-0.7301518071431774,1.9253418543660281,0.3763564422230199,1.1582290390638663,-1.349466699904645,0.8987150499247667,-1.16164294440346,-0.08858373068269287,-0.1579985430381181,1.37387120406524,-0.7593219658900985,0.5037514689968985
-0.37675763989120536,-1.3596368027628731,1.557490779260113,1.9648737804448793,-0.972963227320651,0.8001894660281823,-0.34205631085388827,-1.1925933282934307,-1.663270984334574,1.8003762720118925,0.6415551847537946,-1.861505766767046,1.4029007156510764,-0.6722069457959452,0.5425347296029678,-0.15140731630969045
-0.8713295758601527,1.7147217332333358,-1.1427463601559746,-1.9897871853743339,0.435624188634784,-1.2666708234404798,-0.30485945630425704,-1.4884022308124334,0.5136716258015763,1.5527342869845735,-0.7907040109262358,1.2324691199080342,1.9346569722254134,-1.6613326243722346,0.7583680354451423,0.9528873791401042
1.779551477040679,-0.3572495792940158,0.9519098594491976,-0.3300228102229572,-1.9485116849282869,-1.6335532448324384,-0.5145593794974512,-0.7466430235028745,1.535198768381334,0.5848380121066667,1.1680970314868016,1.3169955625150007,-0.21725565797425386,0.6947188726955782,-0.22198607187219072,-1.9781127802723248
0.3884614564395821,1.7730238887029661,-1.120993039674825,0.9287167552988254,-0.590430224066687,0.28074464322640047,-0.0656318986477622,0.07917090777682212,-1.4998768247363197,0.043686718145477865,0.911795749103832,0.672205860856383,0.4922823012650337,-1.1158304964522294,-0.7012872921326707,0.25944321254750546
-0.1876138353842669,-0.47137242786974204,-1.5429061186523603,-0.6080336567511182,0.12505425121402136,1.6554447289815508,-0.3013259495364062,-1.8904948538805622,0.16423754792617185,-0.2682568250816099,-3.1019342937831773,-0.2330889484870381,-1.6153115567022542,1.7445058834382987,0.05270648578095964,1.9292972490859848
1.6530512237108952,-1.2605731345750488,-0.8240151444631918,1.402919182543719,0.39181416138188796,-1.535350047125763,1.6842339447960208,0.5236011583334088,-0.2516809915402658,1.7958289501903693,0.841675891862844,-0.8498302097704027,0.6493036380293877,1.02035382424366,1.6333131144650626,-1.3063129229124324
-0.27917444895287336,0.7186540672691989,-0.10735777714344982,1.4911777261499681,-0.7497104126127828,-0.6371943305693175,-3.2779523240250397,-0.18566718872202914,0.909136798553556,0.6090113452117898,-2.822437138495274,-3.284068741348023,-3.461057377602817,-2.3620830034115485,-4.007539755926723,0.8693966069173131
0.6148512706159002,1.2859914734780444,-0.5386529282545629,1.8628495070289364,0.6243305239600487,-1.7892408901551153,0.00458450211272643,0.05236044883063906,-1.8282311125545485,0.7288201956053344,1.809591184115933,1.6307276263179236,0.6788676555599857,0.04917560584991332,0.3394686867739023,1.442867832237014
1.1927968768570838,-0.23503525510713236,0.9226280924134869,-0.5926281846436083,-0.7445406266042383,-0.3709034635675021,-3.8054991261631668,0.5559209546206691,0.112855972656551,1.074893488291724,-5.456608708756246,-3.5118848373731053,-4.2152546016871755,-0.009804713970659813,-2.1903951846489247,-0.39789483479315496
-0.502272028595276,0.42482856844624095,0.31228498609903177,0.01489665283728625,-1.0643383548661625,0.20908755136073998,1.2981293044044926,-1.182280637765297,1.7277476578632416,1.4955740186842537,1.1778967973728616,1.2546410109969846,0.927423251722157,1.3891034208649127,1.586164041280715,-1.3914705495415127
1.6637047878516,0.06485402446519412,1.715439214180171,0.7766551912888522,-2.059909254862466,0.2976218854007916,-2.8102309259388107,1.1393000303152827,-0.5217326518877196,-1.8545099114213996,-5.5730147112925215,-2.7735522364722014,-3.7706719562396014,-0.09699854164141569,-4.414225726557089,-1.5141709433677022
1.8541354877968268,-0.07730389268863647,-1.9676320443173,-1.1865987589121665,-1.9835134579780793,1.4404582419769887,-1.3237305156445953,-0.14953392999253046,-1.1815696506809186,0.0323329516581623,-1.9380580829775815,1.297667233850765,1.154027612582829,0.44095749003951434,1.9030866706834169,-0.8937129895366205
-0.4700527063608882,0.8825358004902805,-1.2743519270670012,-1.8345600807111548,-1.7926237865072754,-1.1697581340287462,-4.237320125786686,1.2839263774212335,0.3185923361427965,-1.036185046901551,-3.526663164643439,-4.108331776452816,-1.1643300735597137,0.12360521596475987,-1.6008707023716526,-1.1241311764628348
0.7116217985667501,-1.8797816204691187,-1.955342576586753,0.28683667317255956,-0.49931366289244705,1.8187456608438217,0.3651340062482853,-0.3798521458682207,-1.418247940428245,-0.011033394468090041,0.6912565389614853,-0.04421586882715012,-1.4758718644993913,0.9097726675718762,-1.1466279153682462,-1.46407121035503
-0.5902393048735691,-1.8839525807344635,0.27732317582354293,0.1205611645502338,-0.19251903680318047,1.2656983816799756,-2.991151661407059,-0.3615134525478676,0.11207843895745517,-1.1765189068040858,-2.8798063381829246,-2.9477476503416677,-2.178683092267133,-1.93930605617998,-2.441361047042499,-1.3376885409110963
0.8225328115811701,-1.6043379519636485,0.10148070512543628,0.29860771600548963,-1.751127572902528,0.6462330276959634,-0.7295664391059571,1.6799655786113221,-0.8476129676671618,-1.9453018510597766,1.8325065521136872,-1.7346417968045107,-0.36809365344330836,-0.9746314035784089,-0.22133186694854867,0.725160957897184
0.9013115314857134,-0.4790289325637952,-1.5813988514443311,1.3229806862608142,0.9468071835957617,1.7189735274965017,0.4037698709127883,-0.29780641369425576,1.9101469918624736,-1.7697267510843706,-2.711107489229444,-0.6567199759995511,0.38596160137639945,-1.6766807670792792,-2.8946063162145297,0.9956754620917723
-0.9283790215998375,-1.9002257492683285,-1.9588092943141873,0.5202623185782724,-0.9127453009017574,-0.640670726526348,-0.2946568361764763,-1.4188436091776433,1.3798828052143541,-0.6925722938565397,-0.9824265343317262,1.060056136243527,0.689294161165781,-1.8289178137836517,0.7021038727673874,-1.628835918666761
-0.0004979251485455194,-0.8914489721226025,1.0745772767095452,-0.2906802103181034,-0.5475993805253949,-1.057837628933386,0.9451659570031623,-0.056710563149164894,-1.772422810555295,-0.3043288610180769,-1.8177848537134302,0.32100470578819396,-0.9734522151842836,-1.9947372284126241,-0.02528735159074011,-0.9042238673904661
0.29732352057456435,1.9579041573561509,0.28302155216299285,1.7542897345919375,-0.4319739317313127,0.4210668246725291,-1.6865292661576987,-1.0152409189036686,-0.24626824724208518,1.3514861356607608,1.022398469047427,1.6752958604194865,-0.38377375377601375,1.5999382408727207,0.20962628577506992,0.028426787853955027
-0.27067980682350967,0.4111676758444193,1.269027791389406,1.6797942666116206,-0.5315616004188629,-0.43855785140529413,-1.7446754243737073,1.9677925375746308,1.3260685043370675,1.4787225071870225,1.4754222334598746,-0.8678770810487846,-1.4730649759117602,1.3018897417093478,-2.127572902724535,-0.012139677102591673
0.22368654664606247,-1.27528642504602,1.5007299379235497,-1.1057088708007838,0.9358068160881361,-1.5078870315994224,0.2149311261059892,-1.0533382020730113,-1.165493418868834,0.002396900236529831,-1.4622557422285007,0.5866198252934782,-0.9472853313412908,0.6678708791950467,-0.7235521084953191,1.1712943065041004
1.143384101821852,0.7689351943086078,0.14279499831918985,-1.359862326965911,-0.9328660592308018,-1.7898888551139667,1.5399212641211126,1.100190338711355,-0.567469353771116,0.6788493091306194,-0.7738732347939532,1.456399634944157,1.760773686943891,-0.3075947265992274,0.8800135942965217,-0.5838009654387242
-1.2386795983991412,-0.6483048551105499,-0.18320228017215845,0.013536619506375303,-0.3637406024731993,0.9507301179608976,-0.5723180745714447,-0.8268927483948278,0.3115248768951906,-0.14002952844892746,-0.1927636651515261,1.5992702290513803,-1.620253302647026,-1.125302548647615,-1.4545779178233293,-1.853871335307879
-0.39909682127179735,-0.29402483386111467,-1.1428015543287362,0.3101490214394458,-0.4871507360867966,0.8893246940313513,-0.06868797211673439,0.4579177910217318,-0.5250024369143795,1.314991813083036,-0.5363187709071631,0.2114480914296908,0.4869625772946078,-1.348958518314217,-0.4989493973724488,-1.8514916676060653
-1.955971751085936,-1.1832251999942787,-1.5992636889049687,-1.38176437397146,-1.4292580258820964,1.2529760721026255,1.9420145535466484,-1.4667455014169661,-1.4754554241875675,1.6886902653851856,1.10096133723115,1.0234755106658424,1.5511073360235916,-0.3660074053083142,1.639950944149541,-0.4553199049815926
-1.7509790504383056,-1.9290190779094636,-1.9678540338529045,1.224670996087362,-1.1389096201168827,0.6646213312720857,-0.8328973145956544,1.3894449259032657,-1.6978222892904125,0.5396496288569006,1.7117564442809265,-1.0787827730928767,1.45135212456606,-0.32323235678628315,-1.7268232975576776,0.8290883144483634
1.7982738583946944,-1.873014933216107,1.9501673666732655,1.6201290806627422,1.7387693776246174,0.6346537175948348,-1.7448387779391443,-0.6644831604846893,-1.5044157087736174,0.0802909940377794,-1.0340523910158228,0.27642809020214143,-1.7346124228943518,1.8159125047292997,-1.7131999817636974,-1.054469683958931
-0.038646348962761756,-0.27736694773220005,-0.11453221646326528,-1.8306062217838206,-0.6647099543660113,-1.6721560388757797,-2.013849912102415,1.3990782594670819,-0.29651816856230484,1.3264478639328274,-1.0906491104257057,-2.1398730151234973,-1.1310945163508062,0.31952365729522936,-1.3228919699167068,-1.0816065543303166
1.129569819577823,1.4720949074935494,0.34337388636570854,-0.10493618481603262,-1.394244100017521,1.2648593672491155,1.9932595707121932,-1.824031241468811,0.4375125668018134,-0.9960773441814901,-0.2847997924015555,1.6171152308165184,1.526797320147319,0.5381386409567894,0.21078706004230785,0.7189191219463709
1.9480443651845323,-0.8115938559526037,0.04179584585040436,-0.5976774342592632,-2.6429660382878635,0.889820783421686,0.7746607503205672,0.6346277344091593,-1.8769420149211284,1.5738631027344745,-1.1177622884183303,-1.0639962637555573,-1.8832727174346733,-0.9551860857461069,-1.1352218773967153,-1.8427846007207327
0.4854939698171292,-0.4210886319783955,0.9985113538000312,-0.4654696379810024,1.6801981844509166,-0.3286564565002026,-1.4532759441124665,-0.25613420130225295,-0.5854728250563088,1.345083880495221,0.8969974240026248,1.154013128359404,0.755899346391721,0.8272245032973777,0.8285787998888914,-1.0594646874798275
-1.1005243735831072,-0.7027262670266642,-1.4322053324604074,0.7189356754195848,-2.705340607790426,0.9980133125166518,-2.0406561658597737,0.7222337728977419,0.9569737871892209,0.904354883785416,-3.9257215999136488,-0.2627555944942135,-1.5386464769650652,0.428119712957118,-3.6447687565128035,0.49605068096616645
-1.074323420949797,-0.9075753081894744,-1.393592187241607,-0.21157630105932856,-0.892518367101907,1.6242439174475267,1.2977133836536474,-1.6474886114803384,-0.11402973161547925,1.7304463844375508,-1.2634286214412604,-1.9407552551445462,0.1481672281926243,-1.734070523389863,-1.15170235906754,1.6762112142178638
0.19550804265089594,-1.86910259524111,-1.510760908830176,0.4333548684680908,-1.4205671696395534,-0.6298947706614093,-4.822224871244515,1.8391112065169022,1.5110172328971376,-0.5223706950524274,-5.88758730397223,-1.2310434273822068,-4.122968341315846,-2.2527153483513556,-2.590454005951276,-1.3011935849834835
-1.0647464319357165,-1.1173128758468902,-1.1325798520899668,0.7803334891575626,-1.7182036901568325,-1.9002958109571884,-0.6674743771653806,1.4928988745573006,1.7581009732996034,1.729311773937955,-1.8795980594457653,0.35958425464696786,-1.9065547666894083,0.02172335449108287,0.6457651991016697,-0.11657997566680622
-1.8762088291304009,-1.2407552135798459,0.5904347156015272,-0.35814123893987304,-1.131328941890353,-1.5675655211103465,-4.599351563859332,-0.3604701415450373,1.274098857012544,1.378128154575853,-4.570906414708654,-1.8500019319847438,-1.9608594324834352,-2.6131806617603357,-3.3242553547721463,-1.9301196214695877
-0.3030940316939934,1.350710607972216,0.3011876639168358,-1.283355830896717,0.5637077332172056,-0.025568325204134545,-1.6934921873893547,1.6476835183463634,1.9451258867255374,0.937810656628375,1.215074476803225,1.0351529070014625,-0.023041022022638913,-0.5253444036239134,-0.40522382506354626,1.4163284097207938
1.7505266045004477,-0.45859760157493296,1.7493722075784963,-0.3134928846997398,-4.076341008004359,-1.8846006535817699,-3.36828031083552,0.42170240087963595,0.8280282297497397,-1.6285277648622072,-4.789817516751879,-5.1115305181907695,-0.8297446640745995,-1.4401129966840525,-4.767964481171012,1.4344578052072805
0.6634922768471698,-1.2639446384213877,-1.6238896164579222,-0.6840455715519957,1.1582296044865519,1.7008332244574498,-0.35040029003371886,0.3581883940502566,1.1380656835957321,-1.3189995773511223,0.4093571728728578,1.7690053752862305,-0.5261188720001067,-1.0082299262772714,-1.7351392231964047,1.5745575592420415
-0.835302887363725,0.45456628494462475,0.23343085181099799,0.4554313707295483,-1.409074060999125,-1.2659463277907679,-5.572795677888134,-1.609374680597261,-1.9722074667611489,0.3159826580235187,-6.312720244515879,-3.4937971394669267,-3.1651023350205816,-3.0584021861251243,-6.481129353415433,0.9678585539910737
-0.8666799252063226,0.6981568444044504,0.7470196994991802,-1.4617905192083858,1.5210182583124743,-1.2972557276471575,0.22122956352102818,-0.9502453674477773,-0.2093813389612813,0.1401810965296706,-1.789746162333227,0.6043088161518044,-0.2823313526720064,-0.7165491364241539,-1.3488113346943789,-1.1290031712151931
-0.6989337071052535,0.5528166531964638,1.7491807541366189,-0.0791924818305989,-2.650682170837834,1.4299596230758436,-0.8354366634014726,1.1113036406777246,-1.4467251415649771,-1.474962555842819,-4.356420413206494,-1.988934444053272,-0.7706244498864251,-1.9924850216258407,-4.732827871418183,-0.44479625250157084
-1.171268577959479,-0.8126754886270038,-1.0881463217151905,-0.33545859918520593,-0.42237447940058415,-0.061530585796409465,-1.901124202839545,-1.5039457787984576,0.5512561289400733,0.9901197444669623,-1.6285563072038394,-0.7117071992929045,-0.3723531313961588,0.3470557198914217,-1.9783828931404464,1.399672760973397
-1.4786875975943197,-0.3860294104918005,0.3237250770488934,1.4333594165994876,-0.1962682938092527,1.9786222495886165,-0.030752395319157484,1.721925087902846,-1.7310419702528015,-1.218167621555224,-3.176056866343781,-0.9595016699381788,0.08397464520527488,0.7728261837236532,0.1645492053998155,-1.7208453818035183
-0.17575935925031505,-0.1460640239083708,-1.3754572589526934,-1.0313730864572483,-0.3109161701833205,0.46698599563149434,1.4639030755520799,-1.3442057438704706,1.0264938046954524,-1.5193079912864755,-1.9094536412085863,1.3669491926548947,1.143082001274009,1.650455672691173,0.20128875189536277,-1.2610384796159275
-0.07023440492135086,0.1758218326056638,-0.12038688377467899,1.3501605744553449,-0.03794738844344522,1.7955441691165865,0.8157802435322048,-0.5796796001633182,1.8681537390248368,0.14602157519617343,-1.2838661326206589,-0.24775641828434938,1.0533674518915952,0.46781068619497507,1.1953334599474619,-0.16804887695641574
1.0684572757161193,-0.9107481519536109,1.7553301341343195,-1.831150753635085,-0.3017803189574071,-0.24138088252525103,-0.3324361631827104,-0.9080494145013978,0.6289188550114284,-0.1264546765621919,-1.821698565769303,0.7539426941782552,0.9197416582193365,-0.6031266574983718,0.14653114078830365,0.20684149597425927
1.964481215023663,-0.5730657702847015,1.9889502928123832,0.8504641908851429,0.7593632519793351,-0.5204470055395891,-0.2528108929732428,-1.4235214662332725,0.9973007285565538,-0.9676379008090747,-1.5283066470602313,-0.4723930285432332,-1.300739999939803,-1.7798024847183198,-0.8198640378686167,1.2184520937783363
1.5420954093562451,0.8388328530656244,-0.11945224497736717,-1.7154833683646933,1.4173301560597746,-0.5051067188268674,-1.150480465159057,1.6991992140952603,1.0078970446402464,-0.5300967059448864,-0.5907729438815226,-1.865193223805834,-0.8473228368701351,1.6788776587966492,1.6053246517523618,0.8440093302697886
0.335243567318412,0.8031855261430594,1.823098980581991,0.22015688279981527,1.7163007334936182,-1.7184383112703752,0.7057945150872311,0.8204231704476919,0.029950325559970015,-0.08627275073175111,-0.8350308835961324,-1.4914812129844979,1.563916439311999,1.5544785740768372,1.1082882244962997,-1.0923125117164227
-0.6893656392654917,-1.5920179321690924,-1.8302373592755639,0.5168310211816229,1.5059345791939065,0.9696181491285212,1.4545118388121256,-0.27645970870776004,-1.2132741494055947,1.769874019493726,-0.2917911856367912,1.4744077621594682,-1.157015901447112,-0.3164979392131486,-0.5374635707712101,1.826254132281023
1.4812998471337462,1.2830969878744685,-0.7092429047893734,1.573718685999463,-1.4446614998557803,-1.8180344602523495,-1.493877624155172,-1.3371966132574675,0.008495115974967327,-1.1364759794923276,0.7353266715429276,0.6126293226859523,-0.9530477181854558,-1.850971059322315,-0.7867630620211363,1.62794268637121
-1.028663287223182,-0.5432711016712091,-1.2438492035602882,1.1360986117862173,1.557079965983574,0.964952205953975,-1.6399904663963802,-1.0599403297886285,1.5524930389736809,-1.0446765053266804,1.9153738443958979,-1.6945266802645258,1.4481171446691432,-0.7557379427217836,-1.726191008051964,-1.9163359663499473
-1.6574499751531384,-0.9968711278081144,-0.2162420642400688,0.8417520373510019,-1.1763543617649312,0.261093845085532,1.6743641214102944,-1.301855357238146,-0.40721749768745363,1.3161909550207338,-1.5297302021741692,1.0164275745947662,-0.4174064359270009,0.4094530239931027,1.7521589819988468,-1.5660911333129044
-1.4445693540849196,1.5952720575984243,-1.8406859576086005,-1.1159187341648007,-1.4257010013803249,0.8690870342616819,-1.807574660184844,1.9369498860116163,-1.9173026167338096,0.22014922045297824,1.4805049622686832,-1.7082214891495955,-0.3019500687793695,0.6694001047382145,-0.5246733643205079,1.9691748319490054
1.7720408805251697,-1.091022503393622,1.3763592521532804,-0.9432734712953041,-0.021045818233867628,0.453808582272595,1.096584747086769,-1.688562488698309,-0.286777572211216,1.8467918939792178,-1.3742840705371977,-1.4180611197673234,-0.47298730552847723,1.157204660307519,0.6968182628156218,-0.12051341092065981
0.6124695135468685,-1.914819341869772,-1.2431988743170201,0.8062133192137351,-1.265026969508824,0.28802015619148946,-1.8658297554061813,1.7753849211379302,0.9312254305528596,0.5315012672082928,1.101433746718134,1.9604357480979568,0.6832945184875516,-1.171723331445452,-1.4687719697031287,1.2448418149244742
1.0699416321031996,1.7687044890746857,1.1497773037137868,1.7119053825449457,-2.4962787477234305,-0.5857613144607452,-1.8149350041818306,1.34743160064181,-1.828182174995776,-1.9302434983049142,-2.696654276435236,0.5108038388248014,-1.242532025356245,1.405576693871851,-2.0241004496138166,1.8995422774842956
-0.7449621449234574,-1.1049743415352076,-0.44702749780528306,-1.3000607842831444,-0.5872943996270528,1.486997926117891,0.7881829186802243,1.2915989056951487,1.9364018427055751,-1.70986109738221,1.8245456438540368,0.6235477878279454,1.1103722685033497,-1.7121514095378347,0.5141793751689816,1.9493802669401181
-0.8066599389638333,0.5348394972117598,1.6520396516178388,-1.5900607858494613,-3.5788652866804433,-0.3295503124856311,-4.4600093242812,1.3046850124053537,1.0984275742980967,0.5591880342755934,-4.80393450112659,-2.7322585580180276,-2.445030699240982,-2.132616199764081,-1.419464070258991,0.5558589418894258
-1.355209840313519,-0.2663526657530868,1.0088520768701814,-0.5352014037959774,0.3935389492772794,0.3711982828402802,1.3702201617507792,0.05007761296087976,-0.9654279912417487,1.2895685168033166,-0.3457450418050838,-1.3446698597523592,0.6314393655095349,1.616081069312425,0.24795750838998565,0.3238284182038136
-0.592355484124056,-1.2022176053450866,1.0845781062887911,0.03042809713249328,-4.353846016827824,0.8135363487393519,-4.455045436678421,0.8830832194987024,0.8213130793002151,-1.4657435426886152,-4.108608967451387,-4.1300905358392885,-3.0226050635095745,-2.6374808142095096,-3.104639250394135,0.1940548380501934
-1.2287876115780008,-0.09789301062944666,0.2617820866364471,-1.287551947031301,0.7979145748564735,-0.31380861426500317,-0.9514815016474638,1.6172030573377318,-0.028983077416651515,-1.7285637424330873,1.8113211806842617,-0.7520559280220325,-0.36074233804979317,-0.6961973052974031,-1.2771799960840702,-0.5622457668130383
0.03131076748270118,1.3555051673873661,-0.030744763884483613,0.20255423054212596,-2.3259292084820355,0.2837778747694085,-5.513361796122845,-1.11818360740146,0.6891448736529708,0.9731390829056134,-7.6059974384455815,-3.618676613050047,-3.730096577037846,-1.5790972597607884,-5.8861419544223175,0.10979465253257781
-0.2533228128386522,1.3116878754338481,0.9645827103199927,-0.1415086038836062,0.18187369343954618,0.276058166621191,0.5135907092646774,0.403948341111112,0.12645244792663313,-1.848780335650292,1.5572260614126856,-0.11829785948029459,0.8992678517993387,-0.16115085977084487,1.1314547294212085,-1.6135398105813268
-0.9476271301710477,0.27262800587693553,-0.2644330603967367,1.2197359473049048,-2.3815435478018423,0.7482102560204548,-4.610453603190777,-1.7774007768265516,-1.3985474573521974,-1.5996784640732986,-5.547477995927409,-3.1869483517183976,-1.8817228682551659,-3.5681500913881945,-7.338221292893643,-0.6533053317639729
0.24938940392721642,0.5022907964240484,-0.8642536033622408,1.367375220254123,-1.8842908414880601,-1.228405850981063,0.14003009154399937,0.2668161465253389,0.1485891466702829,-1.038065235895492,0.3471667171359827,-1.9566185909406117,-0.9244389545942555,-1.127485737342441,1.8273484334357377,-1.4632896229153434
-1.7557014991209163,1.1664288091974386,0.40996939384146064,0.8041091739469945,-0.9308784577268148,1.489712883335109,-3.7820790951259555,-1.759965831690633,1.0288308827315562,1.0728035152757174,-5.983283370387159,-2.49422294295513,-3.7438196706189104,-3.1329744759667024,-5.543574115971838,0.9329636188482833
-1.7508751368226525,-1.0908970793235628,0.45575068406918984,-1.7716226055737767,1.6638994190549323,-1.70972619014074,1.8529859281939305,-0.3516497633833029,-1.3535921929564512,1.067983582570775,1.2284230446467608,-0.24194227824722425,-0.9919718655082588,1.3635715996820603,1.2802597230544182,0.5876120361543187
0.7017617476526008,1.9224712681529237,0.6778712668317497,-1.7512377910911985,-0.6897556637070158,-0.01779404363746295,-4.385340869982583,-1.9346661830242304,-1.805377633588733,0.3599981319119875,-2.9296881495664335,-3.2007944777082113,-2.566867847651323,-1.3223222606965896,-5.348624883068322,0.44611481749861304
0.40659887267267303,-1.469766378074993,0.9318798371771679,-1.9065769393315866,-0.5193119471819774,1.2577235730806189,-0.05665016531619038,0.14044358108717825,0.3889841223088406,-0.12763860682108819,0.8176609311057788,-0.5774001374316806,1.526667014984914,-1.025461002919133,-0.0015776622575227606,-1.6246085078934902
1.6143870950113461,0.9815354551628961,-1.309511148788352,-1.1400657768223046,-0.8375735728704915,0.975311079436745,-3.438341298594766,1.6257949624752497,-1.9515551647657872,0.07960873550981351,-4.132485435293232,-0.18632467916616094,-1.2266062884332325,1.2640697692118994,-3.8939842615049702,1.2671139702750618
-0.6717257037294742,-0.382264674471414,-0.01052273615161825,-1.046777913373004,-1.5483758265617729,1.4894461998074315,0.7178841922676256,-0.1420115444434633,0.6645025410361836,-1.1727304732883228,0.07466303116136341,0.43194260241290783,-1.6847916747815486,1.3342577946525944,1.6861073310934067,-1.3825852908566318
-0.9681413376975057,-1.368476904940826,0.3479923400760496,-1.5692048561505452,-0.9361205137397443,0.06455460492754689,-0.11278826917613567,-1.5283662178614277,0.7027917935891089,-1.7278846207644638,0.12706755467346403,-1.921504724061484,-1.4162713683361556,-0.009068893620015596,-0.08398758087173375,0.5891685766489035
1.5766374885859111,0.04934379656688215,0.044920398364823644,1.2567860091147853,0.008399545361279959,-0.4649926135978353,-1.790443658739628,1.3949969452569824,-1.6307947125303057,1.8295026196276805,-0.6362746034683351,-1.1846023464212676,0.9192431590963328,-1.3300438240154673,-1.867640225520566,0.985950767633982
-1.7877101477672683,1.793241966757305,1.2759322579247372,1.799719635950824,-1.707211203643931,-1.783458113881296,1.7158538445123575,-0.4231528626551406,1.4036963893493009,1.4443969338946796,0.008750618356936446,1.1694299763943188,1.7724887339046163,-1.5238713150340097,1.2327931575857622,-1.5150537787175127
-0.45745286138116814,0.4338118958504795,-0.2400566949415439,-0.33481209484188446,-0.19107226623283857,1.4573989027100196,-1.8924576291037196,1.169235846764149,0.48720526381721774,-1.9772897591845875,-1.4672362486076316,-0.6301460483605292,-0.34611639467018396,1.8948257789324674,-0.9589194581777178,-0.7362233827893667
0.18664886434279104,0.4087100284817602,0.6123790592023504,-0.7823106319126669,-1.320847434923571,1.2637122475609819,1.7765153771205173,-0.5044404630490917,0.5235422772113845,-0.3100804201185783,-0.1485814169685199,1.7789909624824305,0.655807518734242,-1.4621216755316704,0.7168136226879325,1.583585217721383
-1.9001301174374197,0.09172842386775848,-0.225460943703085,-1.0914117043493676,0.8189254271109827,1.252831156742042,-0.49085957160790317,-0.11071032604172926,1.66145901655963,1.1660639035406941,0.7207593036363078,-0.6377766152673137,-1.6573291101257568,0.708763459794008,1.0799169037180705,-1.8000695803651388
-1.8397600345444003,1.9255249300876471,0.3645735263742704,1.4321714332617494,0.3653332478776754,0.26742371317260316,1.2734628506009802,-0.343574208771924,0.5995900676747352,-0.7157243627763759,-0.8650734437545808,1.4936437406747811,-0.814025460672136,-1.8557030773912055,-1.2042075303792772,-1.486984003223614
1.4972460328350548,0.7922653787252587,0.8423849787587767,1.313288777266692,1.5784209277671146,1.1972692427055938,0.6056312688197405,0.3568168356207351,1.6254964449885843,-0.5249027068229246,1.950263114710665,-1.8829867175531505,1.6501255983590815,-1.815048257226688,0.5585128121595657,-0.2357763159794799
-0.7326923886394909,1.6696161426308422,-0.9016816801138953,0.450584387672853,-0.38105025857438196,-1.8072461214087023,1.8205387953986283,-1.4680993874527073,1.807000183991164,0.998865329941109,0.9366894586294893,-1.2067088821680447,0.35350545871479655,-1.9720283508849707,-0.6444036549548825,0.8813676501465048
1.5273681535207269,-0.3250502927307579,-1.5329254334752265,1.3292073807711788,-1.733656293138441,0.6903728162322627,-0.5071471257239502,-0.3563390326989704,0.11333775416319902,-0.2951663405009257,-1.4494486624462457,-1.5874626426521132,0.79859632302764,-0.2072746015527751,0.673405285076635,0.8511321965407781
-0.10658200206135993,1.7468991053766598,1.1564590289169412,0.9153106870438785,-1.6796038593321456,-1.0471328049201247,1.1954521702878913,-0.1403239304086119,-0.639475006485017,-1.6965060344201284,-2.086259790482402,0.3492776694938318,1.422794207856235,0.9412739613639587,-0.3145293143731191,-1.1782426166023563
1.44266077856583,-0.9562888522694926,-1.949969589032996,1.8201310959980819,-1.164666655907245,-1.17577099367207,0.21932839514060953,0.6755421465842848,-1.6168705358826974,1.5702523506302888,-1.3440832847215547,0.7808541358104302,-1.1614695197041076,1.2755567380573063,-0.6555583984884978,1.265079276339744
-0.3919948125360677,1.860940683278404,0.9415369914794862,-1.176615796188186,-0.8352944890854569,0.24254416325377898,-0.7327860107413474,-1.4056332410751837,1.1562187647651414,0.7264908662170912,-2.247660985532544,-2.6460790456095045,0.7502652710669384,-1.1330510131864415,-3.4446172508679633,1.5634589502172296
-1.171754045920244,-0.3639424886559617,-0.5087908144643563,1.406637546147909,-1.0898540170526747,-0.37845222941327883,-0.9658585814117,1.9213340757588333,0.48997619214570465,-1.013253767546618,1.3490415444893662,-1.0379472734236144,1.8490104716954119,0.6873880291701582,0.5559820653694176,-1.2556645103666826
-0.419687095588286,0.36942201246008727,1.4703469170210275,-0.3834641363843718,-3.2014715372066536,0.883545431822406,-3.7498906945005714,-0.6539402212098633,0.3301757334269267,1.3384566033406604,-4.344159398362298,-3.542819862601977,-3.0084139486629518,-2.2546482258871476,-5.006182306541088,1.4949405912895104
-1.4892973829636649,-0.8460127517084044,-1.6421230501824442,-1.1603590001683535,-0.09049788186525998,0.12605284318335386,1.6295390004700252,0.0040673965558171155,-0.34442777715892037,-1.2344653137691206,1.4177796816584745,-0.6649856862337971,0.11375348695270349,1.3152833836842874,1.2808156153995132,0.7186709902396742
0.7758932721356108,1.0789837393000385,0.8474971090191988,-1.855108022916621,-3.3159762425836967,-1.2504119289570723,-4.737484156555024,0.5082820479044341,0.7763944907180852,-0.3840384739673065,-4.165644775059358,-1.9504002781703749,-3.9152291118781237,-0.6173951055351014,-4.075280563479285,1.0198966375027632
0.3731112132296386,-0.004053322820285921,-0.40608456596194165,0.43854255038568546,1.639480813387165,0.9928811229999526,-0.14090174643211784,-1.3480086501624662,0.8402490163900009,-0.5443359623736637,0.026828625524461636,0.885394470759894,-1.2274090324494153,0.30785271854299756,1.0543997228842916,-1.6726258016889677
1.007399028556513,0.8322859827314172,-1.0165753203557237,1.4026538616162023,-0.6526460590888535,0.21987752093347568,-3.291035608433416,1.805943210827051,-0.5089436118048001,0.2617613135122929,-6.398826114738389,-4.727229425646623,-1.190623507156354,-3.2723684555268515,-5.614854715292014,-1.0040406402386979
-1.0862961598268663,-0.4849234932563493,-1.0768366266556955,-1.0972120107266932,0.31799562758446553,1.0417342012164386,1.3998691456274703,1.605170800113794,1.0059953453930262,-0.107046248384703,-1.359134195716336,0.45754110334051434,-0.11847552090320423,-1.633836461268944,0.528219012326467,0.8077997992087402
0.4339515483116437,-0.2481915700870233,-1.594532940247723,1.392482794849843,-2.8328378579726414,0.5174951800759428,-5.252634316319221,1.545240592193191,-1.8730707279983358,-1.7631092585243355,-4.209673953095758,-4.992845647903168,0.0689753985311117,-0.9181957833872173,-7.488610292203343,-1.7127080121945795
-0.8889112753018251,1.1682140026937238,0.8688210631606936,-1.5902193128110653,-1.1822894974959137,-0.23005992304618994,-1.7024578491660631,-0.6190703193477565,-1.2820548175281052,1.1367869208203705,1.694629585320865,0.06337479945119995,-0.36821028191698835,-0.43467724334813473,-1.903404143141298,-1.4226567736629505
-1.6287015581800564,-0.5056218242212069,0.9774565003783818,0.7994391637886262,-3.0433972998488845,-1.5078817311812815,-5.772946392866506,0.8673686083969794,0.784216643973799,0.27646995294211585,-6.0923366141202875,-4.635620591564862,-1.461295141447841,-2.068926086213763,-3.8613285028082154,-0.24823623810695344
-0.3234086555380715,-1.4587478709099369,0.27578395261860233,-0.18528841323678114,0.6077401231864319,1.605163233957465,-1.5347579293253522,0.8401993963451195,1.982736702827557,1.8124885598591778,1.5980935066708262,-1.9529393148846874,1.7675630611803035,0.16695934404459223,0.18902036433316027,-1.905033263772728
0.3598347715601505,0.3000505706785863,0.4200024583419736,-0.28813758361220554,-2.315267227349385,1.0210636523903096,-3.6980583526333635,0.8591676678921192,-1.4603908054566654,0.27928216581237353,-2.733719953645197,-2.6447023720887066,-2.357207694073186,-1.3927444185637514,-5.9070676560932895,1.228934541202137
0.2887725745830889,-1.8638548777295356,-0.5529197444856586,-0.5941306548880791,1.4598204253665985,-0.1210582347237712,-0.8280481645434601,-0.022517432580341445,0.451861756472443,1.0429514416732366,0.6771445100337057,1.6823579457548132,1.588853194662458,-1.8410439485734273,-1.6924380168155553,-0.34296352585481493
0.6729126156923882,0.7316377128317477,-0.2541585888178855,-1.3010265948591373,0.646442204195472,1.7880637439733666,-0.7875908138457163,-0.9808973949180291,1.5125376147063234,-0.7220018336335845,-1.8389423348274694,-0.3627758619914625,-0.618828887363317,0.6487785196799027,-0.7322052809726483,-0.9972600928013375
1.2358299588761894,-0.8479406189746106,1.2237416497012727,0.83507890473996,1.87773978287479,-0.9165685867651616,-1.775792957210876,0.8452190302561169,1.9062767910551188,0.7267611653532704,-0.4001372520467634,0.49759447583550065,-1.1519079187264558,0.8680673067887579,1.2492889523361397,-1.2563665431103757
-0.34342689015922817,0.896850550418963,0.19627210615668017,1.3976399443381906,1.4580192412250734,0.14194571419019203,0.9893327599450525,-1.3801091342497993,1.6972275396613843,0.8025898796710478,0.7984277223381111,-2.202962448115868,-1.9561001514792753,0.027552831190616436,-1.7433291973750447,-1.9256863309055858
1.6972059516609685,1.5749814384533045,-0.5239180832679824,-1.0195726146106456,1.67874749188584,-1.431810943245737,-1.0963394744096777,-0.03070943318308572,0.022919570407177847,-1.8020110143743655,-1.3134814544772424,-0.41667344284075813,1.5802372284095996,1.2307255733308855,1.7134983173109113,0.6187152708197075
1.586042608412979,1.544959811120313,0.9969236646053745,-1.6111298070543532,-1.0481207880731414,1.5021693640253138,-0.3850200330182274,1.5737034735096818,-1.9504300993655899,-0.5882514578307472,-0.34626779204259,0.0755083566253959,0.3880377880176709,-1.3409138338787971,0.23364415245694536,0.7481874041045122
0.2512709574410188,-0.8225161768723361,0.16003870030373957,0.17538023702826022,1.131673041883321,-1.211357419855915,1.855735061083963,-0.5867286592701877,1.573364865798434,-0.08347194880895703,-0.03590791490430201,-1.105956601924662,1.2672615082479624,-1.715718285192676,0.6473097206249516,0.21697301179744777
1.6733199985387492,-1.019016854200053,1.9648651877183543,0.8373086190378998,1.551039122217535,0.607751592259854,-1.2391798402025809,0.30744183674611314,-1.6677795369804076,0.09013311831580761,1.4913721131986373,-1.8150722677199562,-0.6136210890298419,-0.7442577833344783,-0.2909885665221033,-0.364802828899522
0.3460070809398954,0.10783081025789931,0.37492059889424834,0.1701548275111362,1.4260235505017707,-0.08791119702471795,-0.39885468702498406,1.0252816490067724,0.12626942670635932,1.119620550882758,1.1934065149196678,-0.5332942627395831,1.0411215266845675,0.5922754098189316,-1.4531907326385118,-1.1084881546622203
0.49881823485787935,1.0805379074617472,-1.773517665419904,0.05891564227699275,-0.8687692559783486,-0.6738828770670215,-0.5326077877428915,1.2197524445787842,0.8772578083453775,-1.1869717273578453,-1.4555017987914214,1.3906864861289119,1.9743892515468722,-1.3588398679546199,-1.083511146250979,-1.6129793581200587
-0.9834169820513154,-1.981671069743213,1.2162544501403687,-0.3943144884985288,-1.2278604007307665,0.7069162524769648,0.13799519662402027,-0.08395287093703496,-1.6235434826045947,-0.8654623985319296,-1.9382860383068925,0.5262320603034496,-0.046172227989374814,0.02885024321139351,0.8567418246970768,0.9396653607850003
1.0931610313032194,-0.2312569124106436,1.1707888779608204,0.060721137463831454,-1.5475049325933279,-1.404113109468958,-0.08829491947980617,1.458791578758687,-1.532629679421495,0.7028074401372639,-1.1476923466619975,1.709697655883076,1.253984852626917,-1.6598933406761947,-1.3882996876383231,-0.7660168263904382
-0.3635393098556805,1.3647503715365374,1.5650406901873817,-0.14495996730476657,1.7406708498968086,-0.2065091333996243,1.7234243542821086,-1.1235024835897054,1.9598160157083635,0.39730851979733917,-0.718781927390622,0.7316083853971205,0.3192705759345471,0.36556726904391557,1.4939068229600654,1.3293027539926028
1.8027977038933964,-0.16455465829124138,-0.14015528087336504,-1.1463260700798235,1.4806143346583105,-1.0676227272753547,0.21526745280970966,-1.6695756134098927,-1.258180755073607,1.404562985586438,1.0770651077397912,0.4496433903853273,-0.25721974795543867,1.6931646727493237,-0.4336664846580146,-1.2935071945051764
0.6399675712326083,0.6736910020924354,-0.35044714366362806,-0.8874764806075404,0.16336116876474982,-1.5954228809921238,0.8658249915517127,1.5729347802918645,0.1644671194209315,1.3992981199291634,1.2340771910470107,0.6834182117311829,-0.13740643058126611,-0.7714591463656117,-1.5260610727444037,-0.14654073408939805
-0.18227730749930426,1.3014626802007134,-0.027520341827455084,-0.6623098648808221,-2.568540618239354,-1.1101650807204115,0.20028064206048918,0.47968781797597604,-0.1685519181153164,-1.511657594400614,-1.4290333521435958,0.19212970135946322,-0.621267222096325,-1.6618071488248352,-3.892346183642373,0.832080786019848
-1.4811557242299211,0.47851576008407504,-1.3472818546048724,-1.8480346538691022,-0.8366128591177349,0.9596657896113667,-0.07078156923931811,-0.9693838070538332,0.9423213940806483,-0.0059916439299083635,1.6070853142662926,-0.351608025375151,-1.2441822155275206,0.21008713822841063,-1.0339079099205741,1.8120576751171424
0.537376250921652,0.8590875744192928,0.03523499161805546,1.2357583737208677,-0.8448223552010606,-0.3414084838070471,-3.18541514633406,1.9864322727244272,1.0418619151203656,-1.035509175274987,-5.031121171723054,-2.5943434479424456,-2.2741618928479093,-0.08427396152671275,-4.663616578112083,-1.233097522106612
0.053532746915813334,0.8272381596684908,-0.9801239090295106,0.5838626996314256,1.6990820017580206,0.28436406595990027,-0.6325163502852975,0.29615641624500766,0.9781951818253138,-0.6014399143392217,-1.4471950433624903,0.9875782084085554,0.42136109391176957,-0.018172727558877888,-1.9820163865936813,-0.5531224604862892
-1.1039300562707615,1.0189284138569286,-1.2847668203062417,-0.7215392434337309,-1.3150770644152336,-0.9045132636958659,-2.517047265029238,0.45346105497288836,0.8698265264400591,0.1914595873756899,-3.8536798826088536,-4.673814461739614,-1.1242296111470924,-1.2135848304141394,-2.462224956190649,1.0483535535138107
0.5992343810526091,-0.7273380370969269,0.8334147464260311,-0.10101163877154917,-0.6906145795645537,0.328528234666166,0.4380698631319535,-1.3483732886810142,1.1053046160710829,-0.35949148864949754,-1.8651627424132866,0.9202902823604839,0.17067205885252879,1.7548839021775722,1.1225550128934185,-0.06967148510327537
-1.8978070800034548,-1.2764651044773077,-0.3323071561301824,0.461524533442879,-0.535266475564061,-1.9519718490153481,-2.0984244171347366,1.4458587794582987,1.132347762753381,-1.538944862488967,-5.319767393021101,-3.048676684863218,-3.096673024944329,-0.6468711293996445,-3.152230878157569,-0.9367861579891701
-1.2753945176679706,0.8240450101017127,0.5447637637058524,-1.4537610051964012,0.5157877023624677,0.2762071030281721,1.2954516703023504,-1.7500527950024987,-0.44037157521632464,0.8028760154394852,-0.5416313810749238,-1.960826647736079,1.4014047310292397,0.3678658760133855,-1.967476404897588,-1.0584103206896351
-1.2763502718664985,-1.8386141113441736,1.1576180579966637,0.7328043752678153,-2.31411681274397,1.1907062561964916,-2.710850802258954,0.48648826970239867,-0.5417567907078896,1.5125472526027923,-2.4760119156443534,-4.947985973822631,-0.31673200982626065,-3.7947805376654626,-4.633416937761449,-2.070290933941367
1.8266899362996605,-0.280282699591643,0.9589543826259246,-1.620912714180632,-0.056397947220595324,-0.45916737271479136,1.4691477063926297,-0.9758226760006656,-0.8760715760247275,1.3505039252489275,-1.6175599966375325,-0.5508706303822808,1.888871129067979,0.6466172342458965,0.3117327694484797,-1.617129014427765
0.5175893872752192,-0.4566727264010773,0.033357361998306745,0.2279871843153649,-2.9766705351151366,-0.28572924306986425,-4.784686122012283,1.6039137064205065,1.3971460059622707,0.9860598021052905,-3.787657171052691,-3.838584519871171,-1.465643154845443,-1.4014474161631483,-5.400822818901467,-1.3817451928931472
-1.1896830496939619,-0.9905114012531779,1.4488943192886072,-0.4605042494889835,-0.8196709382223211,1.7152710034167842,-1.2521261433501842,0.4748160832111403,-0.6067056422595973,1.9221884424475535,-1.481291273150204,-0.2650053315312837,-1.8081455806425004,1.1880910778098004,-1.9886053929492187,-0.6412547979579473
0.863509442351709,-0.9454476247691534,0.7069487433855637,0.16805346047089564,-3.0666629205480143,-0.8298299710332773,-3.690891072526667,-1.973359564875274,1.8916038486100981,1.0870146292673226,-5.216084745197702,-2.3579973346280796,-0.5650408236789677,-1.3701011670628245,-3.675544585249568,1.0324527011100284
1.2321223646254107,0.7748149266370326,-1.8093629615007694,-1.8138690200804466,-1.4082773046054302,-1.4270806490253394,-0.4671828715681361,1.3808048107095474,-0.9051991647122373,-0.9856231519175163,-0.6625774959451367,1.230414858244755,-1.1174845625470549,1.459319499796473,1.8454813704538622,-1.2335540917100922
0.4622671719179533,1.3530849410218995,-1.4501470884375658,0.06883075064072752,0.5557596548583197,-0.734370485800844,-0.5845929988829024,-0.3424952040047917,1.6952982223538964,0.08599580662129541,-2.7629290268407316,-2.4526662977826357,-0.6058321379266788,0.4820650856281806,-0.7284735611167524,-1.2079611712246447
0.24490597110464885,0.23400175571074344,-0.32843984458225206,-1.855237452904733,-1.0768920515815705,-1.695241868002482,-1.1725162971926957,0.8749078818692881,0.4877592348093276,1.1900388576378118,0.4550646443693305,-0.7655752544643777,-0.003510467486601332,1.7222140118851827,0.8382567904732579,-1.849591204319526
0.04547326696964754,-1.688057668444205,0.7190678376707368,-1.6903415816469858,-2.086769981150907,-0.5118266115979568,-0.5949990775043266,1.4977578836097556,-1.8123379180309143,0.7904945379488977,-1.3964285212963357,-1.1654039005840529,-0.3364976992608966,0.11660148642652002,0.9014415405485268,1.50814443131401
-1.5443597235858877,1.4599373255122092,0.2757198234472078,-1.519107860387372,-0.7267691259610349,-0.9082869330930774,-0.5254025223683816,-1.4610285605110982,-0.09944361549300673,-0.10851452122658323,0.001329397417218825,1.1935935759443304,-1.0550325652839279,-0.45270119339625436,-1.4426013985015613,-0.6862814316466688
-1.3630198086156442,-0.8946594560908046,-0.42866741167287753,-1.459462090826508,-0.41717083364296903,-1.2336589532064908,-0.6462196892698955,1.057144716218144,-0.7112375748049922,-0.2209106002818224,-0.5567609211009077,1.3771137799038442,-1.8993625764555002,0.24997429500353635,-0.4748711315476633,-1.3392655489198253
1.3463633271508129,-0.6547664880734589,-0.5353570670019874,-1.8118638098422313,-1.915925420784097,-1.0545040822213787,0.6037595406089502,0.658108050202058,0.9705886465362683,-1.0214331008983395,-1.5836015842434232,0.7989220617128185,0.05216628534934076,-1.9300164285412231,1.7267864772937602,-1.375109455951291
-1.9948135138280354,0.7835699237624238,-0.3370701585472373,-1.2752441724155288,-1.0986815758368587,-0.007689055790836008,-0.7597561651085476,0.20255874411903863,-1.6676105268964947,1.0633881107756769,-0.8928454890313393,0.37955009281785035,-1.5488121387753546,-0.8761060971772907,-1.407275755938028,0.6321557542102694
1.5151364721857306,0.8388184850846172,0.056406111678133364,1.7762475839137752,-0.23065269421041545,-1.528831498101089,0.27165308980762726,0.721589760605954,1.8422458252219447,-0.9834148857729117,1.399667511268317,-0.694974734315589,0.9298710488454622,-0.06053393321036138,-1.9962722767608452,-0.9924024305676475
-1.3371872985538071,0.8431501307696907,1.2271836318766094,0.2413049570568382,-1.0808635778188531,0.9083373347925985,-0.4144203293001593,0.7605505839274507,-1.6970127292662727,-0.04961570632729595,-1.416250500138895,-1.930729630638218,-0.4701085670112941,-0.7676733368941875,1.3541779124577973,0.13823602509305338
-1.8925086537894265,1.6766205633005682,0.19128952928838405,-0.7796242953492749,0.3215980277818442,0.7106737385796733,0.6095248437311049,-1.4979748505731418,0.45001035480290286,-0.9075927206258982,1.5583843227168437,-0.29813821501263904,1.143215255520702,1.4292140966212066,-0.45463850960225605,-0.042927848110140054
0.1372833320893383,-1.476826271111665,1.6505501233535358,-1.833573460354414,0.11470056012498636,-1.1670927628069854,1.0302541642580088,-0.6266125719712199,-1.0167289792049514,-1.0945777817552802,-1.6660517998871658,1.3119360309821868,1.7507116095772335,1.4320483196860323,-0.04543553935594333,-1.1398688544553055
1.8240813568315972,1.1354053670711068,-0.908130953036256,1.8478719656980562,1.2401902029319207,1.6252446283359965,-1.0645361984857584,-0.5829668413515532,-1.4102808401130198,1.234776913610264,0.18348767913044872,-1.8515798007780488,1.2350328482810733,0.6085633698222388,-1.8567523250263318,-1.5325347867628403
0.3814495593800018,1.2668388112085478,-0.9393048706221487,-1.1494958690487596,0.5247022948693116,-1.7805085288291425,-0.5030883242270769,1.0227519947670358,1.0459404144877213,-1.774805791062799,1.2603152037910728,1.502032897209743,-0.23267433646269864,1.6746623058509997,-0.5292906416069612,-0.09067070299502489
1.8058624591771535,1.10276309695104,1.111737886631179,-1.496428096805479,-0.2291356848919186,1.666297197752618,1.9561869657929338,-0.20309337143295147,1.2654400769989822,-0.4938100626333819,-1.4959888130810453,-0.987212525679269,-0.8884629828137798,-1.50188619922065,-0.05548456127754742,1.404683291962384
1.4977804010945137,0.6203378434292287,-0.1464751420391692,0.4251290120001796,-1.328265935472591,-1.618106538194958,-3.196937672930602,1.2143847173689877,1.0650101917049866,0.1651103148749573,-1.1851796218738697,-0.7178132702754073,0.7668904013184767,0.6186113316176981,-0.8876925740324222,-0.768248092822307
-0.3526520338198389,1.5657465423959689,1.6509871893615728,0.7159064802353781,-1.6863562935824037,0.5916528382338844,0.34224499690291754,-1.3862215802571751,1.334538521291324,0.8384388167422046,0.6739943438795568,-0.5884361257912265,-1.451101384609383,-0.2621524763969876,-1.7756753356083244,0.48721054348842197
-1.5900113684385317,1.7158496056455879,-0.6991920926569156,-0.2389010913415195,-2.002322945621074,0.4744768283334434,-3.448632358264939,-1.5524547087565188,-0.4059893508387264,-0.39826261984505484,-2.9616199667055256,-1.745421247090928,-1.527770108396424,-1.4272509091882892,-5.288170497390559,-0.4699707442535422
-0.48514455660197564,-0.6201542815347207,0.5396256518776883,0.9016430991647355,0.9041490684727576,-0.7209760386435624,-1.8352864382335756,1.2425791403840556,1.4944132995779342,-1.352553392424869,1.6877504815286506,-0.27486362378635043,-1.2324449047146295,1.53159075577644,1.6162025315976942,1.6133911114222248
-1.5453939134978998,-0.48186616322349923,0.43065242870640313,0.33768338629334016,-0.46845133183417387,-0.8324713616787972,-3.1231277726615727,0.3049586797324437,1.1288889758635057,-1.4633838567115,-3.693589549885057,-2.618956412364416,-0.7439552912562802,-3.099222192229989,-3.861749158552594,-1.8993946867322113
1.4996377889861767,1.2608541742807446,0.9868848415028841,-1.2394596123828947,0.1977062602427475,-0.47515077871156786,-1.3473102793458778,-1.5521682693814811,-1.869284203018215,1.2750686998886698,1.1024436980143384,1.0071568066564356,-0.6399573451403078,-1.338040104953869,-0.9719819677400041,-0.9492240291255909
1.2463983462395491,-1.608733003007225,-0.22116582080526312,-1.8188933775635152,-3.378230513497399,0.07293745597142942,-4.1501534392407775,-0.09928380535248849,-0.4883965299238969,1.1165361455434624,-4.795223369657578,-3.8746210419650775,-0.7674921402087244,-2.732795350169555,-4.187621139777933,1.8383276116474565
0.8886733351291993,1.4270312648319785,-0.4248693524925451,0.3461660679796008,-0.15087599718708988,1.8896213551118475,-1.547788322367519,-0.8396787949052884,1.237522681059899,-0.5738589318984859,-0.4857540245451686,-1.3386389880711924,-0.9823336391643211,-1.3590835078429335,0.3718709611641686,1.471888606885881
0.9468078587698875,-0.575777290605226,-2.0752533188974422,1.8032612067609577,-2.016621185423627,-0.37217363796858616,-5.16051315855835,-1.1372962886130455,-0.16807772289071898,-1.833923689977971,-4.335343567430519,-2.049740664223364,-0.8601329242013307,-0.27885735454581895,-3.5972284585640755,-1.6919083524705083
0.0014890197103296643,-1.8240573415351595,1.5079776443373873,-1.2209527579293673,0.9899005681937236,0.9341416354495302,0.838728586841464,-0.7994927918595205,-0.8598281621939989,-1.2160805544908282,-0.07805250815341136,0.8128635029552398,-0.35296240897298325,1.081983155072292,1.5024809574375837,1.1834033795096635
-1.4622446796221116,1.320519151908035,0.28096743324892604,-1.050337733455399,-4.619881343140779,0.6385903762458839,-3.635273750762609,1.1655521193171023,-1.7947054653888252,-1.269253109519481,-2.722074646911401,-4.101770647400551,-0.11296575244273686,-3.0131555885604846,-2.778889588366306,-1.0509895020961797
1.7248064725825607,-0.2468155137221264,-0.41089694679464994,-1.4378119781753336,-1.6158964689214468,1.5839415046312562,1.3440167487752692,1.4417037914791555,1.8997636092991814,-1.983839110635905,-0.3086886188912832,-1.1166440363065946,1.7734543395607485,-0.9582852865436187,-1.1667314994588143,-1.5469502010626104
-1.0065237070857291,0.47765560906314164,-1.0380538947961686,-1.374116622947796,-4.125945587879243,0.6382998278495636,-2.776533785856776,-1.6567409403854638,1.0445670058581573,-1.5138969276843781,-2.135775051781711,-1.85193556007167,-3.572040073453318,-2.35981473302781,-4.929679280891929,1.013049037651137
1.5299465589989314,-1.1596787556615769,0.5140180291465692,0.426704519711087,0.8597185361867843,1.4320400123451327,1.493591658828445,0.8628509141175824,0.31884520927420823,1.803827854794108,-0.6008335013346069,-1.1602457037022624,-1.9015552095840693,-0.6432468951209693,-1.8029685079388766,1.2455203304405065
-1.4106189105382883,0.31934638973882784,-2.0004319797495103,0.807679458801104,-2.981901168801754,-0.23321926904109858,-1.74327386016239,1.2717302698863988,-0.541531118630672,1.6473967567014074,-1.669451592269564,-2.656071598600201,-3.238827175312615,-2.1764586969041146,-0.44710498766820583,-0.8658742171084931
0.06781686756076066,-1.2637483648566765,0.1635393345248901,-1.6773622468461151,1.5892486092854994,0.20482001314947906,1.3072732561815594,1.7562560309818318,1.5465930106671202,-1.6351316620950276,0.5468365356148315,0.7013965800207083,1.0922079857296687,0.06522137302304643,1.2123164017213965,-1.440243364923342
-1.417360245625849,-0.4948902174793504,-1.3481839299375884,-1.8884948661025218,-0.8574999106312584,0.13109939546554106,-2.284815348677212,0.7774944489299029,1.2479360125556171,-1.7188223013431263,0.540931519097102,-0.37542132369934866,-1.8054026887535393,0.8278273574398146,-0.427330455849312,0.5252831951275158
1.4588321049026112,-0.7178477269698882,-0.3594778757303905,-0.40511538093167365,-1.1956167016063706,1.421295229439326,1.1597863242396165,-0.6043961159648852,0.9594364356522407,-0.8312858598515218,-0.02036546626828928,-1.958610326591907,1.615208195125053,0.6168359774174363,1.9774758496769285,-0.0025037590788876685
0.3774306283086841,-1.178214136234236,0.7113139473460008,-0.022984736072030554,0.9829307270890904,0.8646296756399678,1.0488187361227173,1.7214846857387518,1.0446046513967144,0.07736970593636983,1.7198283768358622,0.775706509849407,-0.04651301821065116,-1.3375768227933724,-1.4924045782741402,-0.7791101309297903
0.5098931291461919,1.177197829958518,-1.9595379455501156,0.15407466293204441,0.0078046583218549515,1.6046831807984479,0.09663009941168932,-0.47829704764613323,-1.9015475165081548,0.484254703562633,1.030789319244612,1.487156650612104,-1.0328927279232527,1.769645192228082,-0.7441868021292102,-1.2270073365271927
-1.1900352364903823,1.0035628946141557,0.862984948851989,1.491943423713975,0.9526789427412128,-1.0764047159157917,0.08822196958741602,-1.3744115673303465,1.8335319166762183,-1.4058725027352028,-1.215275701069745,1.403487821108809,-1.913132037140596,-1.1229890328689356,1.4362567603085368,-1.1449174164162206
1.3851297654163846,0.9561992271176347,-0.7590610538475229,-1.607947133761054,-0.6532496878871976,0.29364954247718744,-1.6584591331056018,-1.916073187797172,1.0558447840050795,-0.1548216231294015,-0.8308350375365801,1.2335848038137365,-1.6416344818142914,-0.42400231352992135,0.7825448315088086,-0.8868409619081188
-0.17988400866411602,1.1139266543989361,-1.8331296466630254,1.7195228886067437,-1.825644830332473,0.8007329081651378,-1.697059730500198,-0.19863401608891618,0.35954884859492475,-0.3898834109877223,-1.9801898405735003,0.16271983616188512,-0.7776547537677128,-1.8553038763556637,1.4724745040447411,-1.711900912679711
1.0030522497484315,-0.34785407241194477,-0.0504336896102644,-1.8316823117999483,-0.23682411131780778,-1.95236041300693,1.8829983497136351,1.337217675384749,1.2809394953651188,-0.176414693545345,-0.6468868965569805,1.104199519762346,0.95918009101654,0.22465647919517195,-1.361950884359325,0.5149638810709765
0.5879107294801584,1.8443717276137104,-1.2312432841726326,0.40534969469696724,1.6112975780771825,1.6267460105592848,-0.31398124542705175,-0.15483072728081604,-1.8839384583892689,-0.8227522810538654,0.6812454753616026,1.1247678101762664,1.5451667690698172,-1.439947355125677,1.5595132148770907,1.7832797632712913
-1.95575186091726,-0.1344090670328919,-0.04708144432158479,-0.7477205198105956,-1.114587487131708,1.0101570268047757,1.6735490811594853,-1.0756851076248597,-0.6065653502198649,-1.4729519287785373,0.9222214983911234,-0.5192488786985225,-0.15743514830809335,-0.03994069784181109,0.4569576528185548,0.27030245212556103
-1.6381051778517826,-1.4684124616918721,1.8702136013668897,0.685112587553296,-2.173838485974967,0.30897473419329113,0.6015794973912089,-0.6260797158048095,-0.36381353549967393,-0.5783473538992628,0.10169694903765869,1.3595490854872585,0.3504998712096194,0.5382724402734838,0.2705908480623608,0.6092554749816975
0.24317078788139224,0.744481945335036,-1.2029109299442555,-1.7399845801458245,-1.022076017690182,0.9926504829772127,-0.7883380062800018,0.26444216142537025,1.4782014455101193,-0.53581649718235,0.9498382841806072,-0.010431403591491417,-1.2764950503084465,-0.3204495117410757,-0.6479445946958204,0.13269195070809614
-1.4063784648171596,-0.16933855357847416,1.4200222658731487,-1.9484285384680566,-2.3610669457197995,1.9499738095372674,-0.5815125734543409,0.8896920357963434,0.0016350514684919837,1.5765671683386973,-0.16198856840528214,-2.6541993881703796,-2.621404511199698,1.2469767322171919,-1.2306805419799036,-1.331858832912566
0.6407575621143038,-0.20816502375996881,-1.4449369903278124,-0.8576956516102077,-1.4677687563450297,-0.3640809577902866,-1.0378691953883323,1.6144196458172444,-1.4633298218473887,1.3587552143631347,-1.2677445523504614,1.1625384738643465,1.967467879601846,1.0184858634959677,-0.15174151469679398,-0.12857645617142355
0.7240012015799482,-0.24417781114545978,-1.9436423608733513,-1.623601467046985,0.04280285368632208,-0.17164714580013418,-3.11255087214695,0.36124141533584897,-0.8732546987330663,-1.1524731464920432,-1.9970041369780573,-2.988131746034576,-0.6627903475752742,-2.7586458090971684,-4.733785010936415,-0.3164567514565712
-1.4233787444050479,-1.9173523240338421,0.89079694120118,1.6546989295952268,1.4498116360416926,1.3597516031798236,0.1255106797500667,-0.5263861760535096,-1.572538419794113,1.4744572588058298,0.8865849036981825,-1.6128833036274006,1.9024759017851212,1.0524398473199685,-1.1334888287852913,1.606152697197822
1.190472774934375,-0.4297518285580055,1.5525223132953772,-0.35627728526613156,-2.952841976006096,-0.13615036023081883,-1.5866829168726009,-1.028848800908154,-1.0732028301552634,0.2896832961047533,-4.27405748144503,-2.004093501484082,-1.0759444281797987,-3.2046011876413614,-3.053133487327708,1.5278304555019322
-0.22475219576497985,-0.44286092065841043,0.34329406788836936,1.4924672942632635,0.028465277714126547,-1.2855328145436795,-1.015379246191137,0.8568475269646374,-1.4701469796926232,-1.4635304110065048,1.7122146698938665,-0.32179365245613845,1.5399537856876542,-1.8218344606703236,-0.8160384956441207,-1.3450862741322762
